booster[0]:
0:leaf=-0.104486406
booster[1]:
0:leaf=-0.104486406
booster[2]:
0:leaf=-0.104486406
booster[3]:
0:leaf=-0.104486406
booster[4]:
0:leaf=-0.104486406
booster[5]:
0:[ompk35_91<14] yes=1,no=2,missing=1
	1:[ompk36_153<14] yes=3,no=4,missing=3
		3:[ompk36_154<20] yes=7,no=8,missing=7
			7:leaf=-0.0820481181
			8:leaf=0.230911493
		4:[ompk36_223<16] yes=9,no=10,missing=9
			9:leaf=1.43895602
			10:[ompk37_277<9] yes=15,no=16,missing=15
				15:leaf=1.24244928
				16:[ompk36_198<17] yes=19,no=20,missing=19
					19:leaf=1.18413591
					20:leaf=0.342800856
	2:[ompk36_153<14] yes=5,no=6,missing=5
		5:[ompk35_41<15] yes=11,no=12,missing=11
			11:leaf=-0.0744489804
			12:leaf=0.0551419556
		6:[ompk35_18<12] yes=13,no=14,missing=13
			13:[ompk35_38<18] yes=17,no=18,missing=17
				17:[ompk35_61<15] yes=21,no=22,missing=21
					21:leaf=0.628601968
					22:leaf=0.148745403
				18:leaf=0.670870125
			14:leaf=-0.0575031526
booster[6]:
0:[ompk36_153<14] yes=1,no=2,missing=1
	1:leaf=-0.0962728336
	2:[ompk35_20<13] yes=3,no=4,missing=3
		3:[ompk35_77<14] yes=5,no=6,missing=5
			5:[ompk36_198<17] yes=7,no=8,missing=7
				7:[ompk36_383<5] yes=11,no=12,missing=11
					11:leaf=-0.0835164785
					12:leaf=0.036268983
				8:[ompk36_223<16] yes=13,no=14,missing=13
					13:leaf=0.0525102429
					14:leaf=0.170883328
			6:[ompk36_383<5] yes=9,no=10,missing=9
				9:leaf=0.0690909103
				10:leaf=-0.0690909103
		4:leaf=0.304624885
booster[7]:
0:[ompk36_249<15] yes=1,no=2,missing=1
	1:[ompk35_73<20] yes=3,no=4,missing=3
		3:leaf=-0.0904385969
		4:[ompk36_349<10] yes=7,no=8,missing=7
			7:leaf=-0.0887615681
			8:leaf=0.146878108
	2:[ompk37_277<9] yes=5,no=6,missing=5
		5:[ompk36_96<20] yes=9,no=10,missing=9
			9:[ompk36_383<5] yes=13,no=14,missing=13
				13:leaf=-0.0275950432
				14:leaf=-0.0968097299
			10:leaf=0.0278679933
		6:[ompk35_64<13] yes=11,no=12,missing=11
			11:[ompk36_383<5] yes=15,no=16,missing=15
				15:leaf=-0.0744489804
				16:[ompk36_198<17] yes=17,no=18,missing=17
					17:leaf=-0.0430594906
					18:leaf=0.0796102285
			12:leaf=-0.045932699
booster[8]:
0:[ompk36_216<8] yes=1,no=2,missing=1
	1:[ompk36_387<14] yes=3,no=4,missing=3
		3:leaf=0.135535002
		4:leaf=0.0335435085
	2:[ompk36_153<14] yes=5,no=6,missing=5
		5:[ompk36_383<5] yes=7,no=8,missing=7
			7:[ompk36_154<11] yes=11,no=12,missing=11
				11:[ompk36_378<5] yes=17,no=18,missing=17
					17:leaf=-0.0632630438
					18:leaf=0.124590158
				12:leaf=0.166275352
			8:[ompk35_41<15] yes=13,no=14,missing=13
				13:leaf=-0.0784341618
				14:leaf=-0.0326503627
		6:[ompk36_96<20] yes=9,no=10,missing=9
			9:[ompk37_264<8] yes=15,no=16,missing=15
				15:[ompk36_378<5] yes=19,no=20,missing=19
					19:leaf=0.0168701466
					20:leaf=-0.0777209625
				16:leaf=-0.0963792875
			10:leaf=-0.0536470599
booster[9]:
0:[ompk36_281<16] yes=1,no=2,missing=1
	1:[ompk36_154<12] yes=3,no=4,missing=3
		3:leaf=0.130064756
		4:[ompk36_384<7] yes=7,no=8,missing=7
			7:[ompk36_206<17] yes=13,no=14,missing=13
				13:leaf=0.0434285738
				14:[ompk37_229<13] yes=21,no=22,missing=21
					21:leaf=-0.0936661437
					22:leaf=-0.0211013407
			8:leaf=0.0479394458
	2:[ompk36_207<20] yes=5,no=6,missing=5
		5:[ompk37_277<9] yes=9,no=10,missing=9
			9:[ompk36_154<16] yes=15,no=16,missing=15
				15:leaf=0.0401585214
				16:[ompk36_383<5] yes=23,no=24,missing=23
					23:leaf=-0.0378031097
					24:leaf=-0.0746143088
			10:leaf=-0.0885081291
		6:[ompk36_387<14] yes=11,no=12,missing=11
			11:[ompk36_215<7] yes=17,no=18,missing=17
				17:leaf=0.230911493
				18:leaf=-0.0552179627
			12:[ompk35_41<9] yes=19,no=20,missing=19
				19:[ompk36_137<15] yes=25,no=26,missing=25
					25:leaf=0.0275030173
					26:leaf=-0.0798133016
				20:leaf=0.0401585214
booster[10]:
0:[ompk36_249<25] yes=1,no=2,missing=1
	1:[ompk35_38<18] yes=3,no=4,missing=3
		3:[ompk36_281<16] yes=7,no=8,missing=7
			7:[ompk35_61<15] yes=13,no=14,missing=13
				13:leaf=-0.0508616343
				14:leaf=0.0121664898
			8:[ompk35_131<9] yes=15,no=16,missing=15
				15:[ompk36_223<16] yes=19,no=20,missing=19
					19:leaf=-0.0690909103
					20:leaf=0.0275030173
				16:[ompk35_73<20] yes=21,no=22,missing=21
					21:leaf=-0.0972525403
					22:leaf=-0.0553481989
		4:leaf=0.0401585214
	2:[ompk37_277<9] yes=5,no=6,missing=5
		5:[ompk36_383<5] yes=9,no=10,missing=9
			9:leaf=-0.0275950432
			10:leaf=-0.0946464315
		6:[ompk36_198<17] yes=11,no=12,missing=11
			11:leaf=-0.0835164785
			12:[ompk35_64<13] yes=17,no=18,missing=17
				17:[ompk36_383<5] yes=23,no=24,missing=23
					23:leaf=-0.0155102033
					24:leaf=0.106695466
				18:leaf=-0.0429893695
booster[11]:
0:[ompk37_242<10] yes=1,no=2,missing=1
	1:[ompk35_17<15] yes=3,no=4,missing=3
		3:[ompk37_18<10] yes=7,no=8,missing=7
			7:[ompk36_349<10] yes=11,no=12,missing=11
				11:[ompk36_198<17] yes=19,no=20,missing=19
					19:leaf=-0.0536470599
					20:leaf=-0.100809567
				12:[ompk36_97<15] yes=21,no=22,missing=21
					21:leaf=0.0123091182
					22:leaf=-0.0795952007
			8:[ompk36_256<2] yes=13,no=14,missing=13
				13:leaf=0.156217888
				14:leaf=-0.0648879409
		4:leaf=0.135535002
	2:[ompk36_327<3] yes=5,no=6,missing=5
		5:[ompk36_249<16] yes=9,no=10,missing=9
			9:[ompk36_383<5] yes=15,no=16,missing=15
				15:[ompk36_300<15] yes=23,no=24,missing=23
					23:leaf=-0.0367086418
					24:leaf=0.0527568422
				16:leaf=-0.0914476141
			10:[ompk36_198<17] yes=17,no=18,missing=17
				17:leaf=-0.0830478445
				18:leaf=0.127004549
		6:leaf=0.353168368
booster[12]:
0:[ompk36_153<14] yes=1,no=2,missing=1
	1:leaf=1.41632164
	2:[ompk35_61<15] yes=3,no=4,missing=3
		3:[ompk36_249<15] yes=5,no=6,missing=5
			5:[ompk36_215<7] yes=9,no=10,missing=9
				9:[ompk37_365<9] yes=15,no=16,missing=15
					15:leaf=-0.0414059721
					16:leaf=0.0745660365
				10:[ompk36_309<3] yes=17,no=18,missing=17
					17:leaf=-0.0602100752
					18:leaf=-0.00988725014
			6:[ompk37_277<20] yes=11,no=12,missing=11
				11:[ompk36_129<13] yes=19,no=20,missing=19
					19:leaf=0.0905505344
					20:leaf=-0.0477737002
				12:[ompk36_198<17] yes=21,no=22,missing=21
					21:leaf=0.038753543
					22:leaf=0.472977877
		4:[ompk35_38<18] yes=7,no=8,missing=7
			7:leaf=1.01833391
			8:[ompk35_18<12] yes=13,no=14,missing=13
				13:leaf=-0.0575031526
				14:leaf=0.306683481
booster[13]:
0:leaf=-0.104486406
booster[14]:
0:leaf=-0.104486406
booster[15]:
0:leaf=-0.104486406
booster[16]:
0:leaf=-0.104486406
booster[17]:
0:leaf=-0.104486406
booster[18]:
0:leaf=-0.104486406
booster[19]:
0:leaf=-0.103418007
booster[20]:
0:leaf=-0.103418007
booster[21]:
0:leaf=-0.103418007
booster[22]:
0:leaf=-0.103418007
booster[23]:
0:leaf=-0.103418007
booster[24]:
0:[ompk36_154<20] yes=1,no=2,missing=1
	1:[ompk35_41<15] yes=3,no=4,missing=3
		3:leaf=-0.08708895
		4:leaf=0.0587738268
	2:[ompk35_18<12] yes=5,no=6,missing=5
		5:[ompk37_18<10] yes=7,no=8,missing=7
			7:[ompk35_61<15] yes=9,no=10,missing=9
				9:[ompk36_84<14] yes=13,no=14,missing=13
					13:leaf=0.371349454
					14:leaf=0.0348617509
				10:[ompk35_38<18] yes=15,no=16,missing=15
					15:leaf=0.122714818
					16:leaf=0.418507397
			8:[ompk36_247<6] yes=11,no=12,missing=11
				11:leaf=0.334380776
				12:[ompk37_277<13] yes=17,no=18,missing=17
					17:leaf=0.140512809
					18:leaf=-0.0110125504
		6:leaf=-0.0565603971
booster[25]:
0:[ompk36_153<14] yes=1,no=2,missing=1
	1:leaf=-0.093811512
	2:[ompk37_322<9] yes=3,no=4,missing=3
		3:[ompk35_73<13] yes=5,no=6,missing=5
			5:[ompk36_198<17] yes=9,no=10,missing=9
				9:[ompk36_383<5] yes=15,no=16,missing=15
					15:leaf=-0.079449825
					16:leaf=0.0137835508
				10:[ompk36_232<18] yes=17,no=18,missing=17
					17:leaf=0.0477893241
					18:leaf=0.140115678
			6:leaf=0.279278487
		4:[ompk36_206<20] yes=7,no=8,missing=7
			7:[ompk36_342<13] yes=11,no=12,missing=11
				11:leaf=0.316348225
				12:[ompk35_38<18] yes=19,no=20,missing=19
					19:leaf=0.0326454006
					20:leaf=0.178456962
			8:[ompk35_49<7] yes=13,no=14,missing=13
				13:[ompk36_309<3] yes=21,no=22,missing=21
					21:leaf=-0.0417347513
					22:leaf=0.0164369307
				14:leaf=0.0278018005
booster[26]:
0:[ompk36_249<15] yes=1,no=2,missing=1
	1:[ompk35_73<20] yes=3,no=4,missing=3
		3:[ompk37_374<14] yes=7,no=8,missing=7
			7:leaf=-0.0992326811
			8:[ompk37_229<13] yes=13,no=14,missing=13
				13:leaf=0.0469823517
				14:leaf=-0.0793307796
		4:[ompk36_349<10] yes=9,no=10,missing=9
			9:leaf=-0.0857428685
			10:leaf=0.124775819
	2:[ompk36_119<18] yes=5,no=6,missing=5
		5:[ompk37_277<9] yes=11,no=12,missing=11
			11:[ompk36_383<5] yes=15,no=16,missing=15
				15:leaf=-0.0222498532
				16:leaf=-0.0947610587
			12:[ompk35_91<14] yes=17,no=18,missing=17
				17:[ompk36_383<5] yes=19,no=20,missing=19
					19:leaf=-0.0724617913
					20:leaf=0.0360542014
				18:leaf=-0.0418276452
		6:leaf=0.0482858941
booster[27]:
0:[ompk36_216<8] yes=1,no=2,missing=1
	1:[ompk36_387<14] yes=3,no=4,missing=3
		3:leaf=0.133299217
		4:leaf=0.0376854949
	2:[ompk36_153<14] yes=5,no=6,missing=5
		5:[ompk37_373<3] yes=7,no=8,missing=7
			7:[ompk36_154<16] yes=11,no=12,missing=11
				11:leaf=0.150134727
				12:leaf=0.0143247219
			8:[ompk35_41<15] yes=13,no=14,missing=13
				13:leaf=-0.0751238093
				14:leaf=-0.0279344078
		6:[ompk36_96<20] yes=9,no=10,missing=9
			9:[ompk37_264<8] yes=15,no=16,missing=15
				15:[ompk36_378<5] yes=17,no=18,missing=17
					17:leaf=0.0214851499
					18:leaf=-0.0738160834
				16:leaf=-0.0941237733
			10:leaf=-0.0484799296
booster[28]:
0:[ompk36_207<20] yes=1,no=2,missing=1
	1:[ompk36_342<13] yes=3,no=4,missing=3
		3:leaf=0.040376123
		4:[ompk37_277<9] yes=7,no=8,missing=7
			7:[ompk36_154<16] yes=11,no=12,missing=11
				11:leaf=0.0435686447
				12:[ompk36_383<5] yes=17,no=18,missing=17
					17:leaf=-0.0299863908
					18:leaf=-0.0701551065
			8:leaf=-0.0854019672
	2:[ompk36_154<12] yes=5,no=6,missing=5
		5:leaf=0.124564543
		6:[ompk36_215<7] yes=9,no=10,missing=9
			9:[ompk36_387<14] yes=13,no=14,missing=13
				13:leaf=0.184642047
				14:leaf=-0.0528356209
			10:[ompk37_229<15] yes=15,no=16,missing=15
				15:[ompk36_141<20] yes=19,no=20,missing=19
					19:leaf=-0.0801604316
					20:leaf=-0.024821423
				16:[ompk36_319<14] yes=21,no=22,missing=21
					21:leaf=0.0333733708
					22:leaf=-0.0769016743
booster[29]:
0:[ompk36_249<5] yes=1,no=2,missing=1
	1:[ompk35_73<20] yes=3,no=4,missing=3
		3:leaf=-0.0917814374
		4:[ompk35_41<15] yes=7,no=8,missing=7
			7:leaf=0.0443235449
			8:leaf=-0.0820199698
	2:[ompk36_349<10] yes=5,no=6,missing=5
		5:[ompk37_277<9] yes=9,no=10,missing=9
			9:[ompk36_383<5] yes=13,no=14,missing=13
				13:[ompk36_153<14] yes=19,no=20,missing=19
					19:leaf=-0.0762341917
					20:leaf=-0.0101795793
				14:leaf=-0.0911338255
			10:[ompk36_198<17] yes=15,no=16,missing=15
				15:leaf=-0.0761095583
				16:[ompk36_383<5] yes=21,no=22,missing=21
					21:leaf=-0.0425690226
					22:leaf=0.0373209827
		6:[ompk35_41<9] yes=11,no=12,missing=11
			11:[ompk36_198<17] yes=17,no=18,missing=17
				17:leaf=0.0060572247
				18:leaf=-0.0955087766
			12:leaf=0.0419996679
booster[30]:
0:[ompk37_242<10] yes=1,no=2,missing=1
	1:[ompk35_10<16] yes=3,no=4,missing=3
		3:[ompk37_18<10] yes=7,no=8,missing=7
			7:[ompk37_277<9] yes=13,no=14,missing=13
				13:[ompk36_349<10] yes=21,no=22,missing=21
					21:leaf=-0.0914504156
					22:leaf=-0.0563387834
				14:leaf=0.0463187359
			8:[ompk36_256<2] yes=15,no=16,missing=15
				15:leaf=0.146999732
				16:leaf=-0.0609556101
		4:leaf=0.143191919
	2:[ompk36_327<3] yes=5,no=6,missing=5
		5:[ompk36_249<16] yes=9,no=10,missing=9
			9:[ompk36_383<5] yes=17,no=18,missing=17
				17:[ompk36_300<15] yes=23,no=24,missing=23
					23:leaf=-0.0282501914
					24:leaf=0.0583602004
				18:leaf=-0.0887420997
			10:[ompk36_198<17] yes=19,no=20,missing=19
				19:leaf=-0.0802837014
				20:[ompk35_35<20] yes=25,no=26,missing=25
					25:leaf=0.116576843
					26:leaf=-0.0537691489
		6:[ompk36_141<20] yes=11,no=12,missing=11
			11:leaf=0.347103745
			12:leaf=0.144555628
booster[31]:
0:[ompk35_91<14] yes=1,no=2,missing=1
	1:[ompk36_154<11] yes=3,no=4,missing=3
		3:leaf=0.401534319
		4:[ompk36_223<16] yes=7,no=8,missing=7
			7:[ompk37_264<8] yes=11,no=12,missing=11
				11:[ompk36_153<14] yes=15,no=16,missing=15
					15:leaf=0.31496805
					16:leaf=-0.0180366524
				12:[ompk37_373<3] yes=17,no=18,missing=17
					17:leaf=-0.0368254595
					18:leaf=0.0256873164
			8:[ompk37_277<20] yes=13,no=14,missing=13
				13:[ompk36_129<13] yes=19,no=20,missing=19
					19:leaf=0.0806210637
					20:leaf=-0.042166777
				14:[ompk36_198<17] yes=21,no=22,missing=21
					21:leaf=0.0395639539
					22:leaf=0.27866891
	2:[ompk35_38<18] yes=5,no=6,missing=5
		5:leaf=0.389983475
		6:[ompk35_17<15] yes=9,no=10,missing=9
			9:leaf=0.0042624264
			10:leaf=0.305035621
booster[32]:
0:leaf=-0.103418007
booster[33]:
0:leaf=-0.103418007
booster[34]:
0:leaf=-0.103418007
booster[35]:
0:leaf=-0.103418007
booster[36]:
0:leaf=-0.103418007
booster[37]:
0:leaf=-0.103418007
booster[38]:
0:leaf=-0.102690808
booster[39]:
0:leaf=-0.102690808
booster[40]:
0:leaf=-0.102690808
booster[41]:
0:leaf=-0.102690808
booster[42]:
0:leaf=-0.102690808
booster[43]:
0:[ompk36_154<20] yes=1,no=2,missing=1
	1:[ompk35_41<15] yes=3,no=4,missing=3
		3:leaf=-0.0849218816
		4:leaf=0.0550564639
	2:[ompk35_18<12] yes=5,no=6,missing=5
		5:[ompk36_84<14] yes=7,no=8,missing=7
			7:[ompk37_247<5] yes=9,no=10,missing=9
				9:leaf=0.0519784801
				10:[ompk36_156<16] yes=11,no=12,missing=11
					11:leaf=0.0610494316
					12:leaf=0.246643528
			8:leaf=0.0217728671
		6:leaf=-0.05541059
booster[44]:
0:[ompk36_153<14] yes=1,no=2,missing=1
	1:leaf=-0.0921485499
	2:[ompk37_322<9] yes=3,no=4,missing=3
		3:[ompk36_249<5] yes=5,no=6,missing=5
			5:[ompk36_340<10] yes=9,no=10,missing=9
				9:leaf=0.100491717
				10:leaf=0.354483426
			6:[ompk36_198<17] yes=11,no=12,missing=11
				11:[ompk35_67<14] yes=17,no=18,missing=17
					17:leaf=-0.0498389453
					18:leaf=0.14310658
				12:[ompk35_13<15] yes=19,no=20,missing=19
					19:leaf=0.09107095
					20:leaf=-0.00494566467
		4:[ompk35_73<13] yes=7,no=8,missing=7
			7:[ompk36_249<25] yes=13,no=14,missing=13
				13:[ompk37_209<14] yes=21,no=22,missing=21
					21:leaf=-0.0638370141
					22:leaf=0.0309667345
				14:[ompk36_383<5] yes=23,no=24,missing=23
					23:leaf=0.264098495
					24:leaf=0.0608840548
			8:[ompk35_38<18] yes=15,no=16,missing=15
				15:[ompk37_259<3] yes=25,no=26,missing=25
					25:leaf=0.0190851036
					26:leaf=-0.0698312819
				16:leaf=0.124309294
booster[45]:
0:[ompk36_249<15] yes=1,no=2,missing=1
	1:[ompk35_73<20] yes=3,no=4,missing=3
		3:[ompk37_374<14] yes=7,no=8,missing=7
			7:leaf=-0.098041527
			8:[ompk37_229<13] yes=15,no=16,missing=15
				15:leaf=0.0459473766
				16:[ompk36_281<16] yes=21,no=22,missing=21
					21:leaf=-0.0428103544
					22:leaf=-0.0825558826
		4:[ompk36_349<10] yes=9,no=10,missing=9
			9:leaf=-0.0835527405
			10:leaf=0.108403623
	2:[ompk37_277<9] yes=5,no=6,missing=5
		5:[ompk36_96<20] yes=11,no=12,missing=11
			11:[ompk36_383<5] yes=17,no=18,missing=17
				17:leaf=-0.019300973
				18:leaf=-0.0932570621
			12:leaf=0.028918175
		6:[ompk35_64<13] yes=13,no=14,missing=13
			13:[ompk36_383<5] yes=19,no=20,missing=19
				19:leaf=-0.069969438
				20:[ompk36_198<17] yes=23,no=24,missing=23
					23:leaf=-0.0394912474
					24:leaf=0.0651640743
			14:leaf=-0.0381074511
booster[46]:
0:[ompk36_216<8] yes=1,no=2,missing=1
	1:[ompk36_387<14] yes=3,no=4,missing=3
		3:leaf=0.122245409
		4:leaf=0.0356466286
	2:[ompk36_153<14] yes=5,no=6,missing=5
		5:[ompk37_242<10] yes=7,no=8,missing=7
			7:[ompk36_154<11] yes=11,no=12,missing=11
				11:leaf=0.0294357836
				12:leaf=0.162309438
			8:[ompk35_41<15] yes=13,no=14,missing=13
				13:leaf=-0.0727216303
				14:leaf=-0.0246270932
		6:[ompk36_96<20] yes=9,no=10,missing=9
			9:[ompk37_264<8] yes=15,no=16,missing=15
				15:[ompk36_378<5] yes=17,no=18,missing=17
					17:leaf=0.0222741235
					18:leaf=-0.0713836998
				16:leaf=-0.0923532993
			10:leaf=-0.0451790281
booster[47]:
0:[ompk36_207<20] yes=1,no=2,missing=1
	1:[ompk36_281<16] yes=3,no=4,missing=3
		3:leaf=0.0391848795
		4:[ompk37_277<9] yes=7,no=8,missing=7
			7:[ompk36_154<16] yes=13,no=14,missing=13
				13:leaf=0.0421369523
				14:[ompk36_383<5] yes=19,no=20,missing=19
					19:leaf=-0.026655091
					20:leaf=-0.0670500919
			8:leaf=-0.0828218982
	2:[ompk36_154<12] yes=5,no=6,missing=5
		5:[ompk35_78<20] yes=9,no=10,missing=9
			9:leaf=0.246738344
			10:leaf=-0.0583865903
		6:[ompk36_215<7] yes=11,no=12,missing=11
			11:[ompk37_259<3] yes=15,no=16,missing=15
				15:leaf=0.0182844307
				16:leaf=0.129925594
			12:[ompk37_229<15] yes=17,no=18,missing=17
				17:[ompk36_384<7] yes=21,no=22,missing=21
					21:leaf=-0.0899691358
					22:leaf=-0.0342752114
				18:[ompk36_211<7] yes=23,no=24,missing=23
					23:leaf=0.0338550359
					24:leaf=-0.0748808458
booster[48]:
0:[ompk36_249<5] yes=1,no=2,missing=1
	1:[ompk35_73<20] yes=3,no=4,missing=3
		3:leaf=-0.0897866935
		4:[ompk35_41<15] yes=7,no=8,missing=7
			7:leaf=0.0427691601
			8:leaf=-0.0797614604
	2:[ompk36_349<10] yes=5,no=6,missing=5
		5:[ompk37_277<9] yes=9,no=10,missing=9
			9:[ompk36_383<5] yes=13,no=14,missing=13
				13:[ompk36_153<14] yes=19,no=20,missing=19
					19:leaf=-0.0734603405
					20:leaf=-0.00702163717
				14:leaf=-0.0893771797
			10:[ompk36_198<17] yes=15,no=16,missing=15
				15:leaf=-0.0739996582
				16:[ompk35_91<14] yes=21,no=22,missing=21
					21:leaf=0.0359551348
					22:leaf=-0.0399497859
		6:[ompk35_41<17] yes=11,no=12,missing=11
			11:[ompk36_198<17] yes=17,no=18,missing=17
				17:leaf=0.00723262364
				18:leaf=-0.0941512436
			12:leaf=0.0460031442
booster[49]:
0:[ompk37_242<10] yes=1,no=2,missing=1
	1:[ompk35_10<16] yes=3,no=4,missing=3
		3:[ompk37_18<10] yes=7,no=8,missing=7
			7:[ompk37_277<9] yes=13,no=14,missing=13
				13:[ompk36_349<10] yes=23,no=24,missing=23
					23:leaf=-0.0894378945
					24:leaf=-0.052195657
				14:leaf=0.0442240275
			8:[ompk36_256<2] yes=15,no=16,missing=15
				15:leaf=0.126052782
				16:leaf=-0.059384115
		4:leaf=0.125761375
	2:[ompk36_327<3] yes=5,no=6,missing=5
		5:[ompk36_249<16] yes=9,no=10,missing=9
			9:[ompk36_383<5] yes=17,no=18,missing=17
				17:[ompk36_300<15] yes=25,no=26,missing=25
					25:leaf=-0.0240291711
					26:leaf=0.0553619675
				18:leaf=-0.0867703855
			10:[ompk36_198<17] yes=19,no=20,missing=19
				19:leaf=-0.0782084391
				20:leaf=0.0880526006
		6:[ompk36_251<13] yes=11,no=12,missing=11
			11:leaf=0.335249871
			12:[ompk36_98<16] yes=21,no=22,missing=21
				21:leaf=0.0435877442
				22:leaf=0.229296073
booster[50]:
0:[ompk36_154<20] yes=1,no=2,missing=1
	1:[ompk37_37<14] yes=3,no=4,missing=3
		3:leaf=0.104392879
		4:leaf=0.289152622
	2:[ompk35_61<15] yes=5,no=6,missing=5
		5:[ompk36_223<16] yes=7,no=8,missing=7
			7:[ompk37_264<8] yes=11,no=12,missing=11
				11:[ompk36_153<14] yes=17,no=18,missing=17
					17:leaf=0.255548656
					18:leaf=-0.0149230361
				12:[ompk37_373<3] yes=19,no=20,missing=19
					19:leaf=-0.0339486487
					20:leaf=0.0351315103
			8:[ompk37_277<20] yes=13,no=14,missing=13
				13:[ompk36_129<13] yes=21,no=22,missing=21
					21:leaf=0.0658468083
					22:leaf=-0.0386959389
				14:[ompk36_198<17] yes=23,no=24,missing=23
					23:leaf=0.0368189998
					24:leaf=0.202094063
		6:[ompk36_383<5] yes=9,no=10,missing=9
			9:[ompk35_38<18] yes=15,no=16,missing=15
				15:leaf=0.112298869
				16:leaf=0.0264783986
			10:leaf=0.24983573
booster[51]:
0:leaf=-0.102690808
booster[52]:
0:leaf=-0.102690808
booster[53]:
0:leaf=-0.102690808
booster[54]:
0:leaf=-0.102690808
booster[55]:
0:leaf=-0.102690808
booster[56]:
0:leaf=-0.102690808
booster[57]:
0:leaf=-0.102025047
booster[58]:
0:leaf=-0.102025047
booster[59]:
0:leaf=-0.102025047
booster[60]:
0:leaf=-0.102025047
booster[61]:
0:leaf=-0.102025047
booster[62]:
0:[ompk36_154<20] yes=1,no=2,missing=1
	1:[ompk35_41<15] yes=3,no=4,missing=3
		3:leaf=-0.08264523
		4:leaf=0.0529535785
	2:[ompk36_329<14] yes=5,no=6,missing=5
		5:leaf=-0.0763995498
		6:[ompk35_18<12] yes=7,no=8,missing=7
			7:[ompk37_18<10] yes=9,no=10,missing=9
				9:[ompk35_61<15] yes=11,no=12,missing=11
					11:leaf=0.191764623
					12:leaf=0.124684773
				10:[ompk36_247<6] yes=13,no=14,missing=13
					13:leaf=0.195940495
					14:leaf=0.0472683534
			8:leaf=-0.0545356274
booster[63]:
0:[ompk36_153<14] yes=1,no=2,missing=1
	1:leaf=-0.0903746858
	2:[ompk37_322<9] yes=3,no=4,missing=3
		3:[ompk36_249<5] yes=5,no=6,missing=5
			5:[ompk36_340<10] yes=9,no=10,missing=9
				9:leaf=0.0879821479
				10:leaf=0.277883798
			6:[ompk36_198<17] yes=11,no=12,missing=11
				11:[ompk35_10<16] yes=17,no=18,missing=17
					17:leaf=-0.048501581
					18:leaf=0.140784547
				12:[ompk35_13<15] yes=19,no=20,missing=19
					19:leaf=0.0784032643
					20:leaf=-0.00408443157
		4:[ompk36_206<20] yes=7,no=8,missing=7
			7:[ompk36_342<13] yes=13,no=14,missing=13
				13:leaf=0.184693769
				14:[ompk35_73<13] yes=21,no=22,missing=21
					21:leaf=0.0555470176
					22:leaf=-0.00968079641
			8:[ompk36_223<16] yes=15,no=16,missing=15
				15:[ompk36_342<13] yes=23,no=24,missing=23
					23:leaf=-0.0207815599
					24:leaf=0.0451608375
				16:leaf=-0.03834977
booster[64]:
0:[ompk36_249<15] yes=1,no=2,missing=1
	1:[ompk35_73<20] yes=3,no=4,missing=3
		3:[ompk37_374<14] yes=7,no=8,missing=7
			7:leaf=-0.0968523473
			8:[ompk37_229<13] yes=15,no=16,missing=15
				15:leaf=0.0449949913
				16:[ompk36_281<16] yes=21,no=22,missing=21
					21:leaf=-0.0384887606
					22:leaf=-0.0799383968
		4:[ompk36_349<10] yes=9,no=10,missing=9
			9:leaf=-0.0813153908
			10:leaf=0.0936129689
	2:[ompk37_277<9] yes=5,no=6,missing=5
		5:[ompk36_378<5] yes=11,no=12,missing=11
			11:leaf=-0.0766752586
			12:[ompk36_96<20] yes=17,no=18,missing=17
				17:[ompk36_173<20] yes=23,no=24,missing=23
					23:leaf=0.0439544618
					24:leaf=-0.05898083
				18:leaf=0.0275560059
		6:[ompk36_383<5] yes=13,no=14,missing=13
			13:leaf=-0.0673027486
			14:[ompk35_91<14] yes=19,no=20,missing=19
				19:[ompk36_198<17] yes=25,no=26,missing=25
					25:leaf=-0.0366660841
					26:leaf=0.0574664772
				20:leaf=-0.0345651656
booster[65]:
0:[ompk36_216<8] yes=1,no=2,missing=1
	1:leaf=0.0965775251
	2:[ompk36_153<14] yes=3,no=4,missing=3
		3:[ompk36_383<5] yes=5,no=6,missing=5
			5:[ompk36_154<16] yes=9,no=10,missing=9
				9:leaf=0.128124282
				10:leaf=0.00931537431
			6:[ompk35_41<15] yes=11,no=12,missing=11
				11:leaf=-0.0718891546
				12:leaf=-0.0185242649
		4:[ompk36_96<20] yes=7,no=8,missing=7
			7:[ompk37_264<8] yes=13,no=14,missing=13
				13:[ompk36_378<5] yes=15,no=16,missing=15
					15:leaf=0.0225160774
					16:leaf=-0.0689396635
				14:leaf=-0.0905522108
			8:leaf=-0.0421780646
booster[66]:
0:[ompk36_207<20] yes=1,no=2,missing=1
	1:[ompk36_342<13] yes=3,no=4,missing=3
		3:leaf=0.038936872
		4:[ompk37_277<9] yes=7,no=8,missing=7
			7:[ompk36_154<16] yes=13,no=14,missing=13
				13:leaf=0.0415906645
				14:[ompk36_383<5] yes=21,no=22,missing=21
					21:leaf=-0.0224639308
					22:leaf=-0.0640192702
			8:[ompk36_378<5] yes=15,no=16,missing=15
				15:[ompk35_64<13] yes=23,no=24,missing=23
					23:leaf=-0.0372205228
					24:leaf=-0.0917463452
				16:leaf=-0.0955825746
	2:[ompk36_154<12] yes=5,no=6,missing=5
		5:[ompk35_78<20] yes=9,no=10,missing=9
			9:leaf=0.211603984
			10:leaf=-0.0556588285
		6:[ompk36_215<7] yes=11,no=12,missing=11
			11:[ompk36_387<14] yes=17,no=18,missing=17
				17:leaf=0.15688847
				18:leaf=-0.0526878498
			12:[ompk37_229<15] yes=19,no=20,missing=19
				19:[ompk36_384<7] yes=25,no=26,missing=25
					25:leaf=-0.0881770328
					26:leaf=-0.0305820107
				20:[ompk36_319<14] yes=27,no=28,missing=27
					27:leaf=0.0345869288
					28:leaf=-0.0728187561
booster[67]:
0:[ompk36_249<5] yes=1,no=2,missing=1
	1:[ompk35_73<20] yes=3,no=4,missing=3
		3:leaf=-0.0877309069
		4:[ompk35_41<15] yes=7,no=8,missing=7
			7:leaf=0.0394777618
			8:leaf=-0.0773269981
	2:[ompk36_349<10] yes=5,no=6,missing=5
		5:[ompk37_277<9] yes=9,no=10,missing=9
			9:[ompk36_383<5] yes=13,no=14,missing=13
				13:[ompk36_153<14] yes=19,no=20,missing=19
					19:leaf=-0.0707271248
					20:leaf=-0.00448452914
				14:leaf=-0.087652646
			10:[ompk36_198<17] yes=15,no=16,missing=15
				15:leaf=-0.071930021
				16:[ompk36_383<5] yes=21,no=22,missing=21
					21:leaf=-0.0380606316
					22:leaf=0.0363948606
		6:[ompk35_41<17] yes=11,no=12,missing=11
			11:[ompk36_198<17] yes=17,no=18,missing=17
				17:leaf=0.00795328896
				18:leaf=-0.0927111134
			12:leaf=0.0433964059
booster[68]:
0:[ompk37_242<10] yes=1,no=2,missing=1
	1:[ompk35_10<16] yes=3,no=4,missing=3
		3:[ompk37_18<10] yes=7,no=8,missing=7
			7:[ompk37_277<9] yes=13,no=14,missing=13
				13:[ompk36_349<10] yes=23,no=24,missing=23
					23:leaf=-0.0874148533
					24:leaf=-0.048262313
				14:leaf=0.0406007692
			8:[ompk36_256<2] yes=15,no=16,missing=15
				15:leaf=0.112278342
				16:leaf=-0.0571474619
		4:leaf=0.108653329
	2:[ompk36_327<3] yes=5,no=6,missing=5
		5:[ompk36_249<16] yes=9,no=10,missing=9
			9:[ompk36_383<5] yes=17,no=18,missing=17
				17:[ompk36_300<15] yes=25,no=26,missing=25
					25:leaf=-0.0202989802
					26:leaf=0.0532637797
				18:leaf=-0.0846615806
			10:[ompk36_198<17] yes=19,no=20,missing=19
				19:leaf=-0.0761694089
				20:[ompk35_35<20] yes=27,no=28,missing=27
					27:leaf=0.0854472667
					28:leaf=-0.0548500009
		6:[ompk36_251<13] yes=11,no=12,missing=11
			11:leaf=0.27284205
			12:[ompk36_92<7] yes=21,no=22,missing=21
				21:[ompk36_137<15] yes=29,no=30,missing=29
					29:leaf=0.13014245
					30:leaf=-0.0286795702
				22:leaf=0.219217345
booster[69]:
0:[ompk36_154<20] yes=1,no=2,missing=1
	1:[ompk37_37<14] yes=3,no=4,missing=3
		3:leaf=0.0889947712
		4:leaf=0.22072649
	2:[ompk36_223<16] yes=5,no=6,missing=5
		5:[ompk37_264<8] yes=7,no=8,missing=7
			7:[ompk36_153<14] yes=11,no=12,missing=11
				11:leaf=0.217570528
				12:[ompk36_384<7] yes=19,no=20,missing=19
					19:leaf=0.0458552614
					20:leaf=-0.0582876317
			8:[ompk35_73<20] yes=13,no=14,missing=13
				13:[ompk36_292<20] yes=21,no=22,missing=21
					21:leaf=-0.0309324414
					22:leaf=0.026798537
				14:[ompk37_229<5] yes=23,no=24,missing=23
					23:leaf=0.14063327
					24:leaf=0.0543597303
		6:[ompk37_277<20] yes=9,no=10,missing=9
			9:[ompk36_129<13] yes=15,no=16,missing=15
				15:[ompk36_255<17] yes=25,no=26,missing=25
					25:leaf=0.0281850435
					26:leaf=0.261190593
				16:[ompk37_264<8] yes=27,no=28,missing=27
					27:leaf=0.0451793037
					28:leaf=-0.0761544034
			10:[ompk35_35<20] yes=17,no=18,missing=17
				17:[ompk36_198<17] yes=29,no=30,missing=29
					29:leaf=0.0341756195
					30:leaf=0.175044909
				18:leaf=-0.0589410253
booster[70]:
0:leaf=-0.102025047
booster[71]:
0:leaf=-0.102025047
booster[72]:
0:leaf=-0.102025047
booster[73]:
0:leaf=-0.102025047
booster[74]:
0:leaf=-0.102025047
booster[75]:
0:leaf=-0.102025047
booster[76]:
0:leaf=-0.101401046
booster[77]:
0:leaf=-0.101401046
booster[78]:
0:leaf=-0.101401046
booster[79]:
0:leaf=-0.101401046
booster[80]:
0:leaf=-0.101401046
booster[81]:
0:[ompk36_154<20] yes=1,no=2,missing=1
	1:[ompk35_41<15] yes=3,no=4,missing=3
		3:leaf=-0.0802497119
		4:leaf=0.0514454208
	2:[ompk36_329<14] yes=5,no=6,missing=5
		5:leaf=-0.0759527236
		6:[ompk35_18<12] yes=7,no=8,missing=7
			7:[ompk37_18<10] yes=9,no=10,missing=9
				9:[ompk36_84<14] yes=11,no=12,missing=11
					11:leaf=0.151619583
					12:leaf=0.0122788409
				10:[ompk36_247<6] yes=13,no=14,missing=13
					13:leaf=0.161451727
					14:leaf=0.03901086
			8:leaf=-0.0539525934
booster[82]:
0:[ompk36_153<14] yes=1,no=2,missing=1
	1:leaf=-0.0885095298
	2:[ompk37_209<14] yes=3,no=4,missing=3
		3:leaf=-0.0621482432
		4:[ompk36_92<3] yes=5,no=6,missing=5
			5:[ompk35_2<17] yes=7,no=8,missing=7
				7:[ompk35_77<14] yes=9,no=10,missing=9
					9:leaf=0.0672733709
					10:leaf=-0.0103001995
				8:leaf=0.179410443
			6:leaf=-0.0614641085
booster[83]:
0:[ompk36_249<15] yes=1,no=2,missing=1
	1:[ompk35_73<20] yes=3,no=4,missing=3
		3:[ompk37_374<14] yes=7,no=8,missing=7
			7:leaf=-0.0956380442
			8:[ompk37_229<13] yes=13,no=14,missing=13
				13:leaf=0.0438544378
				14:[ompk36_281<16] yes=19,no=20,missing=19
					19:leaf=-0.0345850326
					20:leaf=-0.0771650001
		4:[ompk36_349<10] yes=9,no=10,missing=9
			9:leaf=-0.0790088996
			10:leaf=0.0812238082
	2:[ompk36_119<18] yes=5,no=6,missing=5
		5:[ompk37_277<9] yes=11,no=12,missing=11
			11:[ompk36_383<5] yes=15,no=16,missing=15
				15:leaf=-0.0104078464
				16:leaf=-0.0907183662
			12:[ompk36_183<5] yes=17,no=18,missing=17
				17:[ompk36_383<5] yes=21,no=22,missing=21
					21:leaf=-0.0647836104
					22:leaf=0.0240776539
				18:leaf=-0.074641563
		6:leaf=0.0404904969
booster[84]:
0:[ompk36_216<8] yes=1,no=2,missing=1
	1:[ompk36_387<14] yes=3,no=4,missing=3
		3:leaf=0.104990028
		4:leaf=0.030412171
	2:[ompk36_153<14] yes=5,no=6,missing=5
		5:[ompk37_373<3] yes=7,no=8,missing=7
			7:[ompk36_154<16] yes=11,no=12,missing=11
				11:leaf=0.121860199
				12:leaf=0.00870397408
			8:[ompk35_41<15] yes=13,no=14,missing=13
				13:leaf=-0.0691810027
				14:leaf=-0.0176362041
		6:[ompk36_96<20] yes=9,no=10,missing=9
			9:[ompk37_264<8] yes=15,no=16,missing=15
				15:[ompk36_378<5] yes=17,no=18,missing=17
					17:leaf=0.0231167432
					18:leaf=-0.0665252283
				16:leaf=-0.0886774957
			10:leaf=-0.0390130319
booster[85]:
0:[ompk36_207<20] yes=1,no=2,missing=1
	1:[ompk36_281<16] yes=3,no=4,missing=3
		3:leaf=0.0381750241
		4:[ompk37_277<9] yes=7,no=8,missing=7
			7:[ompk36_154<16] yes=13,no=14,missing=13
				13:leaf=0.0411215462
				14:[ompk36_383<5] yes=21,no=22,missing=21
					21:leaf=-0.0196771212
					22:leaf=-0.0609353445
			8:[ompk36_378<5] yes=15,no=16,missing=15
				15:[ompk35_64<13] yes=23,no=24,missing=23
					23:leaf=-0.032848686
					24:leaf=-0.0901841298
				16:leaf=-0.0942640528
	2:[ompk36_154<12] yes=5,no=6,missing=5
		5:[ompk35_78<20] yes=9,no=10,missing=9
			9:leaf=0.184176609
			10:leaf=-0.0528118722
		6:[ompk36_215<7] yes=11,no=12,missing=11
			11:[ompk35_182<14] yes=17,no=18,missing=17
				17:leaf=0.00341179664
				18:leaf=0.142242312
			12:[ompk37_229<15] yes=19,no=20,missing=19
				19:[ompk36_384<7] yes=25,no=26,missing=25
					25:leaf=-0.0863383412
					26:leaf=-0.026849011
				20:[ompk36_211<7] yes=27,no=28,missing=27
					27:leaf=0.03452022
					28:leaf=-0.0708942562
booster[86]:
0:[ompk36_249<5] yes=1,no=2,missing=1
	1:[ompk35_73<20] yes=3,no=4,missing=3
		3:leaf=-0.0855401978
		4:[ompk35_41<15] yes=7,no=8,missing=7
			7:leaf=0.0370729864
			8:leaf=-0.0748739466
	2:[ompk36_349<10] yes=5,no=6,missing=5
		5:[ompk37_277<9] yes=9,no=10,missing=9
			9:[ompk36_383<5] yes=13,no=14,missing=13
				13:[ompk36_153<14] yes=19,no=20,missing=19
					19:leaf=-0.0679382086
					20:leaf=-0.00207274384
				14:leaf=-0.0859105512
			10:[ompk36_198<17] yes=15,no=16,missing=15
				15:leaf=-0.069801122
				16:[ompk35_64<13] yes=21,no=22,missing=21
					21:leaf=0.0372343883
					22:leaf=-0.0377123691
		6:[ompk35_13<15] yes=11,no=12,missing=11
			11:[ompk36_198<17] yes=17,no=18,missing=17
				17:leaf=0.00894057564
				18:leaf=-0.0914309397
			12:leaf=0.0402671956
booster[87]:
0:[ompk37_242<10] yes=1,no=2,missing=1
	1:[ompk35_10<16] yes=3,no=4,missing=3
		3:[ompk37_18<10] yes=7,no=8,missing=7
			7:[ompk37_277<9] yes=11,no=12,missing=11
				11:[ompk36_349<10] yes=17,no=18,missing=17
					17:leaf=-0.0852886364
					18:leaf=-0.0440111943
				12:leaf=0.0384968333
			8:[ompk36_256<2] yes=13,no=14,missing=13
				13:[ompk36_153<14] yes=19,no=20,missing=19
					19:leaf=-0.0551113151
					20:leaf=0.187514439
				14:leaf=-0.0553347357
		4:leaf=0.0941474065
	2:[ompk36_92<3] yes=5,no=6,missing=5
		5:[ompk36_146<16] yes=9,no=10,missing=9
			9:leaf=0.20998311
			10:[ompk36_154<16] yes=15,no=16,missing=15
				15:leaf=-0.0798332244
				16:[ompk36_198<17] yes=21,no=22,missing=21
					21:leaf=-0.0757131502
					22:leaf=0.0390054435
		6:leaf=0.250734776
booster[88]:
0:[ompk36_154<20] yes=1,no=2,missing=1
	1:[ompk37_37<14] yes=3,no=4,missing=3
		3:leaf=0.0767860562
		4:[ompk37_264<8] yes=7,no=8,missing=7
			7:leaf=0.0919512659
			8:[ompk36_198<17] yes=13,no=14,missing=13
				13:[ompk36_154<11] yes=21,no=22,missing=21
					21:leaf=0.142566979
					22:leaf=-0.00529914862
				14:leaf=0.190326661
	2:[ompk35_49<7] yes=5,no=6,missing=5
		5:[ompk37_18<10] yes=9,no=10,missing=9
			9:[ompk36_98<16] yes=15,no=16,missing=15
				15:[ompk36_214<12] yes=23,no=24,missing=23
					23:leaf=0.0211705808
					24:leaf=0.0868562907
				16:[ompk37_264<8] yes=25,no=26,missing=25
					25:leaf=0.0434885062
					26:leaf=-0.0897961333
			10:[ompk37_37<14] yes=17,no=18,missing=17
				17:leaf=-0.062076278
				18:[ompk36_249<15] yes=27,no=28,missing=27
					27:leaf=0.0873334631
					28:leaf=0.301218837
		6:[ompk35_38<18] yes=11,no=12,missing=11
			11:leaf=0.156206951
			12:[ompk35_17<15] yes=19,no=20,missing=19
				19:leaf=-0.0686136559
				20:[ompk36_383<5] yes=29,no=30,missing=29
					29:leaf=0.0307823922
					30:leaf=0.239730462
booster[89]:
0:leaf=-0.101401046
booster[90]:
0:leaf=-0.101401046
booster[91]:
0:leaf=-0.101401046
booster[92]:
0:leaf=-0.101401046
booster[93]:
0:leaf=-0.101401046
booster[94]:
0:leaf=-0.101401046
booster[95]:
0:leaf=-0.100808732
booster[96]:
0:leaf=-0.100808732
booster[97]:
0:leaf=-0.100808732
booster[98]:
0:leaf=-0.100808732
booster[99]:
0:leaf=-0.100808732
booster[100]:
0:[ompk36_154<20] yes=1,no=2,missing=1
	1:[ompk35_41<15] yes=3,no=4,missing=3
		3:leaf=-0.0779075995
		4:leaf=0.050955046
	2:[ompk36_329<14] yes=5,no=6,missing=5
		5:leaf=-0.0749964714
		6:[ompk35_49<7] yes=7,no=8,missing=7
			7:[ompk36_252<25] yes=9,no=10,missing=9
				9:[ompk35_61<15] yes=13,no=14,missing=13
					13:leaf=0.126655936
					14:leaf=-0.0604741834
				10:leaf=-0.0721466839
			8:[ompk36_227<15] yes=11,no=12,missing=11
				11:[ompk35_38<18] yes=15,no=16,missing=15
					15:leaf=0.070074074
					16:leaf=0.132023036
				12:leaf=-0.0403934978
booster[101]:
0:[ompk36_153<14] yes=1,no=2,missing=1
	1:leaf=-0.0866476893
	2:[ompk37_209<14] yes=3,no=4,missing=3
		3:leaf=-0.0597238205
		4:[ompk36_383<5] yes=5,no=6,missing=5
			5:[ompk35_49<7] yes=7,no=8,missing=7
				7:[ompk36_198<17] yes=11,no=12,missing=11
					11:leaf=-0.0780301169
					12:leaf=0.070407033
				8:leaf=0.192054778
			6:[ompk35_91<14] yes=9,no=10,missing=9
				9:[ompk37_277<9] yes=13,no=14,missing=13
					13:leaf=0.0657727867
					14:leaf=0.0281314161
				10:[ompk35_20<13] yes=15,no=16,missing=15
					15:leaf=-0.0622733198
					16:leaf=0.056563504
booster[102]:
0:[ompk36_249<15] yes=1,no=2,missing=1
	1:[ompk35_73<20] yes=3,no=4,missing=3
		3:[ompk37_374<14] yes=7,no=8,missing=7
			7:leaf=-0.094438307
			8:[ompk37_229<13] yes=15,no=16,missing=15
				15:leaf=0.0424933583
				16:[ompk36_281<16] yes=23,no=24,missing=23
					23:leaf=-0.0304583367
					24:leaf=-0.074204661
		4:[ompk36_349<10] yes=9,no=10,missing=9
			9:leaf=-0.0766224414
			10:leaf=0.0713851675
	2:[ompk37_277<9] yes=5,no=6,missing=5
		5:[ompk36_378<5] yes=11,no=12,missing=11
			11:[ompk36_198<17] yes=17,no=18,missing=17
				17:leaf=-0.0407014526
				18:leaf=-0.0852477774
			12:[ompk36_143<20] yes=19,no=20,missing=19
				19:leaf=0.0466294773
				20:[ompk36_96<20] yes=25,no=26,missing=25
					25:leaf=-0.0524037965
					26:leaf=0.0246277992
		6:[ompk35_64<13] yes=13,no=14,missing=13
			13:[ompk36_383<5] yes=21,no=22,missing=21
				21:leaf=-0.0626952201
				22:[ompk36_198<17] yes=27,no=28,missing=27
					27:leaf=-0.0337747447
					28:leaf=0.0515831597
			14:leaf=-0.0316322371
booster[103]:
0:[ompk36_153<14] yes=1,no=2,missing=1
	1:[ompk36_383<5] yes=3,no=4,missing=3
		3:[ompk36_154<11] yes=7,no=8,missing=7
			7:[ompk36_378<5] yes=15,no=16,missing=15
				15:leaf=-0.0653588548
				16:leaf=0.111585043
			8:leaf=0.130031988
		4:[ompk35_41<15] yes=9,no=10,missing=9
			9:leaf=-0.0680491179
			10:leaf=-0.0106187314
	2:[ompk36_216<8] yes=5,no=6,missing=5
		5:[ompk36_387<14] yes=11,no=12,missing=11
			11:leaf=0.0970086753
			12:leaf=0.0292890798
		6:[ompk36_96<20] yes=13,no=14,missing=13
			13:[ompk37_264<8] yes=17,no=18,missing=17
				17:[ompk36_378<5] yes=19,no=20,missing=19
					19:leaf=0.0236887671
					20:leaf=-0.0641112253
				18:[ompk36_347<17] yes=21,no=22,missing=21
					21:leaf=-0.0898369774
					22:leaf=-0.0513798892
			14:leaf=-0.0360438786
booster[104]:
0:[ompk36_207<20] yes=1,no=2,missing=1
	1:[ompk37_277<9] yes=3,no=4,missing=3
		3:[ompk36_154<16] yes=7,no=8,missing=7
			7:leaf=0.0398875065
			8:[ompk36_383<5] yes=13,no=14,missing=13
				13:[ompk36_198<17] yes=19,no=20,missing=19
					19:leaf=0.043190252
					20:leaf=-0.027605718
				14:leaf=-0.0576396249
		4:[ompk36_342<13] yes=9,no=10,missing=9
			9:leaf=-0.0152212894
			10:[ompk36_378<5] yes=15,no=16,missing=15
				15:[ompk35_91<14] yes=21,no=22,missing=21
					21:leaf=-0.0301816966
					22:leaf=-0.0884865895
				16:leaf=-0.0928973928
	2:[ompk37_264<8] yes=5,no=6,missing=5
		5:leaf=-0.0823220387
		6:[ompk36_154<12] yes=11,no=12,missing=11
			11:leaf=0.139289007
			12:[ompk36_383<5] yes=17,no=18,missing=17
				17:[ompk37_259<3] yes=23,no=24,missing=23
					23:leaf=0.0130826114
					24:leaf=-0.0403487943
				18:[ompk36_319<14] yes=25,no=26,missing=25
					25:leaf=0.164403126
					26:leaf=-0.0282819103
booster[105]:
0:[ompk36_249<5] yes=1,no=2,missing=1
	1:[ompk35_73<20] yes=3,no=4,missing=3
		3:leaf=-0.0832587108
		4:[ompk35_41<15] yes=7,no=8,missing=7
			7:leaf=0.0350058451
			8:leaf=-0.072244212
	2:[ompk36_349<10] yes=5,no=6,missing=5
		5:[ompk37_374<14] yes=9,no=10,missing=9
			9:[ompk37_264<8] yes=13,no=14,missing=13
				13:leaf=-0.0730795488
				14:[ompk36_383<5] yes=19,no=20,missing=19
					19:leaf=-0.0101597374
					20:leaf=-0.0484242924
			10:[ompk36_198<17] yes=15,no=16,missing=15
				15:leaf=-0.0674914792
				16:[ompk35_91<14] yes=21,no=22,missing=21
					21:leaf=0.0349056609
					22:leaf=-0.0340165049
		6:[ompk35_41<17] yes=11,no=12,missing=11
			11:[ompk36_198<17] yes=17,no=18,missing=17
				17:leaf=0.010167676
				18:leaf=-0.0899200663
			12:leaf=0.0440346189
booster[106]:
0:[ompk37_242<10] yes=1,no=2,missing=1
	1:[ompk35_10<16] yes=3,no=4,missing=3
		3:[ompk37_18<10] yes=7,no=8,missing=7
			7:[ompk36_349<10] yes=13,no=14,missing=13
				13:[ompk36_198<17] yes=21,no=22,missing=21
					21:leaf=-0.0278554615
					22:leaf=-0.0948975012
				14:[ompk36_97<15] yes=23,no=24,missing=23
					23:leaf=0.0452696942
					24:leaf=-0.065382719
			8:[ompk36_256<2] yes=15,no=16,missing=15
				15:[ompk36_281<16] yes=25,no=26,missing=25
					25:leaf=0.0194983128
					26:leaf=0.120193832
				16:leaf=-0.0536885075
		4:leaf=0.0830043554
	2:[ompk36_327<3] yes=5,no=6,missing=5
		5:[ompk36_154<16] yes=9,no=10,missing=9
			9:leaf=-0.0776555166
			10:[ompk36_198<17] yes=17,no=18,missing=17
				17:leaf=-0.0717423111
				18:[ompk36_300<15] yes=27,no=28,missing=27
					27:leaf=-0.0156059107
					28:leaf=0.0567505434
		6:[ompk36_251<13] yes=11,no=12,missing=11
			11:leaf=0.217889339
			12:[ompk36_84<14] yes=19,no=20,missing=19
				19:[ompk36_137<15] yes=29,no=30,missing=29
					29:leaf=0.111886084
					30:leaf=-0.034401726
				20:leaf=0.17716904
booster[107]:
0:[ompk36_154<20] yes=1,no=2,missing=1
	1:[ompk37_37<14] yes=3,no=4,missing=3
		3:leaf=0.0664963648
		4:[ompk37_264<8] yes=7,no=8,missing=7
			7:leaf=0.0789643228
			8:[ompk36_198<17] yes=13,no=14,missing=13
				13:[ompk36_154<11] yes=23,no=24,missing=23
					23:leaf=0.129376307
					24:leaf=-0.00850363076
				14:leaf=0.16190362
	2:[ompk35_91<14] yes=5,no=6,missing=5
		5:[ompk37_18<10] yes=9,no=10,missing=9
			9:[ompk36_98<16] yes=15,no=16,missing=15
				15:[ompk36_214<12] yes=25,no=26,missing=25
					25:leaf=0.0149119888
					26:leaf=0.0732570291
				16:[ompk37_264<8] yes=27,no=28,missing=27
					27:leaf=0.042578008
					28:leaf=-0.0877489969
			10:[ompk37_37<14] yes=17,no=18,missing=17
				17:leaf=-0.0606259368
				18:[ompk37_229<13] yes=29,no=30,missing=29
					29:leaf=0.0647496283
					30:leaf=0.255870372
		6:[ompk36_383<5] yes=11,no=12,missing=11
			11:[ompk36_198<17] yes=19,no=20,missing=19
				19:leaf=0.00775402877
				20:leaf=0.07299833
			12:[ompk36_137<15] yes=21,no=22,missing=21
				21:leaf=0.0190549623
				22:[ompk37_229<5] yes=31,no=32,missing=31
					31:leaf=0.217737481
					32:leaf=0.119655907
booster[108]:
0:leaf=-0.100808732
booster[109]:
0:leaf=-0.100808732
booster[110]:
0:leaf=-0.100808732
booster[111]:
0:leaf=-0.100808732
booster[112]:
0:leaf=-0.100808732
booster[113]:
0:leaf=-0.100808732
booster[114]:
0:leaf=-0.10023468
booster[115]:
0:leaf=-0.10023468
booster[116]:
0:leaf=-0.10023468
booster[117]:
0:leaf=-0.10023468
booster[118]:
0:leaf=-0.10023468
booster[119]:
0:[ompk36_154<20] yes=1,no=2,missing=1
	1:[ompk35_41<15] yes=3,no=4,missing=3
		3:leaf=-0.0754938796
		4:leaf=0.050834693
	2:[ompk36_329<14] yes=5,no=6,missing=5
		5:leaf=-0.0743284002
		6:[ompk35_18<12] yes=7,no=8,missing=7
			7:[ompk37_209<14] yes=9,no=10,missing=9
				9:leaf=0.170145541
				10:[ompk37_374<14] yes=11,no=12,missing=11
					11:leaf=0.112247042
					12:leaf=0.0885957479
			8:leaf=-0.0556699708
booster[120]:
0:[ompk36_153<14] yes=1,no=2,missing=1
	1:leaf=-0.0846799612
	2:[ompk36_92<3] yes=3,no=4,missing=3
		3:[ompk37_209<14] yes=5,no=6,missing=5
			5:leaf=-0.0573988631
			6:[ompk35_182<14] yes=7,no=8,missing=7
				7:[ompk36_387<14] yes=9,no=10,missing=9
					9:leaf=0.0102891913
					10:leaf=-0.0615013614
				8:[ompk35_38<18] yes=11,no=12,missing=11
					11:leaf=0.0501806848
					12:leaf=0.111609749
		4:leaf=-0.0612287819
booster[121]:
0:[ompk36_249<15] yes=1,no=2,missing=1
	1:[ompk37_374<14] yes=3,no=4,missing=3
		3:leaf=-0.0941871405
		4:[ompk35_73<16] yes=7,no=8,missing=7
			7:[ompk37_229<13] yes=11,no=12,missing=11
				11:leaf=0.0412320904
				12:[ompk36_281<16] yes=19,no=20,missing=19
					19:leaf=-0.0266461112
					20:leaf=-0.0711642131
			8:[ompk36_153<14] yes=13,no=14,missing=13
				13:leaf=-0.0661293566
				14:leaf=0.078426674
	2:[ompk36_119<18] yes=5,no=6,missing=5
		5:[ompk37_277<9] yes=9,no=10,missing=9
			9:[ompk36_383<5] yes=15,no=16,missing=15
				15:leaf=-0.0023986171
				16:leaf=-0.087892741
			10:[ompk36_183<5] yes=17,no=18,missing=17
				17:[ompk36_383<5] yes=21,no=22,missing=21
					21:leaf=-0.0605878644
					22:leaf=0.023328118
				18:leaf=-0.0734551921
		6:leaf=0.036419075
booster[122]:
0:[ompk36_153<14] yes=1,no=2,missing=1
	1:[ompk37_373<3] yes=3,no=4,missing=3
		3:[ompk36_154<16] yes=7,no=8,missing=7
			7:[ompk36_243<5] yes=13,no=14,missing=13
				13:leaf=0.143326908
				14:leaf=0.0535560846
			8:leaf=0.00155492302
		4:[ompk35_41<15] yes=9,no=10,missing=9
			9:leaf=-0.0652896017
			10:leaf=-0.00998370815
	2:[ompk36_216<8] yes=5,no=6,missing=5
		5:leaf=0.0747559667
		6:[ompk36_96<20] yes=11,no=12,missing=11
			11:[ompk37_264<8] yes=15,no=16,missing=15
				15:[ompk36_378<5] yes=17,no=18,missing=17
					17:leaf=0.0242079329
					18:leaf=-0.0617152043
				16:[ompk36_347<17] yes=19,no=20,missing=19
					19:leaf=-0.0880470946
					20:leaf=-0.0479050465
			12:leaf=-0.0330012254
booster[123]:
0:[ompk36_281<16] yes=1,no=2,missing=1
	1:[ompk37_264<8] yes=3,no=4,missing=3
		3:leaf=-0.0724985451
		4:[ompk36_154<12] yes=7,no=8,missing=7
			7:leaf=0.124271929
			8:[ompk36_206<17] yes=13,no=14,missing=13
				13:leaf=0.0393454842
				14:[ompk37_229<13] yes=23,no=24,missing=23
					23:leaf=-0.0389912687
					24:leaf=0.0267554317
	2:[ompk36_207<20] yes=5,no=6,missing=5
		5:[ompk37_277<9] yes=9,no=10,missing=9
			9:[ompk36_154<16] yes=15,no=16,missing=15
				15:leaf=0.0386185944
				16:[ompk36_383<5] yes=25,no=26,missing=25
					25:leaf=-0.0140901981
					26:leaf=-0.0541367792
			10:[ompk36_378<5] yes=17,no=18,missing=17
				17:[ompk35_64<13] yes=27,no=28,missing=27
					27:leaf=-0.0260913707
					28:leaf=-0.086810559
				18:leaf=-0.0914954692
		6:[ompk36_387<14] yes=11,no=12,missing=11
			11:[ompk37_373<3] yes=19,no=20,missing=19
				19:leaf=0.017923234
				20:leaf=0.144083306
			12:[ompk36_137<15] yes=21,no=22,missing=21
				21:leaf=0.0462137908
				22:[ompk35_73<13] yes=29,no=30,missing=29
					29:leaf=-0.0638911873
					30:leaf=-0.000479483017
booster[124]:
0:[ompk36_249<5] yes=1,no=2,missing=1
	1:[ompk35_73<20] yes=3,no=4,missing=3
		3:leaf=-0.080907248
		4:[ompk35_41<15] yes=7,no=8,missing=7
			7:leaf=0.033710774
			8:leaf=-0.0695222095
	2:[ompk36_349<10] yes=5,no=6,missing=5
		5:[ompk37_374<14] yes=9,no=10,missing=9
			9:[ompk37_264<8] yes=13,no=14,missing=13
				13:leaf=-0.0708193406
				14:[ompk36_383<5] yes=19,no=20,missing=19
					19:leaf=-0.00703201583
					20:leaf=-0.0450665876
			10:[ompk36_198<17] yes=15,no=16,missing=15
				15:leaf=-0.0652755126
				16:[ompk35_91<14] yes=21,no=22,missing=21
					21:leaf=0.0331507474
					22:leaf=-0.0310754813
		6:[ompk35_13<15] yes=11,no=12,missing=11
			11:[ompk36_198<17] yes=17,no=18,missing=17
				17:leaf=0.0115644755
				18:leaf=-0.0885919631
			12:leaf=0.044249896
booster[125]:
0:[ompk37_242<10] yes=1,no=2,missing=1
	1:[ompk35_10<16] yes=3,no=4,missing=3
		3:[ompk37_18<10] yes=7,no=8,missing=7
			7:[ompk36_349<10] yes=13,no=14,missing=13
				13:[ompk36_198<17] yes=21,no=22,missing=21
					21:leaf=-0.0250962712
					22:leaf=-0.0936759859
				14:[ompk36_97<15] yes=23,no=24,missing=23
					23:leaf=0.0439366773
					24:leaf=-0.0620355383
			8:[ompk36_256<2] yes=15,no=16,missing=15
				15:[ompk36_281<16] yes=25,no=26,missing=25
					25:leaf=0.0197308641
					26:leaf=0.109353282
				16:leaf=-0.051833272
		4:leaf=0.0754203424
	2:[ompk36_327<3] yes=5,no=6,missing=5
		5:[ompk36_154<16] yes=9,no=10,missing=9
			9:leaf=-0.0749213099
			10:[ompk36_198<17] yes=17,no=18,missing=17
				17:leaf=-0.0695301592
				18:[ompk36_300<15] yes=27,no=28,missing=27
					27:leaf=-0.0119956462
					28:leaf=0.0508622713
		6:[ompk36_251<13] yes=11,no=12,missing=11
			11:leaf=0.186367854
			12:[ompk36_84<14] yes=19,no=20,missing=19
				19:[ompk36_137<15] yes=29,no=30,missing=29
					29:leaf=0.0997724161
					30:leaf=-0.032136973
				20:leaf=0.152623117
booster[126]:
0:[ompk36_154<20] yes=1,no=2,missing=1
	1:[ompk37_37<14] yes=3,no=4,missing=3
		3:leaf=0.0570787191
		4:[ompk37_264<8] yes=7,no=8,missing=7
			7:leaf=0.0677261874
			8:[ompk36_198<17] yes=13,no=14,missing=13
				13:[ompk36_154<11] yes=21,no=22,missing=21
					21:leaf=0.117879651
					22:leaf=-0.0105575761
				14:leaf=0.141550332
	2:[ompk35_49<7] yes=5,no=6,missing=5
		5:[ompk37_18<10] yes=9,no=10,missing=9
			9:[ompk36_98<16] yes=15,no=16,missing=15
				15:[ompk36_248<16] yes=23,no=24,missing=23
					23:leaf=0.0400165208
					24:leaf=0.120477937
				16:[ompk35_13<15] yes=25,no=26,missing=25
					25:leaf=-0.0858203694
					26:leaf=0.0472835675
			10:[ompk37_37<14] yes=17,no=18,missing=17
				17:leaf=-0.0589401387
				18:[ompk35_92<20] yes=27,no=28,missing=27
					27:leaf=0.00729782134
					28:leaf=0.172424152
		6:[ompk35_38<18] yes=11,no=12,missing=11
			11:leaf=0.107489899
			12:[ompk35_17<15] yes=19,no=20,missing=19
				19:leaf=-0.0703614801
				20:[ompk36_383<5] yes=29,no=30,missing=29
					29:leaf=0.0278635174
					30:leaf=0.173851892
booster[127]:
0:leaf=-0.10023468
booster[128]:
0:leaf=-0.10023468
booster[129]:
0:leaf=-0.10023468
booster[130]:
0:leaf=-0.10023468
booster[131]:
0:leaf=-0.10023468
booster[132]:
0:leaf=-0.10023468
booster[133]:
0:leaf=-0.0996752754
booster[134]:
0:leaf=-0.0996752754
booster[135]:
0:leaf=-0.0996752754
booster[136]:
0:leaf=-0.0996752754
booster[137]:
0:leaf=-0.0996752754
booster[138]:
0:[ompk36_154<20] yes=1,no=2,missing=1
	1:[ompk35_41<15] yes=3,no=4,missing=3
		3:leaf=-0.0730150864
		4:leaf=0.050964009
	2:[ompk36_329<14] yes=5,no=6,missing=5
		5:leaf=-0.0735101849
		6:[ompk36_223<16] yes=7,no=8,missing=7
			7:[ompk35_49<7] yes=9,no=10,missing=9
				9:[ompk35_61<15] yes=13,no=14,missing=13
					13:leaf=0.101616658
					14:leaf=-0.0631146058
				10:[ompk37_56<22] yes=15,no=16,missing=15
					15:leaf=-0.0527146421
					16:leaf=0.123086274
			8:[ompk36_342<13] yes=11,no=12,missing=11
				11:leaf=-0.0762262642
				12:[ompk36_248<5] yes=17,no=18,missing=17
					17:leaf=-0.0573211201
					18:leaf=0.0855670944
booster[139]:
0:[ompk36_153<14] yes=1,no=2,missing=1
	1:leaf=-0.0825978741
	2:[ompk36_92<3] yes=3,no=4,missing=3
		3:[ompk37_209<14] yes=5,no=6,missing=5
			5:leaf=-0.0541380309
			6:[ompk35_182<14] yes=7,no=8,missing=7
				7:[ompk36_387<14] yes=9,no=10,missing=9
					9:leaf=0.011535232
					10:leaf=-0.0590885989
				8:[ompk36_383<5] yes=11,no=12,missing=11
					11:leaf=0.0620358847
					12:leaf=0.0346754752
		4:leaf=-0.0594194792
booster[140]:
0:[ompk36_249<15] yes=1,no=2,missing=1
	1:[ompk37_374<14] yes=3,no=4,missing=3
		3:leaf=-0.0929272473
		4:[ompk36_249<5] yes=7,no=8,missing=7
			7:[ompk35_73<16] yes=11,no=12,missing=11
				11:leaf=-0.0676388592
				12:[ompk35_41<15] yes=19,no=20,missing=19
					19:leaf=0.0621501282
					20:leaf=-0.0699786171
			8:[ompk36_347<17] yes=13,no=14,missing=13
				13:leaf=0.00616218615
				14:leaf=0.0447541848
	2:[ompk36_119<18] yes=5,no=6,missing=5
		5:[ompk37_277<9] yes=9,no=10,missing=9
			9:[ompk36_383<5] yes=15,no=16,missing=15
				15:leaf=-0.000193624786
				16:leaf=-0.0861192271
			10:[ompk36_183<5] yes=17,no=18,missing=17
				17:[ompk35_91<14] yes=21,no=22,missing=21
					21:leaf=0.0297184084
					22:leaf=-0.0258628577
				18:leaf=-0.0712493882
		6:leaf=0.0344298594
booster[141]:
0:[ompk36_153<14] yes=1,no=2,missing=1
	1:[ompk37_373<3] yes=3,no=4,missing=3
		3:[ompk36_154<16] yes=7,no=8,missing=7
			7:[ompk36_378<5] yes=15,no=16,missing=15
				15:[ompk36_206<17] yes=21,no=22,missing=21
					21:leaf=0.128971323
					22:leaf=-0.0576623268
				16:leaf=0.144628361
			8:leaf=0.00298494729
		4:[ompk35_41<15] yes=9,no=10,missing=9
			9:leaf=-0.0626117066
			10:leaf=-0.00594087364
	2:[ompk36_216<8] yes=5,no=6,missing=5
		5:[ompk36_387<14] yes=11,no=12,missing=11
			11:leaf=0.0812101513
			12:leaf=0.0252812393
		6:[ompk36_347<17] yes=13,no=14,missing=13
			13:[ompk37_264<8] yes=17,no=18,missing=17
				17:leaf=-0.0120438561
				18:[ompk35_41<15] yes=23,no=24,missing=23
					23:leaf=-0.0911587477
					24:leaf=-0.0417275131
			14:[ompk36_206<20] yes=19,no=20,missing=19
				19:leaf=0.0457587838
				20:[ompk36_96<20] yes=25,no=26,missing=25
					25:leaf=-0.0802545622
					26:leaf=-0.0300437938
booster[142]:
0:[ompk36_281<16] yes=1,no=2,missing=1
	1:[ompk37_264<8] yes=3,no=4,missing=3
		3:leaf=-0.0702383146
		4:[ompk36_154<12] yes=7,no=8,missing=7
			7:leaf=0.112829842
			8:[ompk36_206<17] yes=13,no=14,missing=13
				13:leaf=0.0366182812
				14:[ompk37_229<13] yes=21,no=22,missing=21
					21:leaf=-0.0354518741
					22:leaf=0.0269205514
	2:[ompk37_277<9] yes=5,no=6,missing=5
		5:[ompk36_249<5] yes=9,no=10,missing=9
			9:[ompk36_243<5] yes=15,no=16,missing=15
				15:leaf=0.100870423
				16:[ompk36_387<14] yes=23,no=24,missing=23
					23:leaf=0.00215703668
					24:leaf=-0.0542780422
			10:[ompk36_141<20] yes=17,no=18,missing=17
				17:[ompk36_383<5] yes=25,no=26,missing=25
					25:leaf=-0.00959400181
					26:leaf=-0.0618045703
				18:[ompk36_98<16] yes=27,no=28,missing=27
					27:leaf=0.0429346226
					28:leaf=-0.0231811628
		6:[ompk35_35<20] yes=11,no=12,missing=11
			11:[ompk36_378<5] yes=19,no=20,missing=19
				19:[ompk35_91<14] yes=29,no=30,missing=29
					29:leaf=-0.00430222601
					30:leaf=-0.0831166133
				20:leaf=-0.0935037658
			12:leaf=0.0441523753
booster[143]:
0:[ompk36_249<5] yes=1,no=2,missing=1
	1:[ompk35_73<20] yes=3,no=4,missing=3
		3:leaf=-0.0784264281
		4:[ompk35_41<15] yes=7,no=8,missing=7
			7:leaf=0.0321029089
			8:leaf=-0.0667807981
	2:[ompk36_349<10] yes=5,no=6,missing=5
		5:[ompk37_277<9] yes=9,no=10,missing=9
			9:[ompk36_383<5] yes=13,no=14,missing=13
				13:[ompk36_153<14] yes=19,no=20,missing=19
					19:leaf=-0.0624818876
					20:leaf=0.00848221686
				14:leaf=-0.081388168
			10:[ompk36_383<5] yes=15,no=16,missing=15
				15:[ompk36_206<17] yes=21,no=22,missing=21
					21:leaf=-0.00921881478
					22:leaf=-0.0440901034
				16:[ompk35_64<13] yes=23,no=24,missing=23
					23:leaf=0.050157886
					24:leaf=-0.0280100498
		6:[ompk35_41<17] yes=11,no=12,missing=11
			11:[ompk36_198<17] yes=17,no=18,missing=17
				17:leaf=0.0125707909
				18:leaf=-0.0868878961
			12:leaf=0.0461843312
booster[144]:
0:[ompk37_242<10] yes=1,no=2,missing=1
	1:[ompk35_10<16] yes=3,no=4,missing=3
		3:[ompk36_349<10] yes=7,no=8,missing=7
			7:[ompk37_18<10] yes=13,no=14,missing=13
				13:[ompk36_198<17] yes=23,no=24,missing=23
					23:leaf=-0.0222120006
					24:leaf=-0.0923888609
				14:[ompk36_215<9] yes=25,no=26,missing=25
					25:leaf=0.0443651862
					26:leaf=-0.0589996576
			8:[ompk36_253<24] yes=15,no=16,missing=15
				15:[ompk36_253<15] yes=27,no=28,missing=27
					27:leaf=-0.0539095215
					28:leaf=0.165688679
				16:[ompk36_97<15] yes=29,no=30,missing=29
					29:leaf=0.0087329736
					30:leaf=-0.0598918386
		4:leaf=0.0676580593
	2:[ompk36_327<3] yes=5,no=6,missing=5
		5:[ompk36_154<16] yes=9,no=10,missing=9
			9:leaf=-0.0721203461
			10:[ompk36_198<17] yes=17,no=18,missing=17
				17:leaf=-0.0674815997
				18:[ompk35_38<18] yes=31,no=32,missing=31
					31:leaf=0.0376740433
					32:leaf=-0.0666787326
		6:[ompk36_251<13] yes=11,no=12,missing=11
			11:[ompk35_73<13] yes=19,no=20,missing=19
				19:leaf=0.222388133
				20:leaf=0.0259739794
			12:[ompk36_84<14] yes=21,no=22,missing=21
				21:[ompk36_137<15] yes=33,no=34,missing=33
					33:leaf=0.0902542174
					34:leaf=-0.0298258755
				22:leaf=0.131449878
booster[145]:
0:[ompk36_154<20] yes=1,no=2,missing=1
	1:[ompk37_264<8] yes=3,no=4,missing=3
		3:leaf=0.0574963763
		4:[ompk37_37<14] yes=7,no=8,missing=7
			7:leaf=0.0496766269
			8:leaf=0.122848511
	2:[ompk36_214<12] yes=5,no=6,missing=5
		5:[ompk36_155<14] yes=9,no=10,missing=9
			9:[ompk36_153<14] yes=13,no=14,missing=13
				13:leaf=0.121180236
				14:[ompk35_73<20] yes=19,no=20,missing=19
					19:leaf=0.0109567558
					20:leaf=0.0946021304
			10:leaf=-0.0804299414
		6:[ompk36_129<13] yes=11,no=12,missing=11
			11:[ompk36_243<16] yes=15,no=16,missing=15
				15:[ompk37_277<20] yes=21,no=22,missing=21
					21:leaf=0.0113676665
					22:leaf=0.0805682167
				16:[ompk36_137<15] yes=23,no=24,missing=23
					23:leaf=0.0353298448
					24:leaf=0.161310196
			12:[ompk37_264<8] yes=17,no=18,missing=17
				17:leaf=0.0407714583
				18:[ompk36_31<16] yes=25,no=26,missing=25
					25:leaf=-0.078017503
					26:leaf=0.0182997007
booster[146]:
0:leaf=-0.0996752754
booster[147]:
0:leaf=-0.0996752754
booster[148]:
0:leaf=-0.0996752754
booster[149]:
0:leaf=-0.0996752754
booster[150]:
0:leaf=-0.0996752754
booster[151]:
0:leaf=-0.0996752754
booster[152]:
0:leaf=-0.0991176367
booster[153]:
0:leaf=-0.0991176367
booster[154]:
0:leaf=-0.0991176367
booster[155]:
0:leaf=-0.0991176367
booster[156]:
0:leaf=-0.0991176367
booster[157]:
0:[ompk37_209<14] yes=1,no=2,missing=1
	1:leaf=0.142088816
	2:[ompk35_18<12] yes=3,no=4,missing=3
		3:[ompk37_374<14] yes=5,no=6,missing=5
			5:[ompk35_66<20] yes=7,no=8,missing=7
				7:[ompk36_256<13] yes=11,no=12,missing=11
					11:leaf=0.0922291055
					12:leaf=0.0520634428
				8:leaf=-0.0702983066
			6:[ompk37_352<21] yes=9,no=10,missing=9
				9:[ompk37_264<8] yes=13,no=14,missing=13
					13:leaf=-0.00750001101
					14:leaf=-0.0760470554
				10:[ompk36_243<5] yes=15,no=16,missing=15
					15:leaf=0.0442952253
					16:leaf=0.0782310814
		4:leaf=-0.0587407537
booster[158]:
0:[ompk36_153<14] yes=1,no=2,missing=1
	1:leaf=-0.0804313421
	2:[ompk36_92<3] yes=3,no=4,missing=3
		3:[ompk37_209<14] yes=5,no=6,missing=5
			5:leaf=-0.0517520867
			6:[ompk35_77<14] yes=7,no=8,missing=7
				7:[ompk36_198<17] yes=9,no=10,missing=9
					9:leaf=-0.012423208
					10:leaf=0.0536673144
				8:[ompk35_38<18] yes=11,no=12,missing=11
					11:leaf=-0.0470707826
					12:leaf=0.0838771015
		4:leaf=-0.0578606389
booster[159]:
0:[ompk36_249<15] yes=1,no=2,missing=1
	1:[ompk37_374<14] yes=3,no=4,missing=3
		3:leaf=-0.0916178003
		4:[ompk36_249<5] yes=7,no=8,missing=7
			7:[ompk35_73<16] yes=11,no=12,missing=11
				11:leaf=-0.0642816648
				12:[ompk35_41<15] yes=19,no=20,missing=19
					19:leaf=0.0583776236
					20:leaf=-0.0676139221
			8:[ompk36_339<13] yes=13,no=14,missing=13
				13:leaf=0.00752304588
				14:leaf=0.0454923175
	2:[ompk36_119<18] yes=5,no=6,missing=5
		5:[ompk37_277<9] yes=9,no=10,missing=9
			9:[ompk36_383<5] yes=15,no=16,missing=15
				15:leaf=0.00114913017
				16:leaf=-0.0844494849
			10:[ompk36_183<5] yes=17,no=18,missing=17
				17:[ompk36_383<5] yes=21,no=22,missing=21
					21:leaf=-0.0597161427
					22:leaf=0.0225748532
				18:leaf=-0.0689374879
		6:leaf=0.0320163183
booster[160]:
0:[ompk36_153<14] yes=1,no=2,missing=1
	1:[ompk36_198<17] yes=3,no=4,missing=3
		3:leaf=0.142818227
		4:[ompk35_78<20] yes=7,no=8,missing=7
			7:leaf=-0.0788122043
			8:[ompk36_206<20] yes=13,no=14,missing=13
				13:leaf=-0.0168481525
				14:leaf=0.121840872
	2:[ompk36_216<8] yes=5,no=6,missing=5
		5:[ompk36_387<14] yes=9,no=10,missing=9
			9:leaf=0.0730429366
			10:leaf=0.023334235
		6:[ompk36_347<17] yes=11,no=12,missing=11
			11:[ompk37_264<8] yes=15,no=16,missing=15
				15:leaf=-0.00924226549
				16:[ompk35_41<15] yes=19,no=20,missing=19
					19:leaf=-0.0896216258
					20:leaf=-0.038990628
			12:[ompk36_215<9] yes=17,no=18,missing=17
				17:leaf=0.0483828746
				18:[ompk36_96<20] yes=21,no=22,missing=21
					21:leaf=-0.0785401985
					22:leaf=-0.0274848472
booster[161]:
0:[ompk36_207<20] yes=1,no=2,missing=1
	1:[ompk37_277<9] yes=3,no=4,missing=3
		3:[ompk35_73<13] yes=7,no=8,missing=7
			7:[ompk36_198<17] yes=15,no=16,missing=15
				15:leaf=0.041900333
				16:[ompk36_249<14] yes=23,no=24,missing=23
					23:leaf=0.0203417856
					24:leaf=-0.0450088941
			8:leaf=-0.0623182058
		4:[ompk36_378<5] yes=9,no=10,missing=9
			9:[ompk35_64<13] yes=17,no=18,missing=17
				17:[ompk36_198<17] yes=25,no=26,missing=25
					25:leaf=-0.0661107078
					26:leaf=-0.00744617684
				18:leaf=-0.0834670588
			10:leaf=-0.0885181427
	2:[ompk37_373<3] yes=5,no=6,missing=5
		5:[ompk37_264<8] yes=11,no=12,missing=11
			11:leaf=-0.0747256503
			12:[ompk37_18<10] yes=19,no=20,missing=19
				19:[ompk36_154<12] yes=27,no=28,missing=27
					27:leaf=0.0953029916
					28:leaf=-0.0108452979
				20:leaf=-0.0679289028
		6:[ompk36_227<15] yes=13,no=14,missing=13
			13:[ompk36_383<5] yes=21,no=22,missing=21
				21:leaf=0.0123942113
				22:leaf=0.251052827
			14:leaf=-0.0663626492
booster[162]:
0:[ompk36_249<5] yes=1,no=2,missing=1
	1:[ompk35_73<20] yes=3,no=4,missing=3
		3:leaf=-0.0757589042
		4:[ompk35_41<15] yes=7,no=8,missing=7
			7:leaf=0.0317873172
			8:leaf=-0.0641529113
	2:[ompk36_349<10] yes=5,no=6,missing=5
		5:[ompk37_374<14] yes=9,no=10,missing=9
			9:[ompk37_264<8] yes=13,no=14,missing=13
				13:leaf=-0.0671857372
				14:[ompk36_383<5] yes=19,no=20,missing=19
					19:leaf=-0.00168300816
					20:leaf=-0.0376857147
			10:[ompk36_198<17] yes=15,no=16,missing=15
				15:leaf=-0.0638797581
				16:[ompk35_91<14] yes=21,no=22,missing=21
					21:leaf=0.0309552494
					22:leaf=-0.0247768592
		6:[ompk35_13<15] yes=11,no=12,missing=11
			11:[ompk36_198<17] yes=17,no=18,missing=17
				17:leaf=0.0134483026
				18:leaf=-0.0855797678
			12:leaf=0.0469566621
booster[163]:
0:[ompk37_242<10] yes=1,no=2,missing=1
	1:[ompk37_18<10] yes=3,no=4,missing=3
		3:[ompk35_10<16] yes=7,no=8,missing=7
			7:[ompk36_349<10] yes=15,no=16,missing=15
				15:[ompk36_198<17] yes=27,no=28,missing=27
					27:leaf=-0.0197338555
					28:leaf=-0.0910816789
				16:[ompk36_97<15] yes=29,no=30,missing=29
					29:leaf=0.039114248
					30:leaf=-0.05501258
			8:leaf=0.0607854985
		4:[ompk36_349<10] yes=9,no=10,missing=9
			9:[ompk36_215<9] yes=17,no=18,missing=17
				17:leaf=0.0420738235
				18:leaf=-0.0565382205
			10:leaf=0.0868204162
	2:[ompk36_327<3] yes=5,no=6,missing=5
		5:[ompk36_247<13] yes=11,no=12,missing=11
			11:[ompk36_300<15] yes=19,no=20,missing=19
				19:[ompk35_73<16] yes=31,no=32,missing=31
					31:leaf=-0.00114280626
					32:leaf=-0.0561311953
				20:[ompk36_198<17] yes=33,no=34,missing=33
					33:leaf=-0.065202333
					34:leaf=0.056431096
			12:[ompk36_281<16] yes=21,no=22,missing=21
				21:leaf=0.00768298795
				22:leaf=-0.0776374191
		6:[ompk36_141<20] yes=13,no=14,missing=13
			13:[ompk35_73<13] yes=23,no=24,missing=23
				23:leaf=0.189844951
				24:leaf=0.0147683639
			14:[ompk36_84<14] yes=25,no=26,missing=25
				25:[ompk36_137<15] yes=35,no=36,missing=35
					35:leaf=0.0804520473
					36:leaf=-0.0706347153
				26:leaf=0.114190333
booster[164]:
0:[ompk36_154<20] yes=1,no=2,missing=1
	1:[ompk37_264<8] yes=3,no=4,missing=3
		3:leaf=0.0496906899
		4:[ompk37_37<14] yes=7,no=8,missing=7
			7:leaf=0.042547062
			8:[ompk36_198<17] yes=13,no=14,missing=13
				13:[ompk36_154<11] yes=21,no=22,missing=21
					21:leaf=0.101695433
					22:leaf=-0.0210747216
				14:leaf=0.113677062
	2:[ompk35_49<7] yes=5,no=6,missing=5
		5:[ompk35_182<14] yes=9,no=10,missing=9
			9:leaf=-0.0721173584
			10:[ompk37_18<10] yes=15,no=16,missing=15
				15:[ompk36_98<16] yes=23,no=24,missing=23
					23:leaf=0.0408378877
					24:leaf=-0.0471748225
				16:[ompk37_37<14] yes=25,no=26,missing=25
					25:leaf=-0.0591458976
					26:leaf=0.129799053
		6:[ompk37_229<5] yes=11,no=12,missing=11
			11:[ompk35_10<16] yes=17,no=18,missing=17
				17:leaf=0.157574654
				18:leaf=0.0467094444
			12:[ompk35_38<18] yes=19,no=20,missing=19
				19:leaf=0.0770196617
				20:leaf=-0.0714807138
booster[165]:
0:leaf=-0.0991176367
booster[166]:
0:leaf=-0.0991176367
booster[167]:
0:leaf=-0.0991176367
booster[168]:
0:leaf=-0.0991176367
booster[169]:
0:leaf=-0.0991176367
booster[170]:
0:leaf=-0.0991176367
booster[171]:
0:leaf=-0.098559998
booster[172]:
0:leaf=-0.098559998
booster[173]:
0:leaf=-0.098559998
booster[174]:
0:leaf=-0.098559998
booster[175]:
0:leaf=-0.098559998
booster[176]:
0:[ompk36_329<14] yes=1,no=2,missing=1
	1:leaf=-0.0768815205
	2:[ompk37_209<14] yes=3,no=4,missing=3
		3:leaf=0.131288186
		4:[ompk37_247<5] yes=5,no=6,missing=5
			5:[ompk37_277<20] yes=7,no=8,missing=7
				7:leaf=-0.0971120894
				8:leaf=0.0369991176
			6:[ompk37_374<14] yes=9,no=10,missing=9
				9:[ompk35_66<20] yes=11,no=12,missing=11
					11:leaf=0.0740920901
					12:leaf=-0.075870201
				10:[ompk37_352<21] yes=13,no=14,missing=13
					13:leaf=-0.0421468243
					14:leaf=0.0568224899
booster[177]:
0:[ompk36_153<14] yes=1,no=2,missing=1
	1:leaf=-0.0781949162
	2:[ompk36_92<3] yes=3,no=4,missing=3
		3:[ompk35_182<14] yes=5,no=6,missing=5
			5:[ompk37_259<3] yes=7,no=8,missing=7
				7:leaf=0.00957440026
				8:leaf=-0.0584923513
			6:[ompk37_374<14] yes=9,no=10,missing=9
				9:[ompk36_249<5] yes=11,no=12,missing=11
					11:leaf=0.100262515
					12:leaf=0.0379157476
				10:[ompk36_206<20] yes=13,no=14,missing=13
					13:leaf=0.0379650593
					14:leaf=-0.0133951595
		4:leaf=-0.056211777
booster[178]:
0:[ompk36_249<15] yes=1,no=2,missing=1
	1:[ompk37_374<14] yes=3,no=4,missing=3
		3:leaf=-0.0902305767
		4:[ompk36_249<5] yes=7,no=8,missing=7
			7:[ompk35_73<16] yes=13,no=14,missing=13
				13:leaf=-0.0608158708
				14:[ompk35_41<15] yes=19,no=20,missing=19
					19:leaf=0.0533461869
					20:leaf=-0.0650134906
			8:[ompk36_339<13] yes=15,no=16,missing=15
				15:leaf=0.00863823202
				16:leaf=0.0442303382
	2:[ompk35_91<14] yes=5,no=6,missing=5
		5:[ompk36_281<16] yes=9,no=10,missing=9
			9:leaf=-0.0587619133
			10:[ompk37_277<9] yes=17,no=18,missing=17
				17:[ompk36_378<5] yes=21,no=22,missing=21
					21:leaf=-0.0579153262
					22:leaf=0.0272420142
				18:[ompk36_198<17] yes=23,no=24,missing=23
					23:leaf=-0.0311161578
					24:leaf=0.0437920727
		6:[ompk35_20<13] yes=11,no=12,missing=11
			11:leaf=-0.0534926429
			12:leaf=0.0229753703
booster[179]:
0:[ompk36_153<14] yes=1,no=2,missing=1
	1:[ompk36_198<17] yes=3,no=4,missing=3
		3:leaf=0.12684603
		4:[ompk35_78<20] yes=7,no=8,missing=7
			7:leaf=-0.0763905197
			8:[ompk36_206<20] yes=11,no=12,missing=11
				11:leaf=-0.0125105856
				12:[ompk35_61<15] yes=17,no=18,missing=17
					17:leaf=0.136627197
					18:leaf=0.0334615856
	2:[ompk36_216<8] yes=5,no=6,missing=5
		5:leaf=0.0577750765
		6:[ompk37_361<14] yes=9,no=10,missing=9
			9:[ompk36_96<20] yes=13,no=14,missing=13
				13:leaf=-0.0951619372
				14:leaf=-0.0162981078
			10:[ompk36_198<17] yes=15,no=16,missing=15
				15:leaf=0.0159211121
				16:[ompk36_232<18] yes=19,no=20,missing=19
					19:leaf=-0.00763116777
					20:leaf=-0.0677593723
booster[180]:
0:[ompk36_207<20] yes=1,no=2,missing=1
	1:[ompk37_277<9] yes=3,no=4,missing=3
		3:[ompk35_73<13] yes=7,no=8,missing=7
			7:[ompk36_198<17] yes=13,no=14,missing=13
				13:leaf=0.0404294096
				14:[ompk36_249<14] yes=19,no=20,missing=19
					19:leaf=0.0222168677
					20:leaf=-0.0413044803
			8:leaf=-0.0602458604
		4:[ompk36_378<5] yes=9,no=10,missing=9
			9:[ompk35_64<13] yes=15,no=16,missing=15
				15:[ompk36_198<17] yes=21,no=22,missing=21
					21:leaf=-0.0644722506
					22:leaf=-0.00574576296
				16:leaf=-0.0816222727
			10:leaf=-0.0869148523
	2:[ompk37_264<8] yes=5,no=6,missing=5
		5:leaf=-0.074803941
		6:[ompk37_18<10] yes=11,no=12,missing=11
			11:[ompk36_154<12] yes=17,no=18,missing=17
				17:leaf=0.14851813
				18:[ompk36_215<7] yes=23,no=24,missing=23
					23:leaf=0.0990022048
					24:leaf=-0.00254648877
			12:leaf=-0.0685697123
booster[181]:
0:[ompk35_131<9] yes=1,no=2,missing=1
	1:leaf=0.0896551684
	2:[ompk36_349<10] yes=3,no=4,missing=3
		3:[ompk36_153<14] yes=5,no=6,missing=5
			5:leaf=-0.0793774053
			6:[ompk35_35<20] yes=9,no=10,missing=9
				9:[ompk37_18<10] yes=11,no=12,missing=11
					11:leaf=0.00303882337
					12:leaf=-0.0590258054
				10:leaf=-0.0628452525
		4:[ompk35_73<20] yes=7,no=8,missing=7
			7:leaf=-0.0807184204
			8:leaf=0.0393904857
booster[182]:
0:[ompk37_277<20] yes=1,no=2,missing=1
	1:[ompk37_18<10] yes=3,no=4,missing=3
		3:[ompk35_10<16] yes=7,no=8,missing=7
			7:[ompk36_349<10] yes=15,no=16,missing=15
				15:[ompk36_198<17] yes=21,no=22,missing=21
					21:leaf=-0.0168183707
					22:leaf=-0.0893671513
				16:[ompk36_129<13] yes=23,no=24,missing=23
					23:leaf=0.00670265732
					24:leaf=-0.0698453039
			8:leaf=0.0545625798
		4:[ompk36_349<10] yes=9,no=10,missing=9
			9:leaf=-0.00232153549
			10:leaf=0.0802379623
	2:[ompk36_327<3] yes=5,no=6,missing=5
		5:[ompk36_146<16] yes=11,no=12,missing=11
			11:leaf=0.120743476
			12:[ompk36_384<7] yes=17,no=18,missing=17
				17:[ompk36_154<16] yes=25,no=26,missing=25
					25:leaf=-0.0658557788
					26:leaf=0.0218487084
				18:leaf=-0.0693368912
		6:[ompk36_251<13] yes=13,no=14,missing=13
			13:leaf=0.202646881
			14:[ompk36_84<14] yes=19,no=20,missing=19
				19:[ompk36_137<15] yes=27,no=28,missing=27
					27:leaf=0.0725018159
					28:leaf=-0.0273950379
				20:leaf=0.100771546
booster[183]:
0:[ompk36_154<20] yes=1,no=2,missing=1
	1:[ompk37_37<14] yes=3,no=4,missing=3
		3:leaf=0.0358593091
		4:[ompk37_264<8] yes=7,no=8,missing=7
			7:leaf=0.0432493873
			8:[ompk36_198<17] yes=11,no=12,missing=11
				11:[ompk36_154<11] yes=17,no=18,missing=17
					17:leaf=0.0955923125
					18:leaf=-0.020335136
				12:leaf=0.103249885
	2:[ompk37_209<14] yes=5,no=6,missing=5
		5:leaf=-0.0631159395
		6:[ompk37_277<20] yes=9,no=10,missing=9
			9:[ompk36_255<24] yes=13,no=14,missing=13
				13:[ompk36_349<10] yes=19,no=20,missing=19
					19:leaf=0.0291021857
					20:leaf=-0.0556832254
				14:[ompk36_129<13] yes=21,no=22,missing=21
					21:leaf=0.128045186
					22:leaf=-0.0274772849
			10:[ompk36_232<18] yes=15,no=16,missing=15
				15:[ompk36_309<3] yes=23,no=24,missing=23
					23:leaf=-0.0854901224
					24:leaf=0.122526266
				16:[ompk35_38<18] yes=25,no=26,missing=25
					25:leaf=0.0644131824
					26:leaf=-0.0639887378
booster[184]:
0:leaf=-0.098559998
booster[185]:
0:leaf=-0.098559998
booster[186]:
0:leaf=-0.098559998
booster[187]:
0:leaf=-0.098559998
booster[188]:
0:leaf=-0.098559998
booster[189]:
0:leaf=-0.098559998
