booster[0]:
0:leaf=-0.105643742
booster[1]:
0:[ompk35_91<14] yes=1,no=2,missing=1
	1:[ompk36_206<20] yes=3,no=4,missing=3
		3:[ompk36_198<17] yes=5,no=6,missing=5
			5:[ompk36_383<5] yes=9,no=10,missing=9
				9:leaf=-0.0961498544
				10:[ompk37_229<15] yes=15,no=16,missing=15
					15:leaf=0.0299319681
					16:leaf=0.164803803
			6:[ompk37_277<9] yes=11,no=12,missing=11
				11:[ompk37_264<8] yes=17,no=18,missing=17
					17:leaf=0.0609418228
					18:leaf=-0.0219924226
				12:[ompk36_298<10] yes=19,no=20,missing=19
					19:leaf=-0.0646403357
					20:leaf=-0.105035439
		4:[ompk35_181<8] yes=7,no=8,missing=7
			7:leaf=0.141935483
			8:[ompk36_380<9] yes=13,no=14,missing=13
				13:leaf=-0.05937922
				14:[ompk37_374<14] yes=21,no=22,missing=21
					21:leaf=0.0388506353
					22:leaf=-0.0158681162
	2:leaf=-0.106241181
booster[2]:
0:[ompk36_254<22] yes=1,no=2,missing=1
	1:[ompk36_349<10] yes=3,no=4,missing=3
		3:[ompk36_387<14] yes=7,no=8,missing=7
			7:leaf=-4.23000746e-09
			8:leaf=-0.0590038374
		4:leaf=0.12643677
	2:[ompk36_198<17] yes=5,no=6,missing=5
		5:[ompk37_229<5] yes=9,no=10,missing=9
			9:leaf=-0.101132587
			10:[ompk36_347<14] yes=13,no=14,missing=13
				13:leaf=0.0762829408
				14:leaf=-0.0626334548
		6:[ompk36_248<5] yes=11,no=12,missing=11
			11:[ompk36_349<10] yes=15,no=16,missing=15
				15:leaf=-0.0857385024
				16:[ompk36_281<16] yes=17,no=18,missing=17
					17:leaf=0.03371647
					18:leaf=-0.0564907305
			12:leaf=-0.099621363
booster[3]:
0:[ompk37_259<3] yes=1,no=2,missing=1
	1:[ompk37_56<22] yes=3,no=4,missing=3
		3:leaf=0.082242988
		4:leaf=-0.0590038374
	2:[ompk37_264<8] yes=5,no=6,missing=5
		5:[ompk36_384<7] yes=7,no=8,missing=7
			7:leaf=0.0548944287
			8:[ompk35_13<15] yes=11,no=12,missing=11
				11:leaf=-0.0941736028
				12:leaf=-0.00609418703
		6:[ompk36_384<7] yes=9,no=10,missing=9
			9:[ompk36_215<9] yes=13,no=14,missing=13
				13:leaf=-0.0973807871
				14:[ompk36_349<10] yes=17,no=18,missing=17
					17:leaf=-0.0689295158
					18:leaf=0.02348754
			10:[ompk36_339<13] yes=15,no=16,missing=15
				15:leaf=0.115485564
				16:[ompk36_96<20] yes=19,no=20,missing=19
					19:leaf=-0.0900584832
					20:leaf=-0.0366230719
booster[4]:
0:[ompk35_181<8] yes=1,no=2,missing=1
	1:leaf=0.0438902676
	2:[ompk36_92<7] yes=3,no=4,missing=3
		3:[ompk36_96<21] yes=5,no=6,missing=5
			5:[ompk37_37<14] yes=7,no=8,missing=7
				7:[ompk36_206<20] yes=11,no=12,missing=11
					11:leaf=-0.0811279863
					12:leaf=0.03371647
				8:leaf=-0.0945069641
			6:[ompk37_264<8] yes=9,no=10,missing=9
				9:leaf=-0.0750656202
				10:leaf=-0.00732113654
		4:leaf=0.0146179367
booster[5]:
0:[ompk37_374<14] yes=1,no=2,missing=1
	1:[ompk36_387<14] yes=3,no=4,missing=3
		3:[ompk36_153<14] yes=7,no=8,missing=7
			7:leaf=-0.0955483243
			8:[ompk36_342<13] yes=15,no=16,missing=15
				15:[ompk35_91<14] yes=23,no=24,missing=23
					23:leaf=0.0562760197
					24:leaf=-0.0590038374
				16:[ompk37_264<8] yes=25,no=26,missing=25
					25:leaf=0.0709677339
					26:leaf=-0.0387233123
		4:[ompk36_253<15] yes=9,no=10,missing=9
			9:[ompk37_359<5] yes=17,no=18,missing=17
				17:leaf=0.0709677339
				18:leaf=0.306036741
			10:[ompk36_141<20] yes=19,no=20,missing=19
				19:[ompk36_227<15] yes=27,no=28,missing=27
					27:leaf=0.0131736472
					28:leaf=0.03371647
				20:[ompk36_137<15] yes=29,no=30,missing=29
					29:leaf=-0.0590038374
					30:leaf=-0.0151593508
	2:[ompk36_198<17] yes=5,no=6,missing=5
		5:[ompk36_347<14] yes=11,no=12,missing=11
			11:leaf=0.0762829408
			12:leaf=-0.0626334548
		6:[ompk36_92<3] yes=13,no=14,missing=13
			13:[ompk36_383<5] yes=21,no=22,missing=21
				21:[ompk36_384<7] yes=31,no=32,missing=31
					31:leaf=-0.0817895457
					32:leaf=0.00685357815
				22:leaf=-0.10730622
			14:leaf=0.03371647
booster[6]:
0:[ompk36_232<18] yes=1,no=2,missing=1
	1:[ompk36_281<16] yes=3,no=4,missing=3
		3:[ompk36_153<14] yes=7,no=8,missing=7
			7:leaf=-0.0920377895
			8:[ompk37_264<8] yes=15,no=16,missing=15
				15:[ompk36_378<5] yes=27,no=28,missing=27
					27:leaf=-0.0626334548
					28:leaf=-0.0209026169
				16:[ompk37_293<16] yes=29,no=30,missing=29
					29:leaf=0.0866995007
					30:leaf=0.00568474876
		4:[ompk37_360<3] yes=9,no=10,missing=9
			9:[ompk36_253<11] yes=17,no=18,missing=17
				17:[ompk36_387<14] yes=31,no=32,missing=31
					31:leaf=0.127977833
					32:leaf=-4.23000746e-09
				18:leaf=0.262157798
			10:[ompk36_342<13] yes=19,no=20,missing=19
				19:leaf=0.12643677
				20:leaf=-0.0685358271
	2:[ompk37_277<9] yes=5,no=6,missing=5
		5:[ompk36_97<15] yes=11,no=12,missing=11
			11:[ompk36_383<5] yes=21,no=22,missing=21
				21:leaf=-0.0997694135
				22:[ompk36_249<25] yes=33,no=34,missing=33
					33:leaf=-0.0915395319
					34:leaf=-0.0501901209
			12:[ompk37_264<8] yes=23,no=24,missing=23
				23:leaf=0.0686070621
				24:[ompk36_298<10] yes=35,no=36,missing=35
					35:leaf=0.0304381195
					36:leaf=-0.00274657249
		6:[ompk37_37<14] yes=13,no=14,missing=13
			13:leaf=-0.00609418703
			14:[ompk37_209<14] yes=25,no=26,missing=25
				25:leaf=-0.0249433145
				26:leaf=-0.102923982
booster[7]:
0:[ompk36_253<15] yes=1,no=2,missing=1
	1:[ompk36_349<10] yes=3,no=4,missing=3
		3:[ompk37_264<8] yes=7,no=8,missing=7
			7:leaf=0.12643677
			8:[ompk36_198<17] yes=13,no=14,missing=13
				13:[ompk36_383<5] yes=19,no=20,missing=19
					19:leaf=-0.0559158698
					20:leaf=0.04970273
				14:[ompk37_277<9] yes=21,no=22,missing=21
					21:leaf=-0.0359645076
					22:leaf=-0.0918793604
		4:[ompk37_277<13] yes=9,no=10,missing=9
			9:[ompk35_73<13] yes=15,no=16,missing=15
				15:leaf=-0.0657807365
				16:leaf=0.03371647
			10:leaf=0.175415277
	2:[ompk35_91<14] yes=5,no=6,missing=5
		5:[ompk36_153<14] yes=11,no=12,missing=11
			11:leaf=-0.0844529793
			12:[ompk37_277<9] yes=17,no=18,missing=17
				17:[ompk36_298<10] yes=23,no=24,missing=23
					23:leaf=0.227694497
					24:leaf=0.0978203937
				18:[ompk36_378<5] yes=25,no=26,missing=25
					25:leaf=0.268867075
					26:leaf=-0.00832208153
		6:leaf=-0.0981266797
booster[8]:
0:[ompk35_77<14] yes=1,no=2,missing=1
	1:[ompk36_232<18] yes=3,no=4,missing=3
		3:[ompk36_153<14] yes=5,no=6,missing=5
			5:leaf=0.426487505
			6:[ompk37_352<21] yes=9,no=10,missing=9
				9:[ompk36_349<10] yes=15,no=16,missing=15
					15:leaf=0.126942292
					16:leaf=-0.0166414585
				10:[ompk36_380<9] yes=17,no=18,missing=17
					17:leaf=0.03371647
					18:leaf=0.303568572
		4:[ompk37_264<8] yes=7,no=8,missing=7
			7:[ompk36_141<20] yes=11,no=12,missing=11
				11:leaf=-0.0798185989
				12:leaf=0.304308385
			8:[ompk36_96<20] yes=13,no=14,missing=13
				13:[ompk36_198<17] yes=19,no=20,missing=19
					19:leaf=0.36304006
					20:leaf=0.510950685
				14:[ompk36_84<14] yes=21,no=22,missing=21
					21:leaf=0.0872246623
					22:leaf=0.3118774
	2:leaf=0.76234287
booster[9]:
0:[ompk35_181<8] yes=1,no=2,missing=1
	1:[ompk36_203<20] yes=3,no=4,missing=3
		3:leaf=-0.0590038374
		4:leaf=0.12643677
	2:[ompk35_2<17] yes=5,no=6,missing=5
		5:[ompk37_209<14] yes=7,no=8,missing=7
			7:leaf=-0.0249433145
			8:[ompk36_383<5] yes=9,no=10,missing=9
				9:[ompk36_378<5] yes=11,no=12,missing=11
					11:leaf=-0.0776576325
					12:leaf=-0.0976109281
				10:leaf=-0.105975762
		6:leaf=0.02348754
booster[10]:
0:[ompk36_206<20] yes=1,no=2,missing=1
	1:[ompk36_198<17] yes=3,no=4,missing=3
		3:[ompk36_383<5] yes=7,no=8,missing=7
			7:[ompk35_49<7] yes=13,no=14,missing=13
				13:leaf=0.125586137
				14:leaf=0.02348754
			8:leaf=-0.078767702
		4:[ompk37_373<3] yes=9,no=10,missing=9
			9:[ompk36_383<5] yes=15,no=16,missing=15
				15:[ompk36_93<13] yes=21,no=22,missing=21
					21:leaf=-0.0694280192
					22:leaf=0.00685357815
				16:[ompk37_117<10] yes=23,no=24,missing=23
					23:leaf=0.36797151
					24:leaf=0.166933984
			10:[ompk37_209<14] yes=17,no=18,missing=17
				17:leaf=-0.0249433145
				18:[ompk36_146<16] yes=25,no=26,missing=25
					25:leaf=0.00685357815
					26:leaf=0.248450622
	2:[ompk36_154<12] yes=5,no=6,missing=5
		5:leaf=0.380038381
		6:[ompk35_41<9] yes=11,no=12,missing=11
			11:[ompk36_380<9] yes=19,no=20,missing=19
				19:[ompk37_264<8] yes=27,no=28,missing=27
					27:leaf=0.194241837
					28:leaf=-0.0685358271
				20:[ompk35_61<15] yes=29,no=30,missing=29
					29:leaf=-0.0522714369
					30:leaf=0.0709677339
			12:leaf=0.212903216
booster[11]:
0:[ompk36_298<10] yes=1,no=2,missing=1
	1:[ompk37_277<9] yes=3,no=4,missing=3
		3:leaf=-0.059507817
		4:leaf=-0.0958398208
	2:leaf=-0.107830822
booster[12]:
0:[ompk35_91<14] yes=1,no=2,missing=1
	1:[ompk36_206<20] yes=3,no=4,missing=3
		3:[ompk36_198<17] yes=5,no=6,missing=5
			5:[ompk36_383<5] yes=9,no=10,missing=9
				9:leaf=-0.0944875702
				10:[ompk37_229<15] yes=15,no=16,missing=15
					15:leaf=0.0265292209
					16:leaf=0.134814084
			6:[ompk37_277<9] yes=11,no=12,missing=11
				11:[ompk36_292<12] yes=17,no=18,missing=17
					17:leaf=-0.0330015533
					18:leaf=0.02041905
				12:[ompk36_300<15] yes=19,no=20,missing=19
					19:leaf=-0.0604356043
					20:leaf=-0.103415266
		4:[ompk35_181<8] yes=7,no=8,missing=7
			7:leaf=0.12311212
			8:[ompk36_380<9] yes=13,no=14,missing=13
				13:leaf=-0.056786824
				14:[ompk35_13<15] yes=21,no=22,missing=21
					21:leaf=0.0229816642
					22:leaf=-0.0739301741
	2:leaf=-0.104232371
booster[13]:
0:[ompk36_254<22] yes=1,no=2,missing=1
	1:[ompk36_349<10] yes=3,no=4,missing=3
		3:[ompk36_387<14] yes=7,no=8,missing=7
			7:leaf=-0.000430196669
			8:leaf=-0.0576046705
		4:leaf=0.115106337
	2:[ompk36_198<17] yes=5,no=6,missing=5
		5:[ompk37_229<5] yes=9,no=10,missing=9
			9:leaf=-0.0994497314
			10:[ompk36_347<14] yes=13,no=14,missing=13
				13:leaf=0.068630442
				14:leaf=-0.0604224093
		6:[ompk36_248<5] yes=11,no=12,missing=11
			11:[ompk36_349<10] yes=15,no=16,missing=15
				15:[ompk37_374<14] yes=17,no=18,missing=17
					17:leaf=-0.0915675834
					18:leaf=-0.0596258938
				16:[ompk36_342<13] yes=19,no=20,missing=19
					19:leaf=0.0442608148
					20:leaf=-0.0552360527
			12:leaf=-0.0972244516
booster[14]:
0:[ompk37_259<3] yes=1,no=2,missing=1
	1:[ompk37_56<22] yes=3,no=4,missing=3
		3:leaf=0.073640883
		4:leaf=-0.0576627068
	2:[ompk37_264<8] yes=5,no=6,missing=5
		5:[ompk36_384<7] yes=7,no=8,missing=7
			7:leaf=0.0476982258
			8:[ompk35_13<15] yes=11,no=12,missing=11
				11:leaf=-0.0922293067
				12:leaf=-0.00485804817
		6:[ompk36_384<7] yes=9,no=10,missing=9
			9:[ompk36_215<9] yes=13,no=14,missing=13
				13:leaf=-0.0947623774
				14:[ompk36_349<10] yes=17,no=18,missing=17
					17:leaf=-0.0652352199
					18:leaf=0.0230854489
			10:[ompk36_339<13] yes=15,no=16,missing=15
				15:leaf=0.0985012874
				16:[ompk36_255<12] yes=19,no=20,missing=19
					19:leaf=-0.00940249395
					20:leaf=-0.0808886439
booster[15]:
0:[ompk35_181<8] yes=1,no=2,missing=1
	1:[ompk36_252<9] yes=3,no=4,missing=3
		3:leaf=0.107267015
		4:leaf=-0.0555739067
	2:[ompk36_92<7] yes=5,no=6,missing=5
		5:[ompk36_96<21] yes=7,no=8,missing=7
			7:[ompk37_37<14] yes=9,no=10,missing=9
				9:[ompk36_206<20] yes=13,no=14,missing=13
					13:leaf=-0.0782771334
					14:leaf=0.0329362713
				10:leaf=-0.0917575285
			8:[ompk37_264<8] yes=11,no=12,missing=11
				11:leaf=-0.0725828931
				12:leaf=-0.00814650673
		6:leaf=0.0143022407
booster[16]:
0:[ompk37_374<14] yes=1,no=2,missing=1
	1:[ompk36_153<14] yes=3,no=4,missing=3
		3:leaf=-0.0945450962
		4:[ompk37_264<8] yes=7,no=8,missing=7
			7:[ompk36_206<13] yes=13,no=14,missing=13
				13:leaf=0.264922291
				14:[ompk36_384<7] yes=19,no=20,missing=19
					19:leaf=0.0635809004
					20:leaf=-0.0230357256
			8:[ompk36_248<5] yes=15,no=16,missing=15
				15:[ompk37_18<10] yes=21,no=22,missing=21
					21:leaf=0.0604716837
					22:leaf=-0.0721405074
				16:[ompk35_73<13] yes=23,no=24,missing=23
					23:leaf=-0.0195278227
					24:leaf=-0.0791691095
	2:[ompk36_198<17] yes=5,no=6,missing=5
		5:[ompk36_347<14] yes=9,no=10,missing=9
			9:leaf=0.068630442
			10:leaf=-0.0604224093
		6:[ompk36_96<21] yes=11,no=12,missing=11
			11:[ompk36_383<5] yes=17,no=18,missing=17
				17:[ompk36_384<7] yes=25,no=26,missing=25
					25:leaf=-0.0783712342
					26:leaf=0.00549964374
				18:leaf=-0.105682984
			12:leaf=0.0437040888
booster[17]:
0:[ompk36_232<18] yes=1,no=2,missing=1
	1:[ompk36_281<16] yes=3,no=4,missing=3
		3:[ompk36_153<14] yes=7,no=8,missing=7
			7:leaf=-0.089259319
			8:[ompk37_264<8] yes=15,no=16,missing=15
				15:[ompk36_378<5] yes=27,no=28,missing=27
					27:leaf=-0.0610518567
					28:leaf=-0.019720735
				16:[ompk35_91<14] yes=29,no=30,missing=29
					29:leaf=0.0553216897
					30:leaf=-0.0608658306
		4:[ompk37_360<3] yes=9,no=10,missing=9
			9:[ompk36_253<11] yes=17,no=18,missing=17
				17:[ompk36_387<14] yes=31,no=32,missing=31
					31:leaf=0.108411029
					32:leaf=-0.000210977072
				18:[ompk36_383<5] yes=33,no=34,missing=33
					33:leaf=0.294460535
					34:leaf=0.112073958
			10:[ompk36_342<13] yes=19,no=20,missing=19
				19:leaf=0.109181941
				20:leaf=-0.0664372966
	2:[ompk37_277<9] yes=5,no=6,missing=5
		5:[ompk36_97<15] yes=11,no=12,missing=11
			11:[ompk36_383<5] yes=21,no=22,missing=21
				21:leaf=-0.0980195329
				22:[ompk36_249<25] yes=35,no=36,missing=35
					35:leaf=-0.08917474
					36:leaf=-0.0461102538
			12:[ompk35_13<15] yes=23,no=24,missing=23
				23:[ompk37_264<8] yes=37,no=38,missing=37
					37:leaf=0.137876332
					38:leaf=0.0203392543
				24:leaf=-0.0146972463
		6:[ompk37_37<14] yes=13,no=14,missing=13
			13:leaf=-0.0039295028
			14:[ompk37_209<14] yes=25,no=26,missing=25
				25:leaf=-0.0229738709
				26:leaf=-0.100817852
booster[18]:
0:[ompk36_253<15] yes=1,no=2,missing=1
	1:[ompk36_349<10] yes=3,no=4,missing=3
		3:[ompk37_264<8] yes=7,no=8,missing=7
			7:leaf=0.111208156
			8:[ompk36_198<17] yes=13,no=14,missing=13
				13:[ompk36_383<5] yes=19,no=20,missing=19
					19:leaf=-0.0531232357
					20:leaf=0.0458929054
				14:[ompk37_277<9] yes=21,no=22,missing=21
					21:leaf=-0.0322486274
					22:leaf=-0.0887121186
		4:[ompk37_277<13] yes=9,no=10,missing=9
			9:[ompk35_73<13] yes=15,no=16,missing=15
				15:leaf=-0.0639932826
				16:leaf=0.0335578918
			10:leaf=0.150371835
	2:[ompk35_91<14] yes=5,no=6,missing=5
		5:[ompk36_153<14] yes=11,no=12,missing=11
			11:leaf=-0.081782043
			12:[ompk37_37<14] yes=17,no=18,missing=17
				17:leaf=-0.0749011263
				18:[ompk37_277<9] yes=23,no=24,missing=23
					23:leaf=0.117088355
					24:leaf=0.0541894101
		6:leaf=-0.0954197869
booster[19]:
0:[ompk35_77<14] yes=1,no=2,missing=1
	1:[ompk36_232<18] yes=3,no=4,missing=3
		3:[ompk36_223<16] yes=7,no=8,missing=7
			7:[ompk36_153<14] yes=15,no=16,missing=15
				15:leaf=0.289281726
				16:[ompk37_362<13] yes=19,no=20,missing=19
					19:leaf=0.0771621093
					20:leaf=0.19672811
			8:leaf=-0.0697146207
		4:[ompk37_208<16] yes=9,no=10,missing=9
			9:leaf=-0.0618903898
			10:[ompk37_264<8] yes=17,no=18,missing=17
				17:[ompk36_141<20] yes=21,no=22,missing=21
					21:leaf=-0.077861473
					22:leaf=0.22693722
				18:[ompk36_97<15] yes=23,no=24,missing=23
					23:leaf=0.307030022
					24:leaf=0.238902375
	2:[ompk35_24<16] yes=5,no=6,missing=5
		5:[ompk37_18<10] yes=11,no=12,missing=11
			11:leaf=0.384080797
			12:leaf=0.115296915
		6:[ompk37_229<15] yes=13,no=14,missing=13
			13:leaf=0.338712782
			14:leaf=0.0178622287
booster[20]:
0:[ompk35_240<14] yes=1,no=2,missing=1
	1:leaf=0.136949077
	2:[ompk35_2<17] yes=3,no=4,missing=3
		3:[ompk37_209<14] yes=5,no=6,missing=5
			5:leaf=-0.0229738709
			6:[ompk36_383<5] yes=7,no=8,missing=7
				7:[ompk36_378<5] yes=9,no=10,missing=9
					9:leaf=-0.0754167289
					10:leaf=-0.0951481685
				8:leaf=-0.104254894
		4:leaf=0.0257253293
booster[21]:
0:[ompk36_206<20] yes=1,no=2,missing=1
	1:[ompk36_198<17] yes=3,no=4,missing=3
		3:[ompk36_383<5] yes=7,no=8,missing=7
			7:[ompk35_67<14] yes=13,no=14,missing=13
				13:leaf=0.100156121
				14:leaf=0.0240974408
			8:leaf=-0.0754073635
		4:[ompk37_373<3] yes=9,no=10,missing=9
			9:[ompk36_383<5] yes=15,no=16,missing=15
				15:[ompk36_93<13] yes=21,no=22,missing=21
					21:leaf=-0.0651134625
					22:leaf=0.00662350748
				16:[ompk37_117<10] yes=23,no=24,missing=23
					23:leaf=0.289518028
					24:leaf=0.133332953
			10:[ompk37_209<14] yes=17,no=18,missing=17
				17:leaf=-0.0229738709
				18:[ompk35_73<16] yes=25,no=26,missing=25
					25:leaf=0.20104149
					26:leaf=0.123653732
	2:[ompk36_154<20] yes=5,no=6,missing=5
		5:leaf=0.252428502
		6:[ompk35_41<9] yes=11,no=12,missing=11
			11:[ompk36_380<9] yes=19,no=20,missing=19
				19:[ompk37_264<8] yes=27,no=28,missing=27
					27:leaf=0.153355882
					28:leaf=-0.0668480024
				20:[ompk35_61<15] yes=29,no=30,missing=29
					29:leaf=-0.0490694568
					30:leaf=0.0443382636
			12:leaf=0.182516262
booster[22]:
0:[ompk36_298<10] yes=1,no=2,missing=1
	1:[ompk37_277<9] yes=3,no=4,missing=3
		3:leaf=-0.0558095276
		4:leaf=-0.0936110169
	2:leaf=-0.10667558
booster[23]:
0:[ompk37_208<16] yes=1,no=2,missing=1
	1:leaf=0.236022472
	2:[ompk35_91<14] yes=3,no=4,missing=3
		3:[ompk36_206<20] yes=5,no=6,missing=5
			5:[ompk36_198<17] yes=7,no=8,missing=7
				7:[ompk37_229<15] yes=11,no=12,missing=11
					11:leaf=-0.0766560882
					12:leaf=0.115238369
				8:[ompk37_277<9] yes=13,no=14,missing=13
					13:leaf=-0.00703947945
					14:leaf=-0.0794081539
			6:[ompk36_378<5] yes=9,no=10,missing=9
				9:[ompk37_374<14] yes=15,no=16,missing=15
					15:leaf=0.0654917061
					16:leaf=-0.0242288597
				10:[ompk36_209<20] yes=17,no=18,missing=17
					17:leaf=-0.0585790463
					18:leaf=0.00369295967
		4:leaf=-0.102616884
booster[24]:
0:[ompk36_254<22] yes=1,no=2,missing=1
	1:[ompk36_349<10] yes=3,no=4,missing=3
		3:[ompk36_387<14] yes=7,no=8,missing=7
			7:leaf=0.000450401945
			8:leaf=-0.056055367
		4:leaf=0.10281878
	2:[ompk36_198<17] yes=5,no=6,missing=5
		5:[ompk37_229<5] yes=9,no=10,missing=9
			9:leaf=-0.0977724493
			10:[ompk36_347<14] yes=13,no=14,missing=13
				13:leaf=0.063705124
				14:leaf=-0.057781931
		6:[ompk36_248<5] yes=11,no=12,missing=11
			11:[ompk36_349<10] yes=15,no=16,missing=15
				15:[ompk37_374<14] yes=17,no=18,missing=17
					17:leaf=-0.0892339274
					18:leaf=-0.056651812
				16:[ompk36_342<13] yes=19,no=20,missing=19
					19:leaf=0.0418798476
					20:leaf=-0.0523981228
			12:leaf=-0.0949975476
booster[25]:
0:[ompk37_259<3] yes=1,no=2,missing=1
	1:[ompk37_56<22] yes=3,no=4,missing=3
		3:leaf=0.0671504661
		4:leaf=-0.0560504794
	2:[ompk37_264<8] yes=5,no=6,missing=5
		5:[ompk36_384<7] yes=7,no=8,missing=7
			7:[ompk36_206<20] yes=11,no=12,missing=11
				11:leaf=0.0507124066
				12:leaf=0.0145505294
			8:[ompk35_13<15] yes=13,no=14,missing=13
				13:leaf=-0.0903176591
				14:leaf=-0.00458126888
		6:[ompk36_384<7] yes=9,no=10,missing=9
			9:[ompk36_215<9] yes=15,no=16,missing=15
				15:[ompk36_198<17] yes=19,no=20,missing=19
					19:leaf=-0.0671538487
					20:leaf=-0.0953345373
				16:[ompk36_349<10] yes=21,no=22,missing=21
					21:leaf=-0.061932046
					22:leaf=0.0229861755
			10:[ompk36_339<13] yes=17,no=18,missing=17
				17:leaf=0.0871431753
				18:[ompk36_96<20] yes=23,no=24,missing=23
					23:leaf=-0.0851612464
					24:leaf=-0.0287772007
booster[26]:
0:[ompk35_181<8] yes=1,no=2,missing=1
	1:leaf=0.0391793475
	2:[ompk36_92<7] yes=3,no=4,missing=3
		3:[ompk36_96<21] yes=5,no=6,missing=5
			5:[ompk37_37<14] yes=7,no=8,missing=7
				7:[ompk36_232<18] yes=11,no=12,missing=11
					11:leaf=0.0433791727
					12:leaf=-0.0774870962
				8:leaf=-0.0891263038
			6:[ompk37_264<8] yes=9,no=10,missing=9
				9:leaf=-0.070494093
				10:leaf=-0.00750274444
		4:leaf=0.0140536344
booster[27]:
0:[ompk37_277<9] yes=1,no=2,missing=1
	1:[ompk36_153<14] yes=3,no=4,missing=3
		3:leaf=-0.0929356739
		4:[ompk36_387<14] yes=7,no=8,missing=7
			7:[ompk36_342<13] yes=13,no=14,missing=13
				13:[ompk36_378<5] yes=19,no=20,missing=19
					19:leaf=0.0411056206
					20:leaf=-0.0351217538
				14:[ompk37_264<8] yes=21,no=22,missing=21
					21:leaf=0.0388114266
					22:leaf=-0.0294594821
			8:[ompk36_215<9] yes=15,no=16,missing=15
				15:[ompk37_359<5] yes=23,no=24,missing=23
					23:leaf=0.0623523667
					24:leaf=0.268023103
				16:[ompk36_141<20] yes=25,no=26,missing=25
					25:leaf=0.0267408434
					26:leaf=-0.0223891251
	2:[ompk36_198<17] yes=5,no=6,missing=5
		5:[ompk36_347<14] yes=9,no=10,missing=9
			9:leaf=0.063705124
			10:leaf=-0.0625767037
		6:[ompk36_92<7] yes=11,no=12,missing=11
			11:[ompk36_383<5] yes=17,no=18,missing=17
				17:[ompk36_384<7] yes=27,no=28,missing=27
					27:leaf=-0.0753321573
					28:leaf=0.0321941189
				18:leaf=-0.104351915
			12:leaf=0.0416598283
booster[28]:
0:[ompk36_232<18] yes=1,no=2,missing=1
	1:[ompk36_281<16] yes=3,no=4,missing=3
		3:[ompk36_153<14] yes=7,no=8,missing=7
			7:leaf=-0.0866549164
			8:[ompk37_264<8] yes=15,no=16,missing=15
				15:[ompk36_378<5] yes=27,no=28,missing=27
					27:leaf=-0.059429016
					28:leaf=-0.0188673269
				16:[ompk37_323<11] yes=29,no=30,missing=29
					29:leaf=0.0649212748
					30:leaf=0.000216027984
		4:[ompk37_360<3] yes=9,no=10,missing=9
			9:[ompk36_248<5] yes=17,no=18,missing=17
				17:[ompk35_182<14] yes=31,no=32,missing=31
					31:leaf=0.0551375821
					32:leaf=0.180530205
				18:leaf=0.0153736919
			10:[ompk36_342<13] yes=19,no=20,missing=19
				19:leaf=0.0975802243
				20:leaf=-0.0648496076
	2:[ompk37_277<9] yes=5,no=6,missing=5
		5:[ompk36_97<15] yes=11,no=12,missing=11
			11:[ompk36_383<5] yes=21,no=22,missing=21
				21:leaf=-0.0962319002
				22:[ompk36_249<25] yes=33,no=34,missing=33
					33:leaf=-0.0868647918
					34:leaf=-0.0421289764
			12:[ompk35_13<15] yes=23,no=24,missing=23
				23:[ompk37_264<8] yes=35,no=36,missing=35
					35:leaf=0.122023515
					36:leaf=0.0193779171
				24:leaf=-0.0135319969
		6:[ompk37_37<14] yes=13,no=14,missing=13
			13:leaf=-0.00235126773
			14:[ompk37_209<14] yes=25,no=26,missing=25
				25:leaf=-0.0215787534
				26:leaf=-0.0988937244
booster[29]:
0:[ompk36_253<15] yes=1,no=2,missing=1
	1:[ompk36_198<17] yes=3,no=4,missing=3
		3:[ompk36_383<5] yes=7,no=8,missing=7
			7:[ompk35_73<13] yes=13,no=14,missing=13
				13:leaf=-0.0653337762
				14:leaf=0.0116487183
			8:[ompk37_322<9] yes=15,no=16,missing=15
				15:leaf=0.0946626589
				16:[ompk36_309<3] yes=21,no=22,missing=21
					21:leaf=-0.00111476367
					22:leaf=0.112309359
		4:[ompk37_277<9] yes=9,no=10,missing=9
			9:[ompk37_264<8] yes=17,no=18,missing=17
				17:leaf=0.0996460319
				18:[ompk36_383<5] yes=23,no=24,missing=23
					23:leaf=0.0330082923
					24:leaf=-0.0502255335
			10:leaf=-0.085967958
	2:[ompk35_91<14] yes=5,no=6,missing=5
		5:[ompk36_153<14] yes=11,no=12,missing=11
			11:leaf=-0.0792977586
			12:[ompk36_203<12] yes=19,no=20,missing=19
				19:[ompk37_229<13] yes=25,no=26,missing=25
					25:leaf=0.0556532033
					26:leaf=0.164859131
				20:[ompk37_277<9] yes=27,no=28,missing=27
					27:leaf=0.110085405
					28:leaf=-0.0145385386
		6:leaf=-0.0931310207
booster[30]:
0:[ompk37_277<9] yes=1,no=2,missing=1
	1:[ompk36_198<17] yes=3,no=4,missing=3
		3:[ompk36_383<5] yes=7,no=8,missing=7
			7:[ompk36_154<16] yes=15,no=16,missing=15
				15:leaf=0.0172983333
				16:[ompk35_73<13] yes=25,no=26,missing=25
					25:leaf=0.357519716
					26:leaf=0.16954419
			8:leaf=0.0821444541
		4:[ompk36_249<5] yes=9,no=10,missing=9
			9:[ompk37_37<14] yes=17,no=18,missing=17
				17:leaf=0.200661644
				18:[ompk35_181<8] yes=27,no=28,missing=27
					27:leaf=-0.0644916296
					28:leaf=0.059610676
			10:[ompk35_91<14] yes=19,no=20,missing=19
				19:[ompk36_383<5] yes=29,no=30,missing=29
					29:leaf=0.0827124119
					30:leaf=0.165630728
				20:leaf=0.268388122
	2:[ompk36_198<17] yes=5,no=6,missing=5
		5:[ompk36_309<3] yes=11,no=12,missing=11
			11:leaf=-0.0454892181
			12:leaf=0.0384365134
		6:[ompk36_232<18] yes=13,no=14,missing=13
			13:[ompk36_380<9] yes=21,no=22,missing=21
				21:leaf=0.0158413779
				22:[ompk36_347<17] yes=31,no=32,missing=31
					31:leaf=0.118265606
					32:leaf=0.214254484
			14:[ompk35_20<13] yes=23,no=24,missing=23
				23:[ompk37_209<14] yes=33,no=34,missing=33
					33:leaf=0.0985932797
					34:leaf=0.257114023
				24:leaf=0.0378731638
booster[31]:
0:[ompk35_240<14] yes=1,no=2,missing=1
	1:leaf=0.124554686
	2:[ompk35_2<17] yes=3,no=4,missing=3
		3:[ompk37_209<14] yes=5,no=6,missing=5
			5:leaf=-0.0215787534
			6:[ompk36_383<5] yes=7,no=8,missing=7
				7:[ompk36_378<5] yes=9,no=10,missing=9
					9:leaf=-0.0722285435
					10:leaf=-0.0928203836
				8:leaf=-0.102702275
		4:leaf=0.0259955321
booster[32]:
0:[ompk36_206<20] yes=1,no=2,missing=1
	1:[ompk36_198<17] yes=3,no=4,missing=3
		3:[ompk36_383<5] yes=7,no=8,missing=7
			7:[ompk36_247<18] yes=13,no=14,missing=13
				13:[ompk35_73<20] yes=23,no=24,missing=23
					23:leaf=0.037015602
					24:leaf=0.124212168
				14:leaf=0.125923693
			8:leaf=-0.0718604997
		4:[ompk37_373<3] yes=9,no=10,missing=9
			9:[ompk36_93<13] yes=15,no=16,missing=15
				15:leaf=-0.0632526502
				16:[ompk37_117<10] yes=25,no=26,missing=25
					25:leaf=0.235468388
					26:leaf=0.105314054
			10:[ompk37_209<14] yes=17,no=18,missing=17
				17:leaf=-0.0215787534
				18:[ompk35_20<13] yes=27,no=28,missing=27
					27:leaf=0.132053629
					28:leaf=0.313165575
	2:[ompk36_154<12] yes=5,no=6,missing=5
		5:leaf=0.213147044
		6:[ompk35_41<9] yes=11,no=12,missing=11
			11:[ompk36_380<9] yes=19,no=20,missing=19
				19:[ompk37_264<8] yes=29,no=30,missing=29
					29:leaf=0.12359836
					30:leaf=-0.0645812154
				20:[ompk35_61<15] yes=31,no=32,missing=31
					31:leaf=-0.0458792411
					32:leaf=0.0573438816
			12:[ompk36_190<14] yes=21,no=22,missing=21
				21:leaf=0.223175868
				22:leaf=0.023285754
booster[33]:
0:[ompk36_298<10] yes=1,no=2,missing=1
	1:[ompk37_277<9] yes=3,no=4,missing=3
		3:leaf=-0.0532879196
		4:leaf=-0.0913297012
	2:leaf=-0.105649941
booster[34]:
0:[ompk37_208<8] yes=1,no=2,missing=1
	1:leaf=0.228291795
	2:[ompk35_91<14] yes=3,no=4,missing=3
		3:[ompk36_206<20] yes=5,no=6,missing=5
			5:[ompk36_198<17] yes=7,no=8,missing=7
				7:[ompk37_229<15] yes=11,no=12,missing=11
					11:leaf=-0.0734704882
					12:leaf=0.0916577578
				8:[ompk37_277<9] yes=13,no=14,missing=13
					13:leaf=-0.00634242082
					14:leaf=-0.0759989247
			6:[ompk35_181<8] yes=9,no=10,missing=9
				9:[ompk36_248<5] yes=15,no=16,missing=15
					15:leaf=0.0245553423
					16:leaf=0.142528161
				10:[ompk36_378<5] yes=17,no=18,missing=17
					17:leaf=0.0217226446
					18:leaf=-0.025516687
		4:leaf=-0.101183727
booster[35]:
0:[ompk36_254<22] yes=1,no=2,missing=1
	1:[ompk36_349<10] yes=3,no=4,missing=3
		3:[ompk36_387<14] yes=7,no=8,missing=7
			7:leaf=0.000294608151
			8:leaf=-0.0542711392
		4:leaf=0.0920753852
	2:[ompk36_198<17] yes=5,no=6,missing=5
		5:[ompk37_229<5] yes=9,no=10,missing=9
			9:leaf=-0.0959458575
			10:[ompk36_347<14] yes=13,no=14,missing=13
				13:leaf=0.0525367223
				14:leaf=-0.0565278232
		6:[ompk36_248<5] yes=11,no=12,missing=11
			11:[ompk36_349<10] yes=15,no=16,missing=15
				15:[ompk37_374<14] yes=17,no=18,missing=17
					17:leaf=-0.0868932232
					18:leaf=-0.0536375828
				16:[ompk36_342<13] yes=19,no=20,missing=19
					19:leaf=0.0400858782
					20:leaf=-0.0490700081
			12:leaf=-0.0927969441
booster[36]:
0:[ompk37_259<3] yes=1,no=2,missing=1
	1:[ompk37_56<22] yes=3,no=4,missing=3
		3:leaf=0.0602947362
		4:leaf=-0.0546485782
	2:[ompk36_156<16] yes=5,no=6,missing=5
		5:leaf=0.0338664837
		6:[ompk36_215<9] yes=7,no=8,missing=7
			7:[ompk36_347<17] yes=9,no=10,missing=9
				9:[ompk37_264<8] yes=13,no=14,missing=13
					13:leaf=-0.00910811126
					14:leaf=-0.0899109766
				10:[ompk37_229<13] yes=15,no=16,missing=15
					15:leaf=-0.069930084
					16:leaf=0.114719272
			8:[ompk36_380<9] yes=11,no=12,missing=11
				11:[ompk37_264<8] yes=17,no=18,missing=17
					17:leaf=-0.0826971158
					18:leaf=0.118920051
				12:[ompk36_96<20] yes=19,no=20,missing=19
					19:leaf=-0.0717322454
					20:leaf=-0.0222392268
booster[37]:
0:[ompk35_181<8] yes=1,no=2,missing=1
	1:leaf=0.0373284183
	2:[ompk36_92<7] yes=3,no=4,missing=3
		3:[ompk36_96<21] yes=5,no=6,missing=5
			5:[ompk37_37<14] yes=7,no=8,missing=7
				7:[ompk36_232<18] yes=11,no=12,missing=11
					11:leaf=0.0414391235
					12:leaf=-0.0748581886
				8:leaf=-0.0865226239
			6:[ompk37_264<8] yes=9,no=10,missing=9
				9:leaf=-0.0682672635
				10:leaf=-0.00598821556
		4:leaf=0.0145759797
booster[38]:
0:[ompk37_374<14] yes=1,no=2,missing=1
	1:[ompk35_91<14] yes=3,no=4,missing=3
		3:[ompk37_18<10] yes=7,no=8,missing=7
			7:[ompk36_387<14] yes=13,no=14,missing=13
				13:[ompk36_342<13] yes=17,no=18,missing=17
					17:leaf=0.0325260423
					18:leaf=-0.0174710248
				14:[ompk36_253<15] yes=19,no=20,missing=19
					19:leaf=0.183182091
					20:leaf=0.00691550365
			8:leaf=-0.0880720392
		4:leaf=-0.0913989767
	2:[ompk36_198<17] yes=5,no=6,missing=5
		5:[ompk36_347<14] yes=9,no=10,missing=9
			9:leaf=0.0525367223
			10:leaf=-0.0563873351
		6:[ompk36_96<21] yes=11,no=12,missing=11
			11:[ompk36_383<5] yes=15,no=16,missing=15
				15:[ompk36_384<7] yes=21,no=22,missing=21
					21:leaf=-0.0717022195
					22:leaf=0.00584014971
				16:leaf=-0.10301391
			12:leaf=0.0399881862
booster[39]:
0:[ompk36_232<18] yes=1,no=2,missing=1
	1:[ompk35_91<14] yes=3,no=4,missing=3
		3:[ompk37_264<8] yes=7,no=8,missing=7
			7:leaf=-0.0541170537
			8:[ompk37_360<3] yes=13,no=14,missing=13
				13:[ompk37_37<14] yes=21,no=22,missing=21
					21:leaf=-0.0563873127
					22:leaf=0.0989840478
				14:[ompk36_378<5] yes=23,no=24,missing=23
					23:leaf=-0.0168976337
					24:leaf=0.078116715
		4:leaf=-0.0867891088
	2:[ompk37_277<9] yes=5,no=6,missing=5
		5:[ompk36_97<15] yes=9,no=10,missing=9
			9:[ompk36_383<5] yes=15,no=16,missing=15
				15:leaf=-0.0942662731
				16:[ompk36_249<25] yes=25,no=26,missing=25
					25:leaf=-0.0850020349
					26:leaf=-0.0388209634
			10:[ompk37_264<8] yes=17,no=18,missing=17
				17:[ompk35_13<15] yes=27,no=28,missing=27
					27:leaf=0.109276913
					28:leaf=-0.00765112648
				18:[ompk36_298<10] yes=29,no=30,missing=29
					29:leaf=0.0266563054
					30:leaf=-0.00431071734
		6:[ompk37_37<14] yes=11,no=12,missing=11
			11:leaf=-0.000468421465
			12:[ompk37_209<14] yes=19,no=20,missing=19
				19:leaf=-0.0218374003
				20:leaf=-0.0969955549
booster[40]:
0:[ompk35_91<14] yes=1,no=2,missing=1
	1:[ompk36_253<15] yes=3,no=4,missing=3
		3:[ompk36_198<17] yes=5,no=6,missing=5
			5:[ompk36_383<5] yes=9,no=10,missing=9
				9:leaf=-0.0346375257
				10:[ompk37_229<5] yes=15,no=16,missing=15
					15:leaf=0.0810366496
					16:leaf=0.0302253701
			6:[ompk37_360<3] yes=11,no=12,missing=11
				11:[ompk37_264<8] yes=17,no=18,missing=17
					17:leaf=0.0901993141
					18:leaf=-0.0160067938
				12:leaf=-0.0773242936
		4:[ompk37_209<14] yes=7,no=8,missing=7
			7:leaf=0.183877498
			8:[ompk36_153<14] yes=13,no=14,missing=13
				13:leaf=-0.0771792531
				14:[ompk36_203<12] yes=19,no=20,missing=19
					19:leaf=0.0827109814
					20:leaf=0.0306669064
	2:leaf=-0.092458427
booster[41]:
0:[ompk35_77<14] yes=1,no=2,missing=1
	1:[ompk37_277<9] yes=3,no=4,missing=3
		3:[ompk36_198<17] yes=5,no=6,missing=5
			5:[ompk36_383<5] yes=9,no=10,missing=9
				9:leaf=0.23339656
				10:[ompk36_309<3] yes=17,no=18,missing=17
					17:leaf=0.00012664606
					18:leaf=0.0334014669
			6:[ompk35_216<2] yes=11,no=12,missing=11
				11:leaf=0.316716939
				12:[ompk35_92<20] yes=19,no=20,missing=19
					19:leaf=-0.065706037
					20:leaf=0.101918362
		4:[ompk36_198<17] yes=7,no=8,missing=7
			7:[ompk36_309<3] yes=13,no=14,missing=13
				13:leaf=-0.043374788
				14:leaf=0.0326215327
			8:[ompk36_232<18] yes=15,no=16,missing=15
				15:[ompk36_347<17] yes=21,no=22,missing=21
					21:leaf=0.089960061
					22:leaf=0.202750489
				16:[ompk37_209<14] yes=23,no=24,missing=23
					23:leaf=0.0786513239
					24:leaf=0.185765371
	2:leaf=0.196246848
booster[42]:
0:[ompk35_240<14] yes=1,no=2,missing=1
	1:leaf=0.113811269
	2:[ompk35_2<17] yes=3,no=4,missing=3
		3:[ompk37_209<14] yes=5,no=6,missing=5
			5:leaf=-0.0218374003
			6:[ompk36_383<5] yes=7,no=8,missing=7
				7:[ompk36_378<5] yes=9,no=10,missing=9
					9:leaf=-0.0687975064
					10:leaf=-0.090557836
				8:leaf=-0.101268671
		4:leaf=0.0256783608
booster[43]:
0:[ompk36_206<20] yes=1,no=2,missing=1
	1:[ompk36_198<17] yes=3,no=4,missing=3
		3:[ompk36_383<5] yes=7,no=8,missing=7
			7:[ompk36_153<14] yes=15,no=16,missing=15
				15:leaf=0.127686799
				16:[ompk35_73<20] yes=25,no=26,missing=25
					25:leaf=0.0358304083
					26:leaf=0.0958183259
			8:leaf=-0.0696427226
		4:[ompk37_373<3] yes=9,no=10,missing=9
			9:[ompk36_383<5] yes=17,no=18,missing=17
				17:[ompk36_93<13] yes=27,no=28,missing=27
					27:leaf=-0.058798451
					28:leaf=-0.00199282332
				18:[ompk37_18<10] yes=29,no=30,missing=29
					29:leaf=0.12544255
					30:leaf=-0.0592325293
			10:[ompk37_209<14] yes=19,no=20,missing=19
				19:leaf=-0.0218374003
				20:[ompk35_20<13] yes=31,no=32,missing=31
					31:leaf=0.109188497
					32:leaf=0.242102548
	2:[ompk36_154<20] yes=5,no=6,missing=5
		5:[ompk36_154<12] yes=11,no=12,missing=11
			11:leaf=0.170845464
			12:leaf=0.0404826589
		6:[ompk35_41<9] yes=13,no=14,missing=13
			13:[ompk36_380<9] yes=21,no=22,missing=21
				21:[ompk37_264<8] yes=33,no=34,missing=33
					33:leaf=0.0998274013
					34:leaf=-0.0625316948
				22:[ompk35_49<7] yes=35,no=36,missing=35
					35:leaf=-0.0426233634
					36:leaf=0.0456606783
			14:[ompk36_190<14] yes=23,no=24,missing=23
				23:leaf=0.193326265
				24:leaf=0.0237620305
booster[44]:
0:[ompk36_298<10] yes=1,no=2,missing=1
	1:[ompk37_277<9] yes=3,no=4,missing=3
		3:leaf=-0.0507220924
		4:leaf=-0.0889486894
	2:leaf=-0.104737304
booster[45]:
0:[ompk35_91<14] yes=1,no=2,missing=1
	1:[ompk37_208<8] yes=3,no=4,missing=3
		3:leaf=0.195980102
		4:[ompk36_206<20] yes=5,no=6,missing=5
			5:[ompk36_198<17] yes=7,no=8,missing=7
				7:[ompk37_229<15] yes=11,no=12,missing=11
					11:leaf=-0.0703274235
					12:leaf=0.074332498
				8:[ompk37_277<9] yes=13,no=14,missing=13
					13:leaf=-0.00570004946
					14:leaf=-0.0724461302
			6:[ompk36_255<12] yes=9,no=10,missing=9
				9:leaf=0.122173049
				10:[ompk36_153<14] yes=15,no=16,missing=15
					15:leaf=-0.0749606937
					16:leaf=0.00638796017
	2:leaf=-0.0997470394
booster[46]:
0:[ompk36_254<22] yes=1,no=2,missing=1
	1:[ompk36_349<10] yes=3,no=4,missing=3
		3:leaf=-0.027229635
		4:leaf=0.0826998875
	2:[ompk36_198<17] yes=5,no=6,missing=5
		5:[ompk37_229<5] yes=7,no=8,missing=7
			7:leaf=-0.0941403285
			8:[ompk36_347<14] yes=11,no=12,missing=11
				11:leaf=0.0436419956
				12:leaf=-0.0551532283
		6:[ompk36_248<5] yes=9,no=10,missing=9
			9:[ompk36_349<10] yes=13,no=14,missing=13
				13:[ompk37_374<14] yes=15,no=16,missing=15
					15:leaf=-0.0844287947
					16:leaf=-0.0508739166
				14:[ompk36_342<13] yes=17,no=18,missing=17
					17:leaf=0.0376350023
					18:leaf=-0.0459073633
			10:leaf=-0.0905877724
booster[47]:
0:[ompk37_259<3] yes=1,no=2,missing=1
	1:leaf=0.0156311076
	2:[ompk36_156<16] yes=3,no=4,missing=3
		3:leaf=0.0333308913
		4:[ompk36_215<9] yes=5,no=6,missing=5
			5:[ompk36_347<17] yes=7,no=8,missing=7
				7:[ompk37_264<8] yes=11,no=12,missing=11
					11:leaf=-0.0082358392
					12:leaf=-0.0874369442
				8:[ompk37_229<13] yes=13,no=14,missing=13
					13:leaf=-0.0676209703
					14:leaf=0.101260558
			6:[ompk36_380<9] yes=9,no=10,missing=9
				9:[ompk37_264<8] yes=15,no=16,missing=15
					15:leaf=-0.0806062371
					16:leaf=0.104676858
				10:[ompk37_264<8] yes=17,no=18,missing=17
					17:leaf=-0.00654474599
					18:leaf=-0.0659960061
booster[48]:
0:[ompk35_181<8] yes=1,no=2,missing=1
	1:[ompk37_362<13] yes=3,no=4,missing=3
		3:leaf=-0.0557445176
		4:leaf=0.0930790827
	2:[ompk36_92<7] yes=5,no=6,missing=5
		5:[ompk36_96<21] yes=7,no=8,missing=7
			7:[ompk37_37<14] yes=9,no=10,missing=9
				9:[ompk37_18<10] yes=13,no=14,missing=13
					13:leaf=-0.0736240521
					14:leaf=0.04197108
				10:[ompk35_73<13] yes=15,no=16,missing=15
					15:leaf=-0.0789294168
					16:leaf=-0.100524738
			8:[ompk37_264<8] yes=11,no=12,missing=11
				11:leaf=-0.0665259436
				12:leaf=-0.00561001059
		6:leaf=0.014757744
booster[49]:
0:[ompk37_374<14] yes=1,no=2,missing=1
	1:[ompk36_153<14] yes=3,no=4,missing=3
		3:leaf=-0.089436464
		4:[ompk37_18<10] yes=7,no=8,missing=7
			7:[ompk36_387<14] yes=13,no=14,missing=13
				13:[ompk36_342<13] yes=17,no=18,missing=17
					17:leaf=0.0299168117
					18:leaf=-0.0169569422
				14:[ompk36_253<15] yes=19,no=20,missing=19
					19:leaf=0.164137408
					20:leaf=0.00201647915
			8:leaf=-0.0834580883
	2:[ompk36_198<17] yes=5,no=6,missing=5
		5:[ompk36_347<14] yes=9,no=10,missing=9
			9:leaf=0.0436419956
			10:leaf=-0.0550181232
		6:[ompk36_92<7] yes=11,no=12,missing=11
			11:[ompk36_383<5] yes=15,no=16,missing=15
				15:[ompk36_384<7] yes=21,no=22,missing=21
					21:leaf=-0.0681563765
					22:leaf=0.00659264717
				16:leaf=-0.101769678
			12:leaf=0.0397948958
booster[50]:
0:[ompk36_232<18] yes=1,no=2,missing=1
	1:[ompk35_91<14] yes=3,no=4,missing=3
		3:[ompk37_264<8] yes=7,no=8,missing=7
			7:leaf=-0.0514889844
			8:[ompk37_360<3] yes=13,no=14,missing=13
				13:[ompk35_216<2] yes=21,no=22,missing=21
					21:leaf=-0.057948675
					22:leaf=0.0829923823
				14:[ompk36_378<5] yes=23,no=24,missing=23
					23:leaf=-0.0158876255
					24:leaf=0.0702418312
		4:leaf=-0.0843735263
	2:[ompk37_277<9] yes=5,no=6,missing=5
		5:[ompk36_97<15] yes=9,no=10,missing=9
			9:[ompk36_383<5] yes=15,no=16,missing=15
				15:leaf=-0.0923184827
				16:[ompk36_249<25] yes=25,no=26,missing=25
					25:leaf=-0.083338961
					26:leaf=-0.0359126143
			10:[ompk37_264<8] yes=17,no=18,missing=17
				17:[ompk35_13<15] yes=27,no=28,missing=27
					27:leaf=0.096533373
					28:leaf=-0.0076642856
				18:[ompk36_298<10] yes=29,no=30,missing=29
					29:leaf=0.0228437409
					30:leaf=-0.00374304294
		6:[ompk37_37<14] yes=11,no=12,missing=11
			11:leaf=0.00128997059
			12:[ompk37_209<14] yes=19,no=20,missing=19
				19:leaf=-0.0206331834
				20:leaf=-0.0950917602
booster[51]:
0:[ompk35_91<14] yes=1,no=2,missing=1
	1:[ompk36_253<15] yes=3,no=4,missing=3
		3:[ompk36_198<17] yes=5,no=6,missing=5
			5:[ompk36_383<5] yes=9,no=10,missing=9
				9:leaf=-0.0306621026
				10:[ompk37_229<5] yes=15,no=16,missing=15
					15:leaf=0.0689800233
					16:leaf=0.0251135826
			6:[ompk37_360<3] yes=11,no=12,missing=11
				11:[ompk37_264<8] yes=17,no=18,missing=17
					17:leaf=0.0807929188
					18:leaf=-0.0143087348
				12:leaf=-0.0740239546
		4:[ompk37_37<14] yes=7,no=8,missing=7
			7:leaf=-0.077541247
			8:[ompk36_153<14] yes=13,no=14,missing=13
				13:leaf=-0.0714204609
				14:[ompk35_92<20] yes=19,no=20,missing=19
					19:leaf=-0.0742707476
					20:leaf=0.0572946332
	2:leaf=-0.0900109932
booster[52]:
0:[ompk35_67<14] yes=1,no=2,missing=1
	1:[ompk37_277<9] yes=3,no=4,missing=3
		3:[ompk36_249<15] yes=7,no=8,missing=7
			7:[ompk35_216<2] yes=11,no=12,missing=11
				11:leaf=0.262517482
				12:[ompk36_153<14] yes=19,no=20,missing=19
					19:leaf=0.138715863
					20:leaf=0.032082323
			8:[ompk35_143<20] yes=13,no=14,missing=13
				13:leaf=-0.0669454262
				14:[ompk37_208<8] yes=21,no=22,missing=21
					21:leaf=-0.0592877045
					22:leaf=0.126045004
		4:[ompk36_198<17] yes=9,no=10,missing=9
			9:[ompk36_309<3] yes=15,no=16,missing=15
				15:leaf=-0.0411970615
				16:leaf=0.0283585582
			10:[ompk37_18<10] yes=17,no=18,missing=17
				17:[ompk37_209<14] yes=23,no=24,missing=23
					23:leaf=0.0459461696
					24:leaf=0.133024454
				18:leaf=0.216010675
	2:[ompk37_18<10] yes=5,no=6,missing=5
		5:leaf=0.163643062
		6:leaf=0.00724555133
booster[53]:
0:[ompk35_240<14] yes=1,no=2,missing=1
	1:leaf=0.102970116
	2:[ompk35_2<17] yes=3,no=4,missing=3
		3:[ompk36_383<5] yes=5,no=6,missing=5
			5:[ompk37_209<14] yes=7,no=8,missing=7
				7:leaf=-0.0206331834
				8:[ompk36_378<5] yes=9,no=10,missing=9
					9:leaf=-0.0653914362
					10:leaf=-0.0882138535
			6:leaf=-0.0999128893
		4:leaf=0.0260078143
booster[54]:
0:[ompk36_387<14] yes=1,no=2,missing=1
	1:[ompk36_153<14] yes=3,no=4,missing=3
		3:[ompk35_73<16] yes=7,no=8,missing=7
			7:[ompk37_18<10] yes=15,no=16,missing=15
				15:[ompk36_206<20] yes=27,no=28,missing=27
					27:leaf=0.250537008
					28:leaf=0.12492007
				16:leaf=0.0300898608
			8:[ompk36_206<20] yes=17,no=18,missing=17
				17:leaf=0.0214782879
				18:leaf=0.0676282495
		4:[ompk36_232<18] yes=9,no=10,missing=9
			9:[ompk37_277<13] yes=19,no=20,missing=19
				19:[ompk36_384<7] yes=29,no=30,missing=29
					29:leaf=0.00242047058
					30:leaf=0.0906628221
				20:leaf=-0.0735956952
			10:[ompk37_367<7] yes=21,no=22,missing=21
				21:[ompk36_249<14] yes=31,no=32,missing=31
					31:leaf=-0.0766130015
					32:leaf=0.0679692477
				22:[ompk36_198<17] yes=33,no=34,missing=33
					33:leaf=-0.041623082
					34:leaf=0.0906503797
	2:[ompk37_277<13] yes=5,no=6,missing=5
		5:[ompk36_129<13] yes=11,no=12,missing=11
			11:leaf=-0.0974580944
			12:[ompk37_264<8] yes=23,no=24,missing=23
				23:leaf=0.00250212289
				24:leaf=-0.0128442617
		6:[ompk35_41<9] yes=13,no=14,missing=13
			13:[ompk36_256<13] yes=25,no=26,missing=25
				25:leaf=-0.0763421282
				26:[ompk36_97<15] yes=35,no=36,missing=35
					35:leaf=0.105377309
					36:leaf=-0.0580369495
			14:leaf=0.156196281
booster[55]:
0:[ompk36_298<10] yes=1,no=2,missing=1
	1:[ompk37_277<9] yes=3,no=4,missing=3
		3:leaf=-0.0486486107
		4:leaf=-0.0865628645
	2:leaf=-0.103898756
booster[56]:
0:[ompk35_91<14] yes=1,no=2,missing=1
	1:[ompk37_208<8] yes=3,no=4,missing=3
		3:leaf=0.167916089
		4:[ompk36_253<11] yes=5,no=6,missing=5
			5:[ompk36_203<6] yes=7,no=8,missing=7
				7:[ompk35_49<7] yes=11,no=12,missing=11
					11:leaf=0.0167312808
					12:leaf=-0.0595544092
				8:leaf=0.215113029
			6:[ompk36_255<12] yes=9,no=10,missing=9
				9:[ompk36_198<17] yes=13,no=14,missing=13
					13:leaf=0.00754596619
					14:leaf=-0.0451476537
				10:[ompk36_378<5] yes=15,no=16,missing=15
					15:leaf=0.025506584
					16:leaf=-0.0187744088
	2:leaf=-0.0983690843
booster[57]:
0:[ompk36_254<22] yes=1,no=2,missing=1
	1:[ompk36_349<10] yes=3,no=4,missing=3
		3:leaf=-0.025334036
		4:leaf=0.0738025233
	2:[ompk36_198<17] yes=5,no=6,missing=5
		5:[ompk37_229<5] yes=7,no=8,missing=7
			7:leaf=-0.0923968703
			8:[ompk36_347<14] yes=11,no=12,missing=11
				11:leaf=0.0365253203
				12:leaf=-0.0537506603
		6:[ompk36_340<10] yes=9,no=10,missing=9
			9:leaf=-0.100996256
			10:[ompk36_95<4] yes=13,no=14,missing=13
				13:[ompk35_91<14] yes=15,no=16,missing=15
					15:leaf=-0.0694633275
					16:leaf=-0.0978609398
				14:leaf=0.040466845
booster[58]:
0:[ompk35_91<14] yes=1,no=2,missing=1
	1:[ompk37_259<3] yes=3,no=4,missing=3
		3:leaf=0.0209063776
		4:[ompk37_264<8] yes=5,no=6,missing=5
			5:[ompk36_384<7] yes=7,no=8,missing=7
				7:leaf=0.042888429
				8:[ompk35_13<15] yes=11,no=12,missing=11
					11:leaf=-0.0823503956
					12:leaf=-0.00139346241
			6:[ompk36_249<5] yes=9,no=10,missing=9
				9:[ompk37_365<9] yes=13,no=14,missing=13
					13:leaf=-0.0473709702
					14:leaf=-0.0999628901
				10:[ompk36_380<9] yes=15,no=16,missing=15
					15:leaf=0.083956264
					16:leaf=-0.0603263192
	2:leaf=-0.0993000641
booster[59]:
0:[ompk35_181<8] yes=1,no=2,missing=1
	1:[ompk36_97<15] yes=3,no=4,missing=3
		3:leaf=0.00856596697
		4:leaf=0.0440349914
	2:[ompk36_92<7] yes=5,no=6,missing=5
		5:[ompk36_96<21] yes=7,no=8,missing=7
			7:[ompk37_37<14] yes=9,no=10,missing=9
				9:[ompk36_232<18] yes=13,no=14,missing=13
					13:leaf=0.0416436642
					14:leaf=-0.0709969625
				10:[ompk35_73<13] yes=15,no=16,missing=15
					15:leaf=-0.075990662
					16:leaf=-0.0991728678
			8:[ompk37_264<8] yes=11,no=12,missing=11
				11:leaf=-0.0642617941
				12:leaf=-0.00456638401
		6:leaf=0.0150946379
booster[60]:
0:[ompk37_277<9] yes=1,no=2,missing=1
	1:[ompk35_91<14] yes=3,no=4,missing=3
		3:[ompk37_18<10] yes=7,no=8,missing=7
			7:[ompk36_380<9] yes=13,no=14,missing=13
				13:[ompk36_298<10] yes=17,no=18,missing=17
					17:leaf=-0.0183791574
					18:leaf=-0.0487504378
				14:[ompk36_216<8] yes=19,no=20,missing=19
					19:leaf=0.0952575132
					20:leaf=0.0208022818
			8:leaf=-0.0841181949
		4:leaf=-0.0883070752
	2:[ompk36_198<17] yes=5,no=6,missing=5
		5:[ompk36_347<14] yes=9,no=10,missing=9
			9:leaf=0.0365253203
			10:leaf=-0.0614079498
		6:[ompk36_92<7] yes=11,no=12,missing=11
			11:[ompk36_383<5] yes=15,no=16,missing=15
				15:[ompk36_384<7] yes=21,no=22,missing=21
					21:leaf=-0.0648031831
					22:leaf=0.0329094417
				16:leaf=-0.100600898
			12:leaf=0.0381879173
booster[61]:
0:[ompk36_232<18] yes=1,no=2,missing=1
	1:[ompk36_153<14] yes=3,no=4,missing=3
		3:leaf=-0.0815463737
		4:[ompk36_281<16] yes=7,no=8,missing=7
			7:[ompk37_264<8] yes=13,no=14,missing=13
				13:[ompk36_378<5] yes=23,no=24,missing=23
					23:leaf=-0.0554141104
					24:leaf=-0.0108567523
				14:[ompk35_91<14] yes=25,no=26,missing=25
					25:leaf=0.0292476453
					26:leaf=-0.0545171089
			8:[ompk36_387<14] yes=15,no=16,missing=15
				15:[ompk36_207<20] yes=27,no=28,missing=27
					27:leaf=0.0194438286
					28:leaf=0.127334461
				16:[ompk37_322<9] yes=29,no=30,missing=29
					29:leaf=0.077319093
					30:leaf=-0.0783372
	2:[ompk37_277<9] yes=5,no=6,missing=5
		5:[ompk36_97<15] yes=9,no=10,missing=9
			9:[ompk36_383<5] yes=17,no=18,missing=17
				17:leaf=-0.0904664025
				18:[ompk36_249<25] yes=31,no=32,missing=31
					31:leaf=-0.0812542364
					32:leaf=-0.0324376486
			10:[ompk37_264<8] yes=19,no=20,missing=19
				19:[ompk35_13<15] yes=33,no=34,missing=33
					33:leaf=0.0857966319
					34:leaf=-0.00624312181
				20:[ompk36_298<10] yes=35,no=36,missing=35
					35:leaf=0.0185833722
					36:leaf=-0.00301988609
		6:[ompk37_37<14] yes=11,no=12,missing=11
			11:leaf=0.0033829168
			12:[ompk37_209<14] yes=21,no=22,missing=21
				21:leaf=-0.0196459461
				22:leaf=-0.0931797549
booster[62]:
0:[ompk35_91<14] yes=1,no=2,missing=1
	1:[ompk36_253<15] yes=3,no=4,missing=3
		3:[ompk36_198<17] yes=5,no=6,missing=5
			5:[ompk36_383<5] yes=9,no=10,missing=9
				9:leaf=-0.0277552605
				10:[ompk37_229<5] yes=15,no=16,missing=15
					15:leaf=0.0619440265
					16:leaf=0.0209631883
			6:[ompk37_360<3] yes=11,no=12,missing=11
				11:[ompk37_264<8] yes=17,no=18,missing=17
					17:leaf=0.0725760087
					18:leaf=-0.0120301703
				12:leaf=-0.0706209987
		4:[ompk37_37<14] yes=7,no=8,missing=7
			7:leaf=-0.0753906891
			8:[ompk37_209<14] yes=13,no=14,missing=13
				13:leaf=0.136283025
				14:[ompk37_277<9] yes=19,no=20,missing=19
					19:leaf=0.0565907061
					20:leaf=0.0146302404
	2:leaf=-0.0875362679
booster[63]:
0:[ompk35_67<14] yes=1,no=2,missing=1
	1:[ompk37_208<16] yes=3,no=4,missing=3
		3:leaf=-0.0694299266
		4:[ompk36_253<11] yes=7,no=8,missing=7
			7:[ompk35_216<2] yes=11,no=12,missing=11
				11:leaf=0.183469012
				12:[ompk36_387<14] yes=19,no=20,missing=19
					19:leaf=-0.0857432857
					20:leaf=-0.0208809748
			8:[ompk37_18<10] yes=13,no=14,missing=13
				13:[ompk36_232<18] yes=21,no=22,missing=21
					21:leaf=0.0646693334
					22:leaf=0.0953424796
				14:[ompk36_349<10] yes=23,no=24,missing=23
					23:leaf=0.193607092
					24:leaf=0.0975679234
	2:[ompk37_18<10] yes=5,no=6,missing=5
		5:[ompk35_24<16] yes=9,no=10,missing=9
			9:[ompk36_243<16] yes=15,no=16,missing=15
				15:leaf=0.144193351
				16:leaf=0.068746984
			10:[ompk37_229<15] yes=17,no=18,missing=17
				17:leaf=0.158172622
				18:leaf=-0.0257336888
		6:leaf=0.00409937417
booster[64]:
0:[ompk35_240<14] yes=1,no=2,missing=1
	1:leaf=0.0905966982
	2:[ompk35_2<17] yes=3,no=4,missing=3
		3:[ompk36_383<5] yes=5,no=6,missing=5
			5:[ompk37_361<14] yes=7,no=8,missing=7
				7:[ompk36_249<16] yes=9,no=10,missing=9
					9:leaf=-0.0942733511
					10:leaf=-0.0322400741
				8:[ompk36_215<9] yes=11,no=12,missing=11
					11:leaf=-0.0801604316
					12:leaf=0.0125553729
			6:leaf=-0.0985453948
		4:leaf=0.0262914747
booster[65]:
0:[ompk36_387<14] yes=1,no=2,missing=1
	1:[ompk36_153<14] yes=3,no=4,missing=3
		3:[ompk35_73<16] yes=7,no=8,missing=7
			7:[ompk37_18<10] yes=15,no=16,missing=15
				15:[ompk36_247<13] yes=27,no=28,missing=27
					27:leaf=0.270831585
					28:leaf=0.141430125
				16:leaf=0.0278710555
			8:[ompk36_206<20] yes=17,no=18,missing=17
				17:leaf=0.0219375305
				18:leaf=0.0618664101
		4:[ompk36_232<18] yes=9,no=10,missing=9
			9:[ompk37_277<13] yes=19,no=20,missing=19
				19:[ompk36_384<7] yes=29,no=30,missing=29
					29:leaf=0.00218982599
					30:leaf=0.0770865902
				20:leaf=-0.0707349926
			10:[ompk37_367<7] yes=21,no=22,missing=21
				21:[ompk36_249<14] yes=31,no=32,missing=31
					31:leaf=-0.0744169876
					32:leaf=0.0589979552
				22:[ompk36_146<16] yes=33,no=34,missing=33
					33:leaf=-0.0773205012
					34:leaf=0.0773431733
	2:[ompk37_277<13] yes=5,no=6,missing=5
		5:[ompk36_129<13] yes=11,no=12,missing=11
			11:leaf=-0.0957340673
			12:[ompk37_264<8] yes=23,no=24,missing=23
				23:leaf=0.00330622168
				24:leaf=-0.011347454
		6:[ompk35_41<9] yes=13,no=14,missing=13
			13:[ompk36_256<13] yes=25,no=26,missing=25
				25:leaf=-0.0741414279
				26:[ompk36_97<15] yes=35,no=36,missing=35
					35:leaf=0.0928441435
					36:leaf=-0.055826176
			14:leaf=0.137315467
booster[66]:
0:[ompk36_298<10] yes=1,no=2,missing=1
	1:[ompk37_277<9] yes=3,no=4,missing=3
		3:leaf=-0.0457707457
		4:leaf=-0.0842792168
	2:leaf=-0.103139654
booster[67]:
0:[ompk35_91<14] yes=1,no=2,missing=1
	1:[ompk37_208<8] yes=3,no=4,missing=3
		3:leaf=0.145032495
		4:[ompk36_243<5] yes=5,no=6,missing=5
			5:[ompk36_198<17] yes=7,no=8,missing=7
				7:[ompk37_229<15] yes=11,no=12,missing=11
					11:leaf=-0.0670033023
					12:leaf=0.0608502887
				8:[ompk37_373<3] yes=13,no=14,missing=13
					13:leaf=-0.0233225841
					14:leaf=-0.0977268443
			6:[ompk37_374<14] yes=9,no=10,missing=9
				9:[ompk36_378<5] yes=15,no=16,missing=15
					15:leaf=0.0517821126
					16:leaf=-0.00179081748
				10:[ompk36_214<16] yes=17,no=18,missing=17
					17:leaf=-0.0384295918
					18:leaf=0.0354543254
	2:leaf=-0.0970747694
booster[68]:
0:[ompk36_254<22] yes=1,no=2,missing=1
	1:[ompk36_349<10] yes=3,no=4,missing=3
		3:leaf=-0.0239868816
		4:leaf=0.0652157068
	2:[ompk36_198<17] yes=5,no=6,missing=5
		5:[ompk37_229<5] yes=7,no=8,missing=7
			7:leaf=-0.0906485245
			8:leaf=0.0174038503
		6:[ompk36_340<10] yes=9,no=10,missing=9
			9:leaf=-0.0999173149
			10:[ompk36_95<4] yes=11,no=12,missing=11
				11:[ompk35_91<14] yes=13,no=14,missing=13
					13:leaf=-0.066223532
					14:leaf=-0.0964635536
				12:leaf=0.0384613499
booster[69]:
0:[ompk35_91<14] yes=1,no=2,missing=1
	1:[ompk37_259<3] yes=3,no=4,missing=3
		3:leaf=0.0192361325
		4:[ompk37_264<8] yes=5,no=6,missing=5
			5:[ompk36_384<7] yes=7,no=8,missing=7
				7:[ompk36_206<20] yes=11,no=12,missing=11
					11:leaf=0.0457578078
					12:leaf=0.0142811416
				8:[ompk35_13<15] yes=13,no=14,missing=13
					13:leaf=-0.0803873613
					14:leaf=-0.000437660667
			6:[ompk36_249<5] yes=9,no=10,missing=9
				9:[ompk37_365<9] yes=15,no=16,missing=15
					15:leaf=-0.0444974005
					16:leaf=-0.0987560973
				10:[ompk36_380<9] yes=17,no=18,missing=17
					17:leaf=0.0761539117
					18:leaf=-0.0568704605
	2:leaf=-0.0979856774
booster[70]:
0:[ompk35_181<8] yes=1,no=2,missing=1
	1:[ompk37_18<10] yes=3,no=4,missing=3
		3:leaf=-0.0553323627
		4:leaf=0.0834703147
	2:[ompk36_92<7] yes=5,no=6,missing=5
		5:[ompk36_96<21] yes=7,no=8,missing=7
			7:[ompk36_248<5] yes=9,no=10,missing=9
				9:[ompk36_309<3] yes=13,no=14,missing=13
					13:leaf=-0.0722011924
					14:leaf=0.0314647742
				10:leaf=-0.0823918581
			8:[ompk37_264<8] yes=11,no=12,missing=11
				11:leaf=-0.0621023737
				12:leaf=-0.0035596122
		6:leaf=0.0152012156
booster[71]:
0:[ompk37_374<14] yes=1,no=2,missing=1
	1:[ompk35_91<14] yes=3,no=4,missing=3
		3:[ompk37_18<10] yes=7,no=8,missing=7
			7:[ompk36_97<15] yes=11,no=12,missing=11
				11:[ompk36_387<14] yes=15,no=16,missing=15
					15:leaf=0.00750099961
					16:leaf=0.0847101435
				12:[ompk37_264<8] yes=17,no=18,missing=17
					17:leaf=0.0202422496
					18:leaf=-0.0324991159
			8:leaf=-0.0820992142
		4:leaf=-0.0860942081
	2:[ompk36_198<17] yes=5,no=6,missing=5
		5:leaf=0.0175733101
		6:[ompk36_96<21] yes=9,no=10,missing=9
			9:[ompk36_383<5] yes=13,no=14,missing=13
				13:[ompk36_384<7] yes=19,no=20,missing=19
					19:leaf=-0.061260771
					20:leaf=0.00869910605
				14:leaf=-0.0995181426
			10:leaf=0.0369148813
booster[72]:
0:[ompk36_232<18] yes=1,no=2,missing=1
	1:[ompk35_91<14] yes=3,no=4,missing=3
		3:[ompk37_264<8] yes=7,no=8,missing=7
			7:leaf=-0.0474706441
			8:[ompk36_281<16] yes=13,no=14,missing=13
				13:[ompk37_323<11] yes=21,no=22,missing=21
					21:leaf=0.0343067199
					22:leaf=-0.00214649504
				14:[ompk36_253<11] yes=23,no=24,missing=23
					23:leaf=0.0222686976
					24:leaf=0.091600135
		4:leaf=-0.0803274885
	2:[ompk37_277<9] yes=5,no=6,missing=5
		5:[ompk36_97<15] yes=9,no=10,missing=9
			9:[ompk36_383<5] yes=15,no=16,missing=15
				15:leaf=-0.0885450095
				16:[ompk36_249<25] yes=25,no=26,missing=25
					25:leaf=-0.0792766288
					26:leaf=-0.029217422
			10:[ompk36_95<4] yes=17,no=18,missing=17
				17:[ompk35_13<15] yes=27,no=28,missing=27
					27:leaf=0.0482570007
					28:leaf=-0.00496145571
				18:[ompk36_298<10] yes=29,no=30,missing=29
					29:leaf=0.0176514033
					30:leaf=-0.0570189171
		6:[ompk37_37<14] yes=11,no=12,missing=11
			11:leaf=0.00485494873
			12:[ompk37_209<14] yes=19,no=20,missing=19
				19:leaf=-0.0173883047
				20:leaf=-0.0913145468
booster[73]:
0:[ompk35_91<14] yes=1,no=2,missing=1
	1:[ompk36_253<15] yes=3,no=4,missing=3
		3:[ompk36_198<17] yes=5,no=6,missing=5
			5:[ompk36_383<5] yes=9,no=10,missing=9
				9:leaf=-0.0245478451
				10:[ompk37_229<5] yes=15,no=16,missing=15
					15:leaf=0.054523509
					16:leaf=0.0191178732
			6:[ompk37_360<3] yes=11,no=12,missing=11
				11:[ompk37_18<10] yes=17,no=18,missing=17
					17:leaf=-0.0109245963
					18:leaf=0.0704971775
				12:leaf=-0.067350544
		4:[ompk36_153<14] yes=7,no=8,missing=7
			7:leaf=-0.0722539276
			8:[ompk35_92<20] yes=13,no=14,missing=13
				13:leaf=-0.0738104656
				14:[ompk37_37<14] yes=19,no=20,missing=19
					19:leaf=-0.070132032
					20:leaf=0.0436105542
	2:leaf=-0.0851080865
booster[74]:
0:[ompk35_67<14] yes=1,no=2,missing=1
	1:[ompk37_277<9] yes=3,no=4,missing=3
		3:[ompk36_137<15] yes=7,no=8,missing=7
			7:leaf=0.195125863
			8:[ompk36_198<17] yes=13,no=14,missing=13
				13:[ompk36_383<5] yes=23,no=24,missing=23
					23:leaf=0.133064076
					24:leaf=-0.00139110803
				14:[ompk35_216<2] yes=25,no=26,missing=25
					25:leaf=0.194093853
					26:leaf=0.0430145599
		4:[ompk36_198<17] yes=9,no=10,missing=9
			9:[ompk36_309<3] yes=15,no=16,missing=15
				15:leaf=-0.0457022637
				16:leaf=0.014032796
			10:[ompk37_18<10] yes=17,no=18,missing=17
				17:[ompk36_232<18] yes=27,no=28,missing=27
					27:leaf=0.0526716821
					28:leaf=0.0970695242
				18:leaf=0.153774545
	2:[ompk37_18<10] yes=5,no=6,missing=5
		5:[ompk35_24<16] yes=11,no=12,missing=11
			11:[ompk36_243<16] yes=19,no=20,missing=19
				19:[ompk36_99<17] yes=29,no=30,missing=29
					29:leaf=0.123972453
					30:leaf=0.0438311957
				20:leaf=0.0596215129
			12:[ompk37_229<15] yes=21,no=22,missing=21
				21:leaf=0.136385515
				22:leaf=-0.0261100139
		6:leaf=0.00111520709
booster[75]:
0:[ompk35_240<14] yes=1,no=2,missing=1
	1:leaf=0.0834898353
	2:[ompk35_2<17] yes=3,no=4,missing=3
		3:[ompk36_383<5] yes=5,no=6,missing=5
			5:[ompk37_361<14] yes=7,no=8,missing=7
				7:[ompk36_249<16] yes=9,no=10,missing=9
					9:leaf=-0.09252657
					10:leaf=-0.0290638544
				8:[ompk36_215<9] yes=11,no=12,missing=11
					11:leaf=-0.0773176178
					12:leaf=0.0112735936
			6:leaf=-0.0972203389
		4:leaf=0.027032366
booster[76]:
0:[ompk36_387<14] yes=1,no=2,missing=1
	1:[ompk36_154<16] yes=3,no=4,missing=3
		3:[ompk35_73<16] yes=7,no=8,missing=7
			7:[ompk36_383<5] yes=15,no=16,missing=15
				15:[ompk37_37<14] yes=29,no=30,missing=29
					29:leaf=0.0221792143
					30:leaf=0.182557344
				16:[ompk35_78<20] yes=31,no=32,missing=31
					31:leaf=0.0464471392
					32:leaf=0.205078319
			8:[ompk37_18<10] yes=17,no=18,missing=17
				17:[ompk36_383<5] yes=33,no=34,missing=33
					33:leaf=-0.00141720474
					34:leaf=0.015501203
				18:leaf=0.127177015
		4:[ompk36_232<18] yes=9,no=10,missing=9
			9:[ompk37_277<13] yes=19,no=20,missing=19
				19:[ompk37_18<10] yes=35,no=36,missing=35
					35:leaf=0.031394802
					36:leaf=-0.0641562268
				20:leaf=-0.0681404248
			10:[ompk37_367<7] yes=21,no=22,missing=21
				21:[ompk36_249<14] yes=37,no=38,missing=37
					37:leaf=-0.0744445845
					38:leaf=0.0521400981
				22:[ompk36_198<17] yes=39,no=40,missing=39
					39:leaf=-0.0435938686
					40:leaf=0.0707966909
	2:[ompk37_277<13] yes=5,no=6,missing=5
		5:[ompk36_129<13] yes=11,no=12,missing=11
			11:leaf=-0.0941379368
			12:[ompk37_264<8] yes=23,no=24,missing=23
				23:leaf=0.00397624774
				24:leaf=-0.00944574829
		6:[ompk36_253<24] yes=13,no=14,missing=13
			13:[ompk36_253<15] yes=25,no=26,missing=25
				25:leaf=0.0196198132
				26:leaf=0.130547509
			14:[ompk36_141<20] yes=27,no=28,missing=27
				27:leaf=-0.068187125
				28:leaf=0.0297471341
booster[77]:
0:[ompk36_298<10] yes=1,no=2,missing=1
	1:[ompk37_277<9] yes=3,no=4,missing=3
		3:leaf=-0.0434460007
		4:leaf=-0.0817345157
	2:leaf=-0.102445759
booster[78]:
0:[ompk35_91<14] yes=1,no=2,missing=1
	1:[ompk37_208<8] yes=3,no=4,missing=3
		3:leaf=0.128345415
		4:[ompk36_243<5] yes=5,no=6,missing=5
			5:[ompk36_383<5] yes=7,no=8,missing=7
				7:leaf=-0.0943890288
				8:[ompk36_198<17] yes=11,no=12,missing=11
					11:leaf=0.0403338782
					12:leaf=-0.0509235971
			6:[ompk37_374<14] yes=9,no=10,missing=9
				9:[ompk36_378<5] yes=13,no=14,missing=13
					13:leaf=0.0454450957
					14:leaf=-0.00150417257
				10:[ompk36_214<16] yes=15,no=16,missing=15
					15:leaf=-0.0349611267
					16:leaf=0.0339096822
	2:leaf=-0.0957498029
booster[79]:
0:[ompk36_254<22] yes=1,no=2,missing=1
	1:[ompk36_349<10] yes=3,no=4,missing=3
		3:leaf=-0.022042444
		4:leaf=0.0587174073
	2:[ompk36_198<17] yes=5,no=6,missing=5
		5:[ompk37_229<5] yes=7,no=8,missing=7
			7:leaf=-0.088779889
			8:leaf=0.0138748912
		6:[ompk36_340<10] yes=9,no=10,missing=9
			9:leaf=-0.0988474861
			10:[ompk36_380<9] yes=11,no=12,missing=11
				11:[ompk36_153<14] yes=13,no=14,missing=13
					13:leaf=-0.0541463085
					14:leaf=0.0352524668
				12:[ompk35_91<14] yes=15,no=16,missing=15
					15:leaf=-0.0656062514
					16:leaf=-0.0947034284
booster[80]:
0:[ompk35_91<14] yes=1,no=2,missing=1
	1:[ompk36_248<5] yes=3,no=4,missing=3
		3:[ompk36_387<14] yes=5,no=6,missing=5
			5:[ompk36_281<16] yes=9,no=10,missing=9
				9:[ompk36_384<7] yes=15,no=16,missing=15
					15:leaf=-0.0335358419
					16:leaf=-0.0744860992
				10:[ompk35_49<7] yes=17,no=18,missing=17
					17:leaf=0.10466712
					18:leaf=0.0308999624
			6:leaf=-0.0856982023
		4:[ompk37_264<8] yes=7,no=8,missing=7
			7:[ompk36_309<3] yes=11,no=12,missing=11
				11:leaf=0.0408243239
				12:leaf=-0.023760194
			8:[ompk36_198<17] yes=13,no=14,missing=13
				13:[ompk37_229<15] yes=19,no=20,missing=19
					19:leaf=-0.0888992175
					20:leaf=0.0709634274
				14:[ompk36_96<20] yes=21,no=22,missing=21
					21:leaf=-0.0823423937
					22:leaf=-0.00631111814
	2:leaf=-0.0966576561
booster[81]:
0:[ompk35_181<8] yes=1,no=2,missing=1
	1:[ompk36_97<15] yes=3,no=4,missing=3
		3:leaf=0.00458416203
		4:leaf=0.043541465
	2:[ompk36_92<7] yes=5,no=6,missing=5
		5:[ompk36_96<21] yes=7,no=8,missing=7
			7:[ompk35_73<13] yes=9,no=10,missing=9
				9:[ompk36_248<5] yes=13,no=14,missing=13
					13:leaf=-0.0481590666
					14:leaf=-0.074756816
				10:leaf=-0.0968714282
			8:[ompk37_264<8] yes=11,no=12,missing=11
				11:leaf=-0.0602871887
				12:leaf=-0.00282447389
		6:leaf=0.0157687571
booster[82]:
0:[ompk37_374<14] yes=1,no=2,missing=1
	1:[ompk36_153<14] yes=3,no=4,missing=3
		3:leaf=-0.0847216025
		4:[ompk37_264<8] yes=7,no=8,missing=7
			7:[ompk36_198<17] yes=11,no=12,missing=11
				11:leaf=0.190345943
				12:[ompk36_384<7] yes=17,no=18,missing=17
					17:leaf=0.0459616855
					18:leaf=-0.02127227
			8:[ompk36_248<5] yes=13,no=14,missing=13
				13:[ompk37_18<10] yes=19,no=20,missing=19
					19:leaf=0.0351781994
					20:leaf=-0.0605765358
				14:[ompk35_73<13] yes=21,no=22,missing=21
					21:leaf=-0.0121548995
					22:leaf=-0.0664933026
	2:[ompk36_198<17] yes=5,no=6,missing=5
		5:leaf=0.0140208816
		6:[ompk36_92<7] yes=9,no=10,missing=9
			9:[ompk36_383<5] yes=15,no=16,missing=15
				15:[ompk37_209<14] yes=23,no=24,missing=23
					23:leaf=0.00867715385
					24:leaf=-0.0577673316
				16:leaf=-0.0984371006
			10:leaf=0.0368727967
booster[83]:
0:[ompk36_232<18] yes=1,no=2,missing=1
	1:[ompk36_153<14] yes=3,no=4,missing=3
		3:leaf=-0.0777571499
		4:[ompk35_91<14] yes=7,no=8,missing=7
			7:[ompk37_264<8] yes=13,no=14,missing=13
				13:[ompk36_380<9] yes=21,no=22,missing=21
					21:leaf=-0.00717123551
					22:leaf=-0.0603695475
				14:[ompk37_360<3] yes=23,no=24,missing=23
					23:leaf=0.0546874516
					24:leaf=0.00391420862
			8:leaf=-0.0640906245
	2:[ompk37_277<9] yes=5,no=6,missing=5
		5:[ompk36_97<15] yes=9,no=10,missing=9
			9:[ompk36_383<5] yes=15,no=16,missing=15
				15:leaf=-0.0864677951
				16:[ompk36_249<25] yes=25,no=26,missing=25
					25:leaf=-0.0771655962
					26:leaf=-0.0271367189
			10:[ompk37_264<8] yes=17,no=18,missing=17
				17:[ompk35_13<15] yes=27,no=28,missing=27
					27:leaf=0.0748530403
					28:leaf=-0.00443078252
				18:[ompk36_298<10] yes=29,no=30,missing=29
					29:leaf=0.014148253
					30:leaf=-0.00420098053
		6:[ompk37_37<14] yes=11,no=12,missing=11
			11:leaf=0.00654530991
			12:[ompk37_209<14] yes=19,no=20,missing=19
				19:leaf=-0.0155343758
				20:leaf=-0.0893577859
booster[84]:
0:[ompk35_91<14] yes=1,no=2,missing=1
	1:[ompk36_153<14] yes=3,no=4,missing=3
		3:leaf=-0.0862035528
		4:[ompk36_249<25] yes=5,no=6,missing=5
			5:[ompk35_182<14] yes=7,no=8,missing=7
				7:[ompk35_49<7] yes=11,no=12,missing=11
					11:leaf=-0.0798307583
					12:leaf=0.0359340906
				8:[ompk37_37<14] yes=13,no=14,missing=13
					13:leaf=-0.0680909157
					14:leaf=0.039047759
			6:[ompk36_198<17] yes=9,no=10,missing=9
				9:[ompk36_383<5] yes=15,no=16,missing=15
					15:leaf=-0.0128834238
					16:leaf=0.0283288844
				10:[ompk37_264<8] yes=17,no=18,missing=17
					17:leaf=0.0669623464
					18:leaf=-0.042716898
	2:leaf=-0.0825416073
booster[85]:
0:[ompk35_67<14] yes=1,no=2,missing=1
	1:[ompk37_208<16] yes=3,no=4,missing=3
		3:leaf=-0.0690269992
		4:[ompk37_37<14] yes=7,no=8,missing=7
			7:[ompk36_383<5] yes=11,no=12,missing=11
				11:leaf=0.148222759
				12:[ompk37_229<13] yes=19,no=20,missing=19
					19:leaf=-0.0752802044
					20:leaf=0.129469767
			8:[ompk35_216<2] yes=13,no=14,missing=13
				13:leaf=0.169726819
				14:[ompk37_87<16] yes=21,no=22,missing=21
					21:leaf=-0.0696107
					22:leaf=0.0649355948
	2:[ompk37_18<10] yes=5,no=6,missing=5
		5:[ompk35_24<16] yes=9,no=10,missing=9
			9:[ompk36_93<13] yes=15,no=16,missing=15
				15:leaf=0.0344289057
				16:[ompk36_243<16] yes=23,no=24,missing=23
					23:leaf=0.107383601
					24:leaf=0.0501458012
			10:[ompk37_229<15] yes=17,no=18,missing=17
				17:[ompk36_383<5] yes=25,no=26,missing=25
					25:leaf=0.0689870939
					26:leaf=0.150480255
				18:leaf=-0.0258114282
		6:leaf=0.000390671979
booster[86]:
0:[ompk35_240<14] yes=1,no=2,missing=1
	1:leaf=0.0750628859
	2:[ompk35_2<17] yes=3,no=4,missing=3
		3:[ompk36_383<5] yes=5,no=6,missing=5
			5:[ompk37_209<14] yes=7,no=8,missing=7
				7:leaf=-0.00747894449
				8:[ompk35_73<20] yes=9,no=10,missing=9
					9:leaf=-0.0712231621
					10:leaf=-0.0188961159
			6:leaf=-0.0959253088
		4:leaf=0.0278659612
booster[87]:
0:[ompk36_154<16] yes=1,no=2,missing=1
	1:[ompk35_73<16] yes=3,no=4,missing=3
		3:[ompk36_93<13] yes=7,no=8,missing=7
			7:leaf=0.187705249
			8:[ompk37_373<3] yes=15,no=16,missing=15
				15:[ompk37_37<14] yes=27,no=28,missing=27
					27:leaf=0.0202964079
					28:leaf=0.141745403
				16:[ompk37_230<14] yes=29,no=30,missing=29
					29:leaf=0.0126538603
					30:leaf=0.0712278187
		4:[ompk37_18<10] yes=9,no=10,missing=9
			9:[ompk36_249<5] yes=17,no=18,missing=17
				17:leaf=0.00769551191
				18:leaf=0.0336621255
			10:leaf=0.112260833
	2:[ompk36_247<13] yes=5,no=6,missing=5
		5:[ompk36_198<17] yes=11,no=12,missing=11
			11:[ompk36_383<5] yes=19,no=20,missing=19
				19:[ompk35_73<20] yes=31,no=32,missing=31
					31:leaf=0.0208238624
					32:leaf=0.0949295089
				20:leaf=-0.0653837621
			12:[ompk37_367<7] yes=21,no=22,missing=21
				21:[ompk36_206<13] yes=33,no=34,missing=33
					33:leaf=0.0547434688
					34:leaf=-0.0722138882
				22:[ompk37_209<14] yes=35,no=36,missing=35
					35:leaf=-0.0343650691
					36:leaf=0.0662758276
		6:[ompk35_41<9] yes=13,no=14,missing=13
			13:[ompk36_380<9] yes=23,no=24,missing=23
				23:[ompk37_264<8] yes=37,no=38,missing=37
					37:leaf=0.0545791499
					38:leaf=-0.0555137061
				24:[ompk35_61<15] yes=39,no=40,missing=39
					39:leaf=-0.0339251943
					40:leaf=0.0570188724
			14:[ompk37_229<15] yes=25,no=26,missing=25
				25:leaf=-0.0639898181
				26:[ompk36_171<12] yes=41,no=42,missing=41
					41:leaf=0.196743309
					42:leaf=0.035731446
booster[88]:
0:[ompk36_298<10] yes=1,no=2,missing=1
	1:[ompk37_277<9] yes=3,no=4,missing=3
		3:leaf=-0.0406062938
		4:leaf=-0.0792894885
	2:leaf=-0.10179621
booster[89]:
0:[ompk35_91<14] yes=1,no=2,missing=1
	1:[ompk37_208<8] yes=3,no=4,missing=3
		3:leaf=0.112310015
		4:[ompk36_243<5] yes=5,no=6,missing=5
			5:[ompk36_383<5] yes=7,no=8,missing=7
				7:leaf=-0.0928859934
				8:[ompk36_198<17] yes=11,no=12,missing=11
					11:leaf=0.0361685008
					12:leaf=-0.0475056916
			6:[ompk37_374<14] yes=9,no=10,missing=9
				9:[ompk35_13<15] yes=13,no=14,missing=13
					13:leaf=0.0224926081
					14:leaf=-0.0698566735
				10:[ompk36_214<16] yes=15,no=16,missing=15
					15:leaf=-0.0317528024
					16:leaf=0.0311531778
	2:leaf=-0.0944345519
booster[90]:
0:[ompk36_254<22] yes=1,no=2,missing=1
	1:[ompk36_349<10] yes=3,no=4,missing=3
		3:leaf=-0.0207630154
		4:leaf=0.0516596138
	2:[ompk36_198<17] yes=5,no=6,missing=5
		5:[ompk37_229<5] yes=7,no=8,missing=7
			7:leaf=-0.0871674716
			8:leaf=0.0133613497
		6:[ompk36_340<10] yes=9,no=10,missing=9
			9:leaf=-0.0978064686
			10:[ompk36_95<4] yes=11,no=12,missing=11
				11:[ompk35_91<14] yes=13,no=14,missing=13
					13:leaf=-0.0599489622
					14:leaf=-0.0936294794
				12:leaf=0.042488724
booster[91]:
0:[ompk35_91<14] yes=1,no=2,missing=1
	1:[ompk36_248<5] yes=3,no=4,missing=3
		3:[ompk36_387<14] yes=5,no=6,missing=5
			5:[ompk36_281<16] yes=9,no=10,missing=9
				9:[ompk37_361<14] yes=15,no=16,missing=15
					15:leaf=-0.0252775755
					16:leaf=-0.0595066957
				10:[ompk36_342<13] yes=17,no=18,missing=17
					17:leaf=0.0355139002
					18:leaf=0.104815617
			6:leaf=-0.0836994648
		4:[ompk37_264<8] yes=7,no=8,missing=7
			7:[ompk36_309<3] yes=11,no=12,missing=11
				11:leaf=0.0384699516
				12:leaf=-0.021612253
			8:[ompk36_198<17] yes=13,no=14,missing=13
				13:[ompk37_229<15] yes=19,no=20,missing=19
					19:leaf=-0.087279439
					20:leaf=0.0627185851
				14:[ompk36_96<20] yes=21,no=22,missing=21
					21:leaf=-0.079892464
					22:leaf=-0.0051709218
	2:leaf=-0.0953421518
booster[92]:
0:[ompk35_181<8] yes=1,no=2,missing=1
	1:[ompk36_255<17] yes=3,no=4,missing=3
		3:leaf=0.0427495502
		4:leaf=0.00356990215
	2:[ompk36_309<3] yes=5,no=6,missing=5
		5:[ompk36_198<17] yes=7,no=8,missing=7
			7:[ompk37_229<15] yes=11,no=12,missing=11
				11:leaf=-0.0857571587
				12:leaf=0.035417188
			8:leaf=-0.0760677308
		6:[ompk36_249<15] yes=9,no=10,missing=9
			9:leaf=0.075700976
			10:[ompk36_96<20] yes=13,no=14,missing=13
				13:leaf=-0.0882539898
				14:[ompk36_84<14] yes=15,no=16,missing=15
					15:leaf=-0.0235994458
					16:leaf=-0.0621221662
booster[93]:
0:[ompk37_277<9] yes=1,no=2,missing=1
	1:[ompk36_153<14] yes=3,no=4,missing=3
		3:leaf=-0.0835704952
		4:[ompk37_18<10] yes=7,no=8,missing=7
			7:[ompk36_387<14] yes=13,no=14,missing=13
				13:[ompk35_91<14] yes=17,no=18,missing=17
					17:leaf=0.00457759667
					18:leaf=-0.0667246431
				14:[ompk36_215<9] yes=19,no=20,missing=19
					19:leaf=0.113048874
					20:leaf=0.00182950555
			8:leaf=-0.0757077783
	2:[ompk36_198<17] yes=5,no=6,missing=5
		5:[ompk36_347<14] yes=9,no=10,missing=9
			9:leaf=0.028663585
			10:leaf=-0.0611567013
		6:[ompk36_96<21] yes=11,no=12,missing=11
			11:[ompk36_383<5] yes=15,no=16,missing=15
				15:[ompk36_384<7] yes=21,no=22,missing=21
					21:leaf=-0.0547309294
					22:leaf=0.039148692
				16:leaf=-0.0974500179
			12:leaf=0.036019966
booster[94]:
0:[ompk36_232<18] yes=1,no=2,missing=1
	1:[ompk36_153<14] yes=3,no=4,missing=3
		3:leaf=-0.0753120556
		4:[ompk37_56<22] yes=7,no=8,missing=7
			7:[ompk37_33<15] yes=13,no=14,missing=13
				13:[ompk36_227<15] yes=21,no=22,missing=21
					21:leaf=0.0163391419
					22:leaf=0.136888549
				14:[ompk35_49<7] yes=23,no=24,missing=23
					23:leaf=-0.0777892694
					24:leaf=0.0180216823
			8:leaf=0.096629627
	2:[ompk37_277<9] yes=5,no=6,missing=5
		5:[ompk36_97<15] yes=9,no=10,missing=9
			9:[ompk36_383<5] yes=15,no=16,missing=15
				15:leaf=-0.0848102644
				16:[ompk36_249<25] yes=25,no=26,missing=25
					25:leaf=-0.0752377734
					26:leaf=-0.0245647803
			10:[ompk36_95<4] yes=17,no=18,missing=17
				17:[ompk35_13<15] yes=27,no=28,missing=27
					27:leaf=0.0434934311
					28:leaf=-0.00398973981
				18:[ompk36_298<10] yes=29,no=30,missing=29
					29:leaf=0.0132601187
					30:leaf=-0.0556522571
		6:[ompk37_37<14] yes=11,no=12,missing=11
			11:leaf=0.00918033626
			12:[ompk37_209<14] yes=19,no=20,missing=19
				19:leaf=-0.0142888725
				20:leaf=-0.087390095
booster[95]:
0:[ompk35_91<14] yes=1,no=2,missing=1
	1:[ompk36_153<14] yes=3,no=4,missing=3
		3:leaf=-0.0842361525
		4:[ompk36_249<25] yes=5,no=6,missing=5
			5:[ompk37_209<14] yes=7,no=8,missing=7
				7:leaf=0.103842691
				8:[ompk37_362<13] yes=11,no=12,missing=11
					11:leaf=0.0414821468
					12:leaf=0.00602513691
			6:[ompk36_198<17] yes=9,no=10,missing=9
				9:[ompk37_322<9] yes=13,no=14,missing=13
					13:leaf=-0.00388015853
					14:leaf=0.0317924432
				10:[ompk37_264<8] yes=15,no=16,missing=15
					15:leaf=0.0614969097
					16:leaf=-0.0394695066
	2:leaf=-0.0799354836
booster[96]:
0:[ompk35_67<14] yes=1,no=2,missing=1
	1:[ompk37_277<9] yes=3,no=4,missing=3
		3:[ompk36_137<15] yes=7,no=8,missing=7
			7:leaf=0.158425733
			8:[ompk36_298<10] yes=13,no=14,missing=13
				13:[ompk37_37<14] yes=23,no=24,missing=23
					23:leaf=0.162649244
					24:leaf=-0.0235263258
				14:[ompk35_181<8] yes=25,no=26,missing=25
					25:leaf=-0.0735093579
					26:leaf=0.0514235981
		4:[ompk36_198<17] yes=9,no=10,missing=9
			9:[ompk36_309<3] yes=15,no=16,missing=15
				15:leaf=-0.0477707796
				16:leaf=0.00674857572
			10:[ompk37_18<10] yes=17,no=18,missing=17
				17:[ompk36_232<18] yes=27,no=28,missing=27
					27:leaf=0.0343483798
					28:leaf=0.0721554086
				18:[ompk36_203<12] yes=29,no=30,missing=29
					29:leaf=0.156743571
					30:leaf=0.0778166577
	2:[ompk37_18<10] yes=5,no=6,missing=5
		5:[ompk37_229<15] yes=11,no=12,missing=11
			11:[ompk36_154<12] yes=19,no=20,missing=19
				19:leaf=0.0216885228
				20:leaf=0.12313398
			12:[ompk35_24<16] yes=21,no=22,missing=21
				21:[ompk36_243<5] yes=31,no=32,missing=31
					31:leaf=0.0928503647
					32:leaf=0.0134971384
				22:leaf=-0.024720991
		6:leaf=0.000119800388
booster[97]:
0:[ompk35_240<14] yes=1,no=2,missing=1
	1:leaf=0.0680073798
	2:[ompk35_2<17] yes=3,no=4,missing=3
		3:[ompk36_383<5] yes=5,no=6,missing=5
			5:[ompk37_361<14] yes=7,no=8,missing=7
				7:[ompk36_249<16] yes=9,no=10,missing=9
					9:leaf=-0.0893464312
					10:leaf=-0.0204851143
				8:[ompk36_215<9] yes=11,no=12,missing=11
					11:leaf=-0.0717920884
					12:leaf=0.017195642
			6:leaf=-0.0946060568
		4:leaf=0.0277037006
booster[98]:
0:[ompk36_154<16] yes=1,no=2,missing=1
	1:[ompk35_73<16] yes=3,no=4,missing=3
		3:[ompk36_93<13] yes=7,no=8,missing=7
			7:leaf=0.16965048
			8:[ompk37_373<3] yes=15,no=16,missing=15
				15:[ompk37_37<14] yes=25,no=26,missing=25
					25:leaf=0.0204405393
					26:leaf=0.120956972
				16:[ompk37_230<14] yes=27,no=28,missing=27
					27:leaf=0.00991945155
					28:leaf=0.0624644123
		4:[ompk37_18<10] yes=9,no=10,missing=9
			9:[ompk36_249<5] yes=17,no=18,missing=17
				17:leaf=0.0101641184
				18:leaf=0.0336621515
			10:leaf=0.0996590629
	2:[ompk36_247<13] yes=5,no=6,missing=5
		5:[ompk37_117<10] yes=11,no=12,missing=11
			11:leaf=0.144407049
			12:[ompk37_367<7] yes=19,no=20,missing=19
				19:[ompk36_206<13] yes=29,no=30,missing=29
					29:leaf=0.0247735679
					30:leaf=-0.0696280524
				20:[ompk36_198<17] yes=31,no=32,missing=31
					31:leaf=-0.0474794842
					32:leaf=0.0553769954
		6:[ompk35_41<9] yes=13,no=14,missing=13
			13:[ompk37_365<9] yes=21,no=22,missing=21
				21:[ompk36_281<16] yes=33,no=34,missing=33
					33:leaf=0.0266069323
					34:leaf=-0.0404861085
				22:[ompk36_141<20] yes=35,no=36,missing=35
					35:leaf=-0.0624982379
					36:leaf=0.010731346
			14:[ompk37_229<15] yes=23,no=24,missing=23
				23:leaf=-0.0604321621
				24:[ompk36_171<12] yes=37,no=38,missing=37
					37:leaf=0.173715636
					38:leaf=0.033033587
booster[99]:
0:[ompk36_298<10] yes=1,no=2,missing=1
	1:[ompk37_277<9] yes=3,no=4,missing=3
		3:leaf=-0.0388256386
		4:leaf=-0.0766728669
	2:leaf=-0.101180606
booster[100]:
0:[ompk35_91<14] yes=1,no=2,missing=1
	1:[ompk37_208<8] yes=3,no=4,missing=3
		3:leaf=0.101753078
		4:[ompk36_154<20] yes=5,no=6,missing=5
			5:leaf=-0.0818594769
			6:[ompk36_253<11] yes=7,no=8,missing=7
				7:[ompk36_203<16] yes=9,no=10,missing=9
					9:leaf=-0.0259884503
					10:leaf=0.237568498
				8:[ompk37_37<14] yes=11,no=12,missing=11
					11:leaf=-0.0773490742
					12:leaf=-0.00589281833
	2:leaf=-0.0930759832
booster[101]:
0:[ompk36_254<22] yes=1,no=2,missing=1
	1:[ompk36_349<10] yes=3,no=4,missing=3
		3:leaf=-0.0188819468
		4:leaf=0.047144141
	2:[ompk36_340<10] yes=5,no=6,missing=5
		5:leaf=-0.0967974588
		6:[ompk36_95<4] yes=7,no=8,missing=7
			7:[ompk35_91<14] yes=9,no=10,missing=9
				9:[ompk37_374<14] yes=11,no=12,missing=11
					11:leaf=-0.0696113408
					12:leaf=-0.028497735
				10:leaf=-0.0928856209
			8:leaf=0.0404721424
booster[102]:
0:[ompk35_91<14] yes=1,no=2,missing=1
	1:[ompk36_146<16] yes=3,no=4,missing=3
		3:leaf=0.0434410982
		4:[ompk36_248<5] yes=5,no=6,missing=5
			5:[ompk36_387<14] yes=7,no=8,missing=7
				7:[ompk36_281<16] yes=11,no=12,missing=11
					11:leaf=-0.0372024141
					12:leaf=0.0729149505
				8:leaf=-0.0817424208
			6:[ompk36_96<20] yes=9,no=10,missing=9
				9:[ompk36_198<17] yes=13,no=14,missing=13
					13:leaf=-0.0193574354
					14:leaf=-0.073679626
				10:[ompk35_13<15] yes=15,no=16,missing=15
					15:leaf=-0.00551750185
					16:leaf=0.00309275067
	2:leaf=-0.0939964727
booster[103]:
0:[ompk35_181<8] yes=1,no=2,missing=1
	1:[ompk36_255<17] yes=3,no=4,missing=3
		3:leaf=0.0404168405
		4:leaf=0.00420462526
	2:[ompk36_92<7] yes=5,no=6,missing=5
		5:[ompk35_73<13] yes=7,no=8,missing=7
			7:[ompk36_96<21] yes=9,no=10,missing=9
				9:[ompk36_248<5] yes=11,no=12,missing=11
					11:leaf=-0.0414376408
					12:leaf=-0.068924278
				10:[ompk37_264<8] yes=13,no=14,missing=13
					13:leaf=-0.0578611903
					14:leaf=0.00110949005
			8:leaf=-0.0946195573
		6:leaf=0.0206665639
booster[104]:
0:[ompk37_374<14] yes=1,no=2,missing=1
	1:[ompk36_153<14] yes=3,no=4,missing=3
		3:leaf=-0.0806569383
		4:[ompk37_264<8] yes=7,no=8,missing=7
			7:[ompk36_198<17] yes=11,no=12,missing=11
				11:leaf=0.159473225
				12:[ompk36_384<7] yes=17,no=18,missing=17
					17:leaf=0.0421252251
					18:leaf=-0.0187439322
			8:[ompk36_248<5] yes=13,no=14,missing=13
				13:[ompk37_18<10] yes=19,no=20,missing=19
					19:leaf=0.0313757919
					20:leaf=-0.0563958846
				14:[ompk36_214<12] yes=21,no=22,missing=21
					21:leaf=-0.0371917672
					22:leaf=-0.00618021144
	2:[ompk36_198<17] yes=5,no=6,missing=5
		5:leaf=0.0112859309
		6:[ompk36_84<14] yes=9,no=10,missing=9
			9:[ompk36_383<5] yes=15,no=16,missing=15
				15:[ompk37_209<14] yes=23,no=24,missing=23
					23:leaf=0.0137305576
					24:leaf=-0.0512728579
				16:leaf=-0.0964380875
			10:leaf=0.0435503758
booster[105]:
0:[ompk36_232<18] yes=1,no=2,missing=1
	1:[ompk35_91<14] yes=3,no=4,missing=3
		3:[ompk37_264<8] yes=7,no=8,missing=7
			7:[ompk36_380<9] yes=13,no=14,missing=13
				13:leaf=-0.0210772827
				14:leaf=-0.0591097251
			8:[ompk37_37<14] yes=15,no=16,missing=15
				15:leaf=-0.0607357807
				16:[ompk37_360<3] yes=23,no=24,missing=23
					23:leaf=0.047751233
					24:leaf=0.000260641129
		4:leaf=-0.0745466277
	2:[ompk37_277<9] yes=5,no=6,missing=5
		5:[ompk36_97<15] yes=9,no=10,missing=9
			9:[ompk36_383<5] yes=17,no=18,missing=17
				17:leaf=-0.0830936357
				18:[ompk36_249<25] yes=25,no=26,missing=25
					25:leaf=-0.0730425045
					26:leaf=-0.022158308
			10:[ompk37_264<8] yes=19,no=20,missing=19
				19:[ompk35_13<15] yes=27,no=28,missing=27
					27:leaf=0.0665586069
					28:leaf=-0.00374527159
				20:[ompk36_298<10] yes=29,no=30,missing=29
					29:leaf=0.010263619
					30:leaf=-0.00488970475
		6:[ompk37_37<14] yes=11,no=12,missing=11
			11:leaf=0.0109419152
			12:[ompk37_209<14] yes=21,no=22,missing=21
				21:leaf=-0.0119407484
				22:leaf=-0.085305728
booster[106]:
0:[ompk35_91<14] yes=1,no=2,missing=1
	1:[ompk36_153<14] yes=3,no=4,missing=3
		3:leaf=-0.0822049081
		4:[ompk36_249<25] yes=5,no=6,missing=5
			5:[ompk37_209<14] yes=7,no=8,missing=7
				7:leaf=0.0906250998
				8:[ompk36_203<6] yes=11,no=12,missing=11
					11:leaf=0.0411792956
					12:leaf=0.00797056686
			6:[ompk36_198<17] yes=9,no=10,missing=9
				9:[ompk36_383<5] yes=13,no=14,missing=13
					13:leaf=-0.0113958362
					14:leaf=0.0237634834
				10:[ompk37_264<8] yes=15,no=16,missing=15
					15:leaf=0.0557458289
					16:leaf=-0.0361118689
	2:leaf=-0.0771989748
booster[107]:
0:[ompk35_67<14] yes=1,no=2,missing=1
	1:[ompk37_208<16] yes=3,no=4,missing=3
		3:leaf=-0.0685833618
		4:[ompk35_216<2] yes=7,no=8,missing=7
			7:leaf=0.142601922
			8:[ompk37_87<16] yes=11,no=12,missing=11
				11:[ompk36_387<14] yes=17,no=18,missing=17
					17:leaf=-0.0879276395
					18:leaf=-0.0240881033
				12:[ompk37_18<10] yes=19,no=20,missing=19
					19:leaf=0.0458706655
					20:leaf=0.0917889699
	2:[ompk37_18<10] yes=5,no=6,missing=5
		5:[ompk37_229<15] yes=9,no=10,missing=9
			9:[ompk36_154<12] yes=13,no=14,missing=13
				13:leaf=0.0170674641
				14:leaf=0.10999272
			10:[ompk35_24<16] yes=15,no=16,missing=15
				15:[ompk36_243<5] yes=21,no=22,missing=21
					21:leaf=0.0816735625
					22:leaf=0.00910831057
				16:leaf=-0.0232105814
		6:leaf=1.07726055e-05
booster[108]:
0:[ompk35_240<14] yes=1,no=2,missing=1
	1:leaf=0.0624534488
	2:[ompk36_383<5] yes=3,no=4,missing=3
		3:[ompk35_73<20] yes=5,no=6,missing=5
			5:[ompk37_209<14] yes=7,no=8,missing=7
				7:leaf=-0.000362102612
				8:[ompk36_378<5] yes=11,no=12,missing=11
					11:leaf=-0.0459173657
					12:leaf=-0.0866433233
			6:[ompk36_249<5] yes=9,no=10,missing=9
				9:leaf=0.118283264
				10:leaf=-0.0694493279
		4:leaf=-0.0933739841
booster[109]:
0:[ompk36_154<16] yes=1,no=2,missing=1
	1:[ompk35_73<16] yes=3,no=4,missing=3
		3:[ompk36_93<13] yes=7,no=8,missing=7
			7:leaf=0.155599296
			8:[ompk37_229<13] yes=15,no=16,missing=15
				15:[ompk36_206<17] yes=27,no=28,missing=27
					27:leaf=0.135142729
					28:leaf=0.0554165803
				16:leaf=0.0481304973
		4:[ompk37_18<10] yes=9,no=10,missing=9
			9:[ompk36_383<5] yes=17,no=18,missing=17
				17:leaf=-0.00129488076
				18:leaf=0.0214789044
			10:leaf=0.088664189
	2:[ompk36_206<20] yes=5,no=6,missing=5
		5:[ompk36_198<17] yes=11,no=12,missing=11
			11:[ompk36_383<5] yes=19,no=20,missing=19
				19:[ompk35_73<20] yes=29,no=30,missing=29
					29:leaf=0.0123772174
					30:leaf=0.0796643645
				20:leaf=-0.0611557253
			12:[ompk37_117<10] yes=21,no=22,missing=21
				21:leaf=0.125972748
				22:[ompk37_367<7] yes=31,no=32,missing=31
					31:leaf=0.00309384894
					32:leaf=0.0500893071
		6:[ompk35_41<9] yes=13,no=14,missing=13
			13:[ompk37_365<9] yes=23,no=24,missing=23
				23:[ompk36_349<10] yes=33,no=34,missing=33
					33:leaf=0.0247355718
					34:leaf=-0.0360364728
				24:[ompk36_141<20] yes=35,no=36,missing=35
					35:leaf=-0.0610697567
					36:leaf=0.0111361714
			14:[ompk36_190<14] yes=25,no=26,missing=25
				25:leaf=0.102056287
				26:leaf=0.014451839
