booster[0]:
0:leaf=-0.104486406
booster[1]:
0:leaf=-0.104486406
booster[2]:
0:leaf=-0.104486406
booster[3]:
0:leaf=-0.104486406
booster[4]:
0:leaf=-0.104486406
booster[5]:
0:leaf=-0.102460645
booster[6]:
0:[ompk36_146<16] yes=1,no=2,missing=1
	1:leaf=0.0168701466
	2:[ompk36_96<21] yes=3,no=4,missing=3
		3:[ompk36_249<25] yes=5,no=6,missing=5
			5:[ompk37_264<8] yes=9,no=10,missing=9
				9:[ompk36_380<9] yes=11,no=12,missing=11
					11:leaf=-0.0797562599
					12:leaf=0.0335435085
				10:leaf=-0.0960801616
			6:leaf=-0.0745907351
		4:[ompk35_13<15] yes=7,no=8,missing=7
			7:leaf=0.00458660349
			8:leaf=-0.0595898703
booster[7]:
0:[ompk36_253<11] yes=1,no=2,missing=1
	1:[ompk36_387<14] yes=3,no=4,missing=3
		3:leaf=0.114595905
		4:leaf=-0.0615028925
	2:[ompk37_374<14] yes=5,no=6,missing=5
		5:[ompk36_203<12] yes=7,no=8,missing=7
			7:[ompk36_380<9] yes=9,no=10,missing=9
				9:[ompk36_153<14] yes=13,no=14,missing=13
					13:leaf=-0.0552179627
					14:leaf=0.00781089533
				10:leaf=-0.086987488
			8:[ompk37_264<8] yes=11,no=12,missing=11
				11:leaf=0.0632747486
				12:[ompk36_141<20] yes=15,no=16,missing=15
					15:leaf=-0.0677408278
					16:leaf=-0.0117223635
		6:leaf=-0.0998499915
booster[8]:
0:[ompk36_281<16] yes=1,no=2,missing=1
	1:[ompk36_206<17] yes=3,no=4,missing=3
		3:leaf=0.220244914
		4:[ompk37_373<3] yes=7,no=8,missing=7
			7:[ompk37_264<8] yes=11,no=12,missing=11
				11:leaf=-0.0797562599
				12:[ompk35_91<14] yes=13,no=14,missing=13
					13:leaf=0.0154757518
					14:leaf=-0.0677898899
			8:leaf=-0.0899959132
	2:[ompk35_181<8] yes=5,no=6,missing=5
		5:leaf=0.0219653193
		6:[ompk36_249<15] yes=9,no=10,missing=9
			9:leaf=-0.102599107
			10:leaf=-0.0706101656
booster[9]:
0:[ompk37_277<9] yes=1,no=2,missing=1
	1:[ompk36_247<25] yes=3,no=4,missing=3
		3:[ompk37_18<10] yes=7,no=8,missing=7
			7:[ompk36_256<2] yes=11,no=12,missing=11
				11:[ompk36_309<3] yes=17,no=18,missing=17
					17:leaf=-0.0456519313
					18:leaf=0.0434285738
				12:[ompk36_96<20] yes=19,no=20,missing=19
					19:leaf=-0.0961071178
					20:leaf=-0.0477737002
			8:[ompk36_248<5] yes=13,no=14,missing=13
				13:leaf=-0.0690909103
				14:leaf=0.230911493
		4:leaf=0.215636835
	2:[ompk36_384<7] yes=5,no=6,missing=5
		5:leaf=-0.103341274
		6:[ompk36_309<3] yes=9,no=10,missing=9
			9:leaf=0.0335435085
			10:[ompk36_141<20] yes=15,no=16,missing=15
				15:leaf=-0.0725065097
				16:leaf=-0.0180808883
booster[10]:
0:[ompk36_198<17] yes=1,no=2,missing=1
	1:[ompk37_229<15] yes=3,no=4,missing=3
		3:[ompk36_383<5] yes=7,no=8,missing=7
			7:leaf=-0.0882112011
			8:leaf=1.02953479e-09
		4:leaf=0.130183101
	2:[ompk37_365<9] yes=5,no=6,missing=5
		5:[ompk36_380<9] yes=9,no=10,missing=9
			9:[ompk36_281<16] yes=13,no=14,missing=13
				13:leaf=-0.0784341618
				14:leaf=0.0079139201
			10:[ompk37_264<8] yes=15,no=16,missing=15
				15:[ompk36_309<3] yes=21,no=22,missing=21
					21:leaf=0.0168701466
					22:leaf=-0.0648879409
				16:[ompk36_96<20] yes=23,no=24,missing=23
					23:leaf=-0.08219634
					24:leaf=-0.0290076323
		6:[ompk36_153<14] yes=11,no=12,missing=11
			11:[ompk35_73<16] yes=17,no=18,missing=17
				17:leaf=0.0391752571
				18:leaf=-0.0815141946
			12:[ompk36_281<16] yes=19,no=20,missing=19
				19:[ompk36_215<9] yes=25,no=26,missing=25
					25:leaf=-0.0744489804
					26:leaf=-0.0211013407
				20:leaf=-0.102792077
booster[11]:
0:[ompk36_232<15] yes=1,no=2,missing=1
	1:[ompk36_387<14] yes=3,no=4,missing=3
		3:leaf=0.0219653193
		4:leaf=0.188901737
	2:[ompk36_281<16] yes=5,no=6,missing=5
		5:[ompk36_153<14] yes=7,no=8,missing=7
			7:leaf=-0.0797562599
			8:[ompk36_215<9] yes=11,no=12,missing=11
				11:leaf=-0.076175794
				12:[ompk36_380<9] yes=15,no=16,missing=15
					15:leaf=-0.0663926005
					16:leaf=0.0543656647
		6:[ompk37_209<14] yes=9,no=10,missing=9
			9:leaf=0.0121664898
			10:[ompk36_298<10] yes=13,no=14,missing=13
				13:leaf=-0.100609995
				14:[ompk36_380<9] yes=17,no=18,missing=17
					17:leaf=0.0275030173
					18:leaf=-0.0659440309
booster[12]:
0:[ompk36_243<5] yes=1,no=2,missing=1
	1:[ompk36_198<17] yes=3,no=4,missing=3
		3:[ompk37_277<13] yes=7,no=8,missing=7
			7:leaf=-0.0916331708
			8:leaf=0.125274733
		4:[ompk37_277<9] yes=9,no=10,missing=9
			9:leaf=-0.0548736453
			10:leaf=-0.0845222995
	2:[ompk37_242<10] yes=5,no=6,missing=5
		5:[ompk36_98<16] yes=11,no=12,missing=11
			11:[ompk36_342<13] yes=15,no=16,missing=15
				15:[ompk37_264<8] yes=19,no=20,missing=19
					19:leaf=-0.0820481181
					20:leaf=-0.00999707542
				16:[ompk36_304<12] yes=21,no=22,missing=21
					21:leaf=-0.0182379149
					22:leaf=0.0904435664
			12:leaf=-0.0859640092
		6:[ompk36_342<13] yes=13,no=14,missing=13
			13:leaf=0.204818293
			14:[ompk36_155<14] yes=17,no=18,missing=17
				17:[ompk35_73<16] yes=23,no=24,missing=23
					23:leaf=0.0169129446
					24:leaf=-0.0690909103
				18:leaf=0.121304654
booster[13]:
0:[ompk36_223<16] yes=1,no=2,missing=1
	1:[ompk35_91<14] yes=3,no=4,missing=3
		3:[ompk36_153<14] yes=7,no=8,missing=7
			7:leaf=-0.0725065097
			8:[ompk36_304<12] yes=15,no=16,missing=15
				15:[ompk37_277<9] yes=21,no=22,missing=21
					21:leaf=0.559105635
					22:leaf=0.249064997
				16:[ompk37_293<16] yes=23,no=24,missing=23
					23:leaf=0.20034714
					24:leaf=0.348345369
		4:[ompk36_154<12] yes=9,no=10,missing=9
			9:leaf=0.0275030173
			10:leaf=-0.0784341618
	2:[ompk35_77<14] yes=5,no=6,missing=5
		5:[ompk36_281<16] yes=11,no=12,missing=11
			11:leaf=-0.0753370374
			12:[ompk36_198<17] yes=17,no=18,missing=17
				17:[ompk36_383<5] yes=25,no=26,missing=25
					25:leaf=0.0330974422
					26:leaf=0.324900836
				18:[ompk36_252<20] yes=27,no=28,missing=27
					27:leaf=0.0530232564
					28:leaf=0.174062416
		6:[ompk35_35<20] yes=13,no=14,missing=13
			13:[ompk36_249<25] yes=19,no=20,missing=19
				19:leaf=-0.0455089808
				20:leaf=-0.00867249724
			14:leaf=-0.0690909103
booster[14]:
0:[ompk35_91<14] yes=1,no=2,missing=1
	1:[ompk35_73<13] yes=3,no=4,missing=3
		3:leaf=1.22938418
		4:leaf=0.604603946
	2:leaf=1.65072882
booster[15]:
0:leaf=-0.104486406
booster[16]:
0:leaf=-0.104486406
booster[17]:
0:leaf=-0.104486406
booster[18]:
0:leaf=-0.104486406
booster[19]:
0:leaf=-0.103358723
booster[20]:
0:leaf=-0.103358723
booster[21]:
0:leaf=-0.103358723
booster[22]:
0:leaf=-0.103358723
booster[23]:
0:leaf=-0.103358723
booster[24]:
0:leaf=-0.100980438
booster[25]:
0:[ompk36_146<16] yes=1,no=2,missing=1
	1:leaf=0.0214718711
	2:[ompk36_96<21] yes=3,no=4,missing=3
		3:[ompk36_249<25] yes=5,no=6,missing=5
			5:[ompk37_264<8] yes=9,no=10,missing=9
				9:[ompk36_380<9] yes=13,no=14,missing=13
					13:leaf=-0.0761708394
					14:leaf=0.0366866775
				10:leaf=-0.0935569182
			6:[ompk36_383<5] yes=11,no=12,missing=11
				11:leaf=-0.0916620418
				12:[ompk37_277<9] yes=15,no=16,missing=15
					15:leaf=-0.0216993801
					16:leaf=-0.0745898634
		4:[ompk37_264<8] yes=7,no=8,missing=7
			7:leaf=-0.0562374964
			8:leaf=0.0104738623
booster[26]:
0:[ompk36_253<11] yes=1,no=2,missing=1
	1:[ompk36_387<14] yes=3,no=4,missing=3
		3:leaf=0.101732768
		4:leaf=-0.0600320473
	2:[ompk37_374<14] yes=5,no=6,missing=5
		5:[ompk36_380<9] yes=7,no=8,missing=7
			7:[ompk36_384<7] yes=11,no=12,missing=11
				11:leaf=0.0211015642
				12:leaf=-0.0748156011
			8:[ompk36_141<20] yes=13,no=14,missing=13
				13:leaf=-0.0838126168
				14:[ompk36_129<13] yes=15,no=16,missing=15
					15:leaf=0.0224256832
					16:leaf=-0.0460069813
		6:[ompk36_232<18] yes=9,no=10,missing=9
			9:leaf=-0.0626761392
			10:leaf=-0.101937018
booster[27]:
0:[ompk36_281<16] yes=1,no=2,missing=1
	1:[ompk36_206<17] yes=3,no=4,missing=3
		3:leaf=0.185541436
		4:[ompk37_373<3] yes=7,no=8,missing=7
			7:[ompk37_264<8] yes=11,no=12,missing=11
				11:leaf=-0.0762295052
				12:[ompk36_153<14] yes=13,no=14,missing=13
					13:leaf=-0.0642240271
					14:leaf=0.0231026188
			8:leaf=-0.0868736133
	2:[ompk35_181<8] yes=5,no=6,missing=5
		5:leaf=0.0224800892
		6:[ompk36_249<15] yes=9,no=10,missing=9
			9:leaf=-0.101179443
			10:leaf=-0.0648802742
booster[28]:
0:[ompk37_277<9] yes=1,no=2,missing=1
	1:[ompk36_247<25] yes=3,no=4,missing=3
		3:[ompk37_18<10] yes=7,no=8,missing=7
			7:[ompk36_256<2] yes=11,no=12,missing=11
				11:[ompk36_309<3] yes=17,no=18,missing=17
					17:leaf=-0.0385934711
					18:leaf=0.0460676514
				12:[ompk36_96<20] yes=19,no=20,missing=19
					19:leaf=-0.0938920453
					20:leaf=-0.04189758
			8:[ompk36_203<8] yes=13,no=14,missing=13
				13:leaf=-0.0695882216
				14:leaf=0.24159877
		4:leaf=0.19801484
	2:[ompk36_384<7] yes=5,no=6,missing=5
		5:leaf=-0.1019959
		6:[ompk36_309<3] yes=9,no=10,missing=9
			9:leaf=0.0373003483
			10:[ompk36_141<20] yes=15,no=16,missing=15
				15:leaf=-0.0684680268
				16:leaf=-0.0120121082
booster[29]:
0:[ompk36_198<17] yes=1,no=2,missing=1
	1:[ompk37_229<15] yes=3,no=4,missing=3
		3:[ompk36_383<5] yes=7,no=8,missing=7
			7:leaf=-0.0853949562
			8:leaf=0.00565737486
		4:leaf=0.122191012
	2:[ompk37_365<9] yes=5,no=6,missing=5
		5:[ompk36_380<9] yes=9,no=10,missing=9
			9:[ompk36_281<16] yes=13,no=14,missing=13
				13:leaf=-0.0748305842
				14:leaf=0.0158517528
			10:[ompk37_264<8] yes=15,no=16,missing=15
				15:[ompk36_309<3] yes=21,no=22,missing=21
					21:leaf=0.0205004402
					22:leaf=-0.0612676404
				16:[ompk36_96<20] yes=23,no=24,missing=23
					23:leaf=-0.0779738873
					24:leaf=-0.0230926163
		6:[ompk36_153<14] yes=11,no=12,missing=11
			11:[ompk35_73<16] yes=17,no=18,missing=17
				17:leaf=0.040451061
				18:leaf=-0.0768321827
			12:[ompk36_281<16] yes=19,no=20,missing=19
				19:[ompk36_215<9] yes=25,no=26,missing=25
					25:leaf=-0.0711488351
					26:leaf=-0.0131195923
				20:leaf=-0.101424567
booster[30]:
0:[ompk36_232<18] yes=1,no=2,missing=1
	1:[ompk36_349<10] yes=3,no=4,missing=3
		3:[ompk35_182<14] yes=7,no=8,missing=7
			7:leaf=0.117501177
			8:[ompk37_264<8] yes=15,no=16,missing=15
				15:[ompk36_153<14] yes=21,no=22,missing=21
					21:leaf=-0.0528264754
					22:leaf=0.0575201809
				16:leaf=-0.0555816889
		4:[ompk36_309<3] yes=9,no=10,missing=9
			9:leaf=0.401518196
			10:leaf=-0.073859863
	2:[ompk36_383<5] yes=5,no=6,missing=5
		5:[ompk37_209<14] yes=11,no=12,missing=11
			11:leaf=0.0159307532
			12:leaf=-0.0929822102
		6:[ompk36_198<17] yes=13,no=14,missing=13
			13:[ompk36_347<14] yes=17,no=18,missing=17
				17:leaf=0.070100531
				18:leaf=-0.0664004087
			14:[ompk37_277<9] yes=19,no=20,missing=19
				19:[ompk36_129<13] yes=23,no=24,missing=23
					23:leaf=-0.0338889919
					24:leaf=-0.000966308755
				20:[ompk36_154<16] yes=25,no=26,missing=25
					25:leaf=-0.0467902571
					26:leaf=-0.0870101079
booster[31]:
0:[ompk36_243<5] yes=1,no=2,missing=1
	1:[ompk36_198<17] yes=3,no=4,missing=3
		3:[ompk37_277<13] yes=7,no=8,missing=7
			7:leaf=-0.0890186355
			8:leaf=0.118221633
		4:[ompk37_277<9] yes=9,no=10,missing=9
			9:leaf=-0.0492457412
			10:leaf=-0.0801799968
	2:[ompk37_242<10] yes=5,no=6,missing=5
		5:[ompk36_129<13] yes=11,no=12,missing=11
			11:[ompk36_349<10] yes=15,no=16,missing=15
				15:[ompk37_264<8] yes=21,no=22,missing=21
					21:leaf=-0.0785943344
					22:leaf=-6.64605104e-05
				16:[ompk36_298<22] yes=23,no=24,missing=23
					23:leaf=-0.00753604621
					24:leaf=0.0988454372
			12:leaf=-0.0829411447
		6:[ompk36_255<12] yes=13,no=14,missing=13
			13:[ompk37_209<14] yes=17,no=18,missing=17
				17:leaf=-0.063599579
				18:[ompk35_73<16] yes=25,no=26,missing=25
					25:leaf=0.042449858
					26:leaf=-0.0579577684
			14:[ompk36_101<7] yes=19,no=20,missing=19
				19:[ompk36_347<8] yes=27,no=28,missing=27
					27:leaf=0.161170676
					28:leaf=-0.0344525985
				20:leaf=0.3307257
booster[32]:
0:[ompk35_91<14] yes=1,no=2,missing=1
	1:[ompk36_223<16] yes=3,no=4,missing=3
		3:[ompk36_153<14] yes=7,no=8,missing=7
			7:leaf=-0.0695678517
			8:[ompk37_209<14] yes=15,no=16,missing=15
				15:leaf=0.413206309
				16:[ompk37_277<9] yes=21,no=22,missing=21
					21:leaf=0.260942101
					22:leaf=0.182002768
		4:[ompk36_153<14] yes=9,no=10,missing=9
			9:leaf=-0.0743619129
			10:[ompk36_342<13] yes=17,no=18,missing=17
				17:leaf=-0.072226122
				18:[ompk35_181<8] yes=23,no=24,missing=23
					23:leaf=-0.0593901165
					24:leaf=0.135167152
	2:[ompk36_154<12] yes=5,no=6,missing=5
		5:[ompk37_373<3] yes=11,no=12,missing=11
			11:leaf=0.102947228
			12:leaf=-0.0298365839
		6:[ompk36_249<25] yes=13,no=14,missing=13
			13:leaf=-0.0801399499
			14:[ompk35_35<20] yes=19,no=20,missing=19
				19:leaf=0.00197855779
				20:leaf=-0.0578378104
booster[33]:
0:[ompk37_208<8] yes=1,no=2,missing=1
	1:leaf=-0.0700614676
	2:[ompk36_214<12] yes=3,no=4,missing=3
		3:[ompk36_252<16] yes=5,no=6,missing=5
			5:leaf=0.332901299
			6:leaf=0.0274490453
		4:[ompk36_198<17] yes=7,no=8,missing=7
			7:[ompk36_383<5] yes=9,no=10,missing=9
				9:[ompk35_73<13] yes=13,no=14,missing=13
					13:leaf=0.472506911
					14:leaf=0.200075507
				10:[ompk36_347<14] yes=15,no=16,missing=15
					15:leaf=0.108020604
					16:leaf=0.244903877
			8:[ompk36_252<25] yes=11,no=12,missing=11
				11:leaf=0.41257754
				12:leaf=0.11213477
booster[34]:
0:leaf=-0.103358723
booster[35]:
0:leaf=-0.103358723
booster[36]:
0:leaf=-0.103358723
booster[37]:
0:leaf=-0.103358723
booster[38]:
0:leaf=-0.10262277
booster[39]:
0:leaf=-0.10262277
booster[40]:
0:leaf=-0.10262277
booster[41]:
0:leaf=-0.10262277
booster[42]:
0:leaf=-0.10262277
booster[43]:
0:leaf=-0.0999505967
booster[44]:
0:[ompk36_96<21] yes=1,no=2,missing=1
	1:[ompk36_146<16] yes=3,no=4,missing=3
		3:leaf=0.0222467352
		4:[ompk36_378<5] yes=7,no=8,missing=7
			7:[ompk37_264<8] yes=9,no=10,missing=9
				9:leaf=0.0294314008
				10:[ompk35_73<13] yes=11,no=12,missing=11
					11:leaf=-0.0635788292
					12:leaf=-0.0956754088
			8:leaf=-0.0933822989
	2:[ompk37_264<8] yes=5,no=6,missing=5
		5:leaf=-0.0537526794
		6:leaf=0.0122177182
booster[45]:
0:[ompk37_374<14] yes=1,no=2,missing=1
	1:[ompk36_304<12] yes=3,no=4,missing=3
		3:leaf=0.0212626364
		4:[ompk36_252<16] yes=7,no=8,missing=7
			7:[ompk36_380<9] yes=9,no=10,missing=9
				9:leaf=-0.0160108563
				10:leaf=-0.0828838572
			8:[ompk36_98<16] yes=11,no=12,missing=11
				11:leaf=0.0553226843
				12:[ompk37_264<8] yes=13,no=14,missing=13
					13:leaf=-0.057271827
					14:leaf=-0.0218454208
	2:[ompk36_232<18] yes=5,no=6,missing=5
		5:leaf=-0.0597873591
		6:leaf=-0.101048291
booster[46]:
0:[ompk36_281<16] yes=1,no=2,missing=1
	1:[ompk36_206<17] yes=3,no=4,missing=3
		3:leaf=0.154272243
		4:[ompk37_373<3] yes=7,no=8,missing=7
			7:[ompk37_264<8] yes=11,no=12,missing=11
				11:leaf=-0.0738838613
				12:[ompk36_153<14] yes=15,no=16,missing=15
					15:leaf=-0.0619343221
					16:leaf=0.0236363672
			8:leaf=-0.084755443
	2:[ompk35_181<8] yes=5,no=6,missing=5
		5:leaf=0.0221456792
		6:[ompk36_249<15] yes=9,no=10,missing=9
			9:leaf=-0.100221209
			10:[ompk36_383<5] yes=13,no=14,missing=13
				13:leaf=-0.0855129287
				14:[ompk36_198<17] yes=17,no=18,missing=17
					17:leaf=-0.012500423
					18:leaf=-0.0610824302
booster[47]:
0:[ompk37_277<9] yes=1,no=2,missing=1
	1:[ompk36_247<25] yes=3,no=4,missing=3
		3:[ompk37_18<10] yes=7,no=8,missing=7
			7:[ompk36_256<2] yes=11,no=12,missing=11
				11:[ompk36_309<3] yes=17,no=18,missing=17
					17:leaf=-0.0341361612
					18:leaf=0.0428656451
				12:[ompk36_96<20] yes=19,no=20,missing=19
					19:leaf=-0.0922296569
					20:leaf=-0.0382412411
			8:[ompk36_203<8] yes=13,no=14,missing=13
				13:leaf=-0.0672548488
				14:leaf=0.206378579
		4:leaf=0.17357406
	2:[ompk36_384<7] yes=5,no=6,missing=5
		5:leaf=-0.10111624
		6:[ompk36_309<3] yes=9,no=10,missing=9
			9:leaf=0.0368421972
			10:[ompk36_141<20] yes=15,no=16,missing=15
				15:leaf=-0.066372484
				16:leaf=-0.00871753972
booster[48]:
0:[ompk36_198<17] yes=1,no=2,missing=1
	1:[ompk37_229<15] yes=3,no=4,missing=3
		3:[ompk36_383<5] yes=7,no=8,missing=7
			7:leaf=-0.0831617191
			8:leaf=0.00454480713
		4:leaf=0.100434616
	2:[ompk37_365<9] yes=5,no=6,missing=5
		5:[ompk36_380<9] yes=9,no=10,missing=9
			9:[ompk36_281<16] yes=13,no=14,missing=13
				13:leaf=-0.0724994838
				14:leaf=0.0175558962
			10:[ompk37_264<8] yes=15,no=16,missing=15
				15:[ompk36_309<3] yes=21,no=22,missing=21
					21:leaf=0.0216266792
					22:leaf=-0.0586355217
				16:[ompk36_96<20] yes=23,no=24,missing=23
					23:leaf=-0.0747322962
					24:leaf=-0.0201416817
		6:[ompk36_153<14] yes=11,no=12,missing=11
			11:[ompk35_73<16] yes=17,no=18,missing=17
				17:leaf=0.0377170257
				18:leaf=-0.0738129988
			12:[ompk36_281<16] yes=19,no=20,missing=19
				19:[ompk36_215<9] yes=25,no=26,missing=25
					25:leaf=-0.068705231
					26:leaf=-0.00978007168
				20:leaf=-0.100474313
booster[49]:
0:[ompk36_232<18] yes=1,no=2,missing=1
	1:[ompk36_349<10] yes=3,no=4,missing=3
		3:[ompk35_182<14] yes=7,no=8,missing=7
			7:leaf=0.1003014
			8:[ompk37_264<8] yes=15,no=16,missing=15
				15:leaf=0.0176469944
				16:leaf=-0.0514756851
		4:[ompk36_309<3] yes=9,no=10,missing=9
			9:[ompk35_73<13] yes=17,no=18,missing=17
				17:leaf=0.399318904
				18:leaf=0.0431528054
			10:leaf=-0.0714864656
	2:[ompk36_383<5] yes=5,no=6,missing=5
		5:[ompk37_209<14] yes=11,no=12,missing=11
			11:leaf=0.0170592777
			12:leaf=-0.0911557376
		6:[ompk36_198<17] yes=13,no=14,missing=13
			13:[ompk36_347<14] yes=19,no=20,missing=19
				19:leaf=0.0595797487
				20:leaf=-0.0645762235
			14:[ompk37_277<9] yes=21,no=22,missing=21
				21:[ompk36_97<15] yes=23,no=24,missing=23
					23:leaf=-0.00671700528
					24:leaf=-0.0420014597
				22:[ompk36_154<16] yes=25,no=26,missing=25
					25:leaf=-0.0424155109
					26:leaf=-0.0844073072
booster[50]:
0:[ompk36_243<5] yes=1,no=2,missing=1
	1:[ompk36_198<17] yes=3,no=4,missing=3
		3:[ompk37_277<13] yes=7,no=8,missing=7
			7:leaf=-0.0871492177
			8:leaf=0.097343348
		4:[ompk37_277<9] yes=9,no=10,missing=9
			9:leaf=-0.0448336862
			10:leaf=-0.0769478083
	2:[ompk37_242<10] yes=5,no=6,missing=5
		5:[ompk36_129<13] yes=11,no=12,missing=11
			11:[ompk36_349<10] yes=15,no=16,missing=15
				15:[ompk37_264<8] yes=21,no=22,missing=21
					21:leaf=-0.0762674659
					22:leaf=0.00191863987
				16:[ompk37_18<10] yes=23,no=24,missing=23
					23:leaf=0.0667513236
					24:leaf=-0.0660979524
			12:leaf=-0.0806571916
		6:[ompk36_255<12] yes=13,no=14,missing=13
			13:[ompk37_209<14] yes=17,no=18,missing=17
				17:leaf=-0.0610137954
				18:[ompk35_73<16] yes=25,no=26,missing=25
					25:leaf=0.0384879224
					26:leaf=-0.0556464493
			14:[ompk36_101<7] yes=19,no=20,missing=19
				19:[ompk36_347<8] yes=27,no=28,missing=27
					27:leaf=0.133393332
					28:leaf=-0.0309382584
				20:leaf=0.267089635
booster[51]:
0:[ompk35_49<7] yes=1,no=2,missing=1
	1:[ompk36_153<14] yes=3,no=4,missing=3
		3:[ompk35_78<20] yes=7,no=8,missing=7
			7:leaf=-0.0839222893
			8:leaf=0.0574074648
		4:[ompk36_249<15] yes=9,no=10,missing=9
			9:[ompk35_91<14] yes=13,no=14,missing=13
				13:[ompk35_181<8] yes=17,no=18,missing=17
					17:leaf=-0.0543532073
					18:leaf=0.192629471
				14:leaf=-0.0577980392
			10:[ompk36_281<16] yes=15,no=16,missing=15
				15:leaf=-0.0688278675
				16:[ompk36_198<17] yes=19,no=20,missing=19
					19:leaf=0.15438883
					20:leaf=0.0725950822
	2:[ompk37_229<15] yes=5,no=6,missing=5
		5:leaf=-0.0741421059
		6:[ompk36_249<25] yes=11,no=12,missing=11
			11:leaf=-0.0339642167
			12:leaf=0.00142176216
booster[52]:
0:[ompk37_208<8] yes=1,no=2,missing=1
	1:leaf=-0.0696469173
	2:[ompk36_214<12] yes=3,no=4,missing=3
		3:[ompk36_332<21] yes=5,no=6,missing=5
			5:[ompk36_156<16] yes=9,no=10,missing=9
				9:leaf=0.0207449812
				10:[ompk35_49<7] yes=13,no=14,missing=13
					13:leaf=0.226747707
					14:leaf=0.342263788
			6:leaf=0.047081057
		4:[ompk36_16<11] yes=7,no=8,missing=7
			7:[ompk36_232<16] yes=11,no=12,missing=11
				11:leaf=0.0321776085
				12:[ompk36_198<17] yes=15,no=16,missing=15
					15:leaf=0.220715567
					16:leaf=0.277463257
			8:leaf=0.025825236
booster[53]:
0:leaf=-0.10262277
booster[54]:
0:leaf=-0.10262277
booster[55]:
0:leaf=-0.10262277
booster[56]:
0:leaf=-0.10262277
booster[57]:
0:leaf=-0.101949349
booster[58]:
0:leaf=-0.101949349
booster[59]:
0:leaf=-0.101949349
booster[60]:
0:leaf=-0.101949349
booster[61]:
0:leaf=-0.101949349
booster[62]:
0:leaf=-0.0989469215
booster[63]:
0:[ompk36_96<21] yes=1,no=2,missing=1
	1:[ompk36_146<16] yes=3,no=4,missing=3
		3:leaf=0.0220126063
		4:[ompk36_378<5] yes=5,no=6,missing=5
			5:[ompk37_264<8] yes=7,no=8,missing=7
				7:leaf=0.0296411403
				8:[ompk36_383<5] yes=9,no=10,missing=9
					9:leaf=-0.086963959
					10:leaf=-0.0548757389
			6:leaf=-0.0917033479
	2:leaf=-0.00870533939
booster[64]:
0:[ompk37_277<9] yes=1,no=2,missing=1
	1:[ompk36_304<12] yes=3,no=4,missing=3
		3:leaf=0.028913429
		4:[ompk36_252<16] yes=7,no=8,missing=7
			7:[ompk36_380<9] yes=9,no=10,missing=9
				9:[ompk36_153<14] yes=13,no=14,missing=13
					13:leaf=-0.0524307266
					14:leaf=0.014419036
				10:[ompk36_249<16] yes=15,no=16,missing=15
					15:leaf=-0.094913803
					16:leaf=-0.0578864776
			8:[ompk36_129<13] yes=11,no=12,missing=11
				11:leaf=0.0468647517
				12:[ompk37_264<8] yes=17,no=18,missing=17
					17:leaf=-0.0548933931
					18:leaf=-0.0192592908
	2:[ompk36_232<18] yes=5,no=6,missing=5
		5:leaf=-0.0517839193
		6:leaf=-0.100253962
booster[65]:
0:[ompk36_281<16] yes=1,no=2,missing=1
	1:[ompk36_206<17] yes=3,no=4,missing=3
		3:leaf=0.13073875
		4:[ompk37_373<3] yes=7,no=8,missing=7
			7:[ompk37_264<8] yes=11,no=12,missing=11
				11:leaf=-0.0715984404
				12:[ompk36_153<14] yes=15,no=16,missing=15
					15:leaf=-0.0597422607
					16:leaf=0.0238835663
			8:leaf=-0.0825700164
	2:[ompk35_181<8] yes=5,no=6,missing=5
		5:leaf=0.0205711257
		6:[ompk36_249<15] yes=9,no=10,missing=9
			9:leaf=-0.0992879346
			10:[ompk36_383<5] yes=13,no=14,missing=13
				13:leaf=-0.0836299658
				14:[ompk36_198<17] yes=17,no=18,missing=17
					17:leaf=-0.0100443549
					18:leaf=-0.056812223
booster[66]:
0:[ompk37_277<9] yes=1,no=2,missing=1
	1:[ompk36_247<25] yes=3,no=4,missing=3
		3:[ompk37_365<9] yes=7,no=8,missing=7
			7:[ompk36_256<2] yes=11,no=12,missing=11
				11:[ompk36_309<3] yes=17,no=18,missing=17
					17:leaf=-0.032434769
					18:leaf=0.0432000421
				12:[ompk36_96<20] yes=19,no=20,missing=19
					19:leaf=-0.0899197981
					20:leaf=-0.0348985866
			8:[ompk37_18<10] yes=13,no=14,missing=13
				13:leaf=-0.0661014616
				14:leaf=0.183648601
		4:leaf=0.152540952
	2:[ompk36_384<7] yes=5,no=6,missing=5
		5:leaf=-0.100255966
		6:[ompk36_309<3] yes=9,no=10,missing=9
			9:leaf=0.0361488275
			10:[ompk36_141<20] yes=15,no=16,missing=15
				15:leaf=-0.0639647767
				16:leaf=-0.00610887958
booster[67]:
0:[ompk36_198<17] yes=1,no=2,missing=1
	1:[ompk36_383<5] yes=3,no=4,missing=3
		3:leaf=-0.0812601671
		4:[ompk36_347<14] yes=7,no=8,missing=7
			7:leaf=0.100620747
			8:[ompk37_277<13] yes=13,no=14,missing=13
				13:leaf=-0.0530069284
				14:leaf=0.040493153
	2:[ompk37_365<9] yes=5,no=6,missing=5
		5:[ompk36_380<9] yes=9,no=10,missing=9
			9:[ompk36_281<16] yes=15,no=16,missing=15
				15:leaf=-0.0702767596
				16:leaf=0.0190803055
			10:[ompk37_264<8] yes=17,no=18,missing=17
				17:[ompk36_309<3] yes=23,no=24,missing=23
					23:leaf=0.0224581044
					24:leaf=-0.0562580042
				18:[ompk36_96<20] yes=25,no=26,missing=25
					25:leaf=-0.0714488775
					26:leaf=-0.0175540652
		6:[ompk36_255<12] yes=11,no=12,missing=11
			11:[ompk36_154<16] yes=19,no=20,missing=19
				19:[ompk35_73<16] yes=27,no=28,missing=27
					27:leaf=-0.00892270077
					28:leaf=-0.0708250478
				20:leaf=-0.0991103575
			12:[ompk36_227<15] yes=21,no=22,missing=21
				21:[ompk36_347<8] yes=29,no=30,missing=29
					29:leaf=-0.0118474243
					30:leaf=0.0465643592
				22:leaf=-0.0812274814
booster[68]:
0:[ompk36_232<18] yes=1,no=2,missing=1
	1:[ompk36_349<10] yes=3,no=4,missing=3
		3:[ompk36_387<14] yes=7,no=8,missing=7
			7:[ompk36_378<5] yes=15,no=16,missing=15
				15:[ompk36_253<11] yes=23,no=24,missing=23
					23:leaf=-0.0645144135
					24:leaf=0.000165862439
				16:leaf=-0.079172805
			8:leaf=0.142440543
		4:[ompk36_281<16] yes=9,no=10,missing=9
			9:leaf=0.375688195
			10:[ompk35_181<8] yes=17,no=18,missing=17
				17:leaf=0.0380685031
				18:leaf=-0.0732333064
	2:[ompk36_383<5] yes=5,no=6,missing=5
		5:[ompk37_209<14] yes=11,no=12,missing=11
			11:leaf=0.0172313545
			12:leaf=-0.0893021747
		6:[ompk36_198<17] yes=13,no=14,missing=13
			13:[ompk37_229<15] yes=19,no=20,missing=19
				19:leaf=-0.0629604757
				20:leaf=0.0556756333
			14:[ompk37_277<9] yes=21,no=22,missing=21
				21:[ompk36_97<15] yes=25,no=26,missing=25
					25:leaf=-0.00301604182
					26:leaf=-0.0387388058
				22:[ompk36_154<16] yes=27,no=28,missing=27
					27:leaf=-0.0381401479
					28:leaf=-0.0817516074
booster[69]:
0:[ompk36_243<5] yes=1,no=2,missing=1
	1:[ompk36_198<17] yes=3,no=4,missing=3
		3:[ompk37_277<13] yes=7,no=8,missing=7
			7:leaf=-0.0854262188
			8:leaf=0.0859305486
		4:[ompk37_277<9] yes=9,no=10,missing=9
			9:leaf=-0.0405554138
			10:leaf=-0.0735990331
	2:[ompk37_367<7] yes=5,no=6,missing=5
		5:[ompk36_254<22] yes=11,no=12,missing=11
			11:[ompk37_211<3] yes=15,no=16,missing=15
				15:leaf=0.0111822644
				16:leaf=0.13276571
			12:[ompk36_129<13] yes=17,no=18,missing=17
				17:[ompk36_309<3] yes=21,no=22,missing=21
					21:leaf=-0.0194567777
					22:leaf=0.0657008439
				18:leaf=-0.0784515813
		6:[ompk36_342<13] yes=13,no=14,missing=13
			13:leaf=0.126953289
			14:[ompk36_96<20] yes=19,no=20,missing=19
				19:[ompk35_73<16] yes=23,no=24,missing=23
					23:leaf=0.0254657064
					24:leaf=-0.0636559948
				20:leaf=0.144127712
booster[70]:
0:[ompk35_49<7] yes=1,no=2,missing=1
	1:[ompk36_153<14] yes=3,no=4,missing=3
		3:[ompk35_78<20] yes=7,no=8,missing=7
			7:leaf=-0.082019642
			8:leaf=0.0554853454
		4:[ompk36_249<15] yes=9,no=10,missing=9
			9:[ompk35_91<14] yes=13,no=14,missing=13
				13:[ompk37_209<14] yes=17,no=18,missing=17
					17:leaf=0.252923548
					18:leaf=0.136339992
				14:leaf=-0.0555148982
			10:[ompk36_342<13] yes=15,no=16,missing=15
				15:leaf=-0.0664762482
				16:[ompk36_309<3] yes=19,no=20,missing=19
					19:leaf=0.062980853
					20:leaf=0.125368983
	2:[ompk37_229<15] yes=5,no=6,missing=5
		5:leaf=-0.0720553249
		6:[ompk36_249<25] yes=11,no=12,missing=11
			11:leaf=-0.0290347524
			12:leaf=0.00608629873
booster[71]:
0:[ompk37_208<8] yes=1,no=2,missing=1
	1:leaf=-0.0692333505
	2:[ompk36_232<18] yes=3,no=4,missing=3
		3:[ompk37_293<16] yes=5,no=6,missing=5
			5:[ompk36_255<12] yes=9,no=10,missing=9
				9:leaf=0.00217526359
				10:[ompk37_360<3] yes=17,no=18,missing=17
					17:leaf=0.197120354
					18:leaf=0.0255825873
			6:[ompk36_347<8] yes=11,no=12,missing=11
				11:[ompk36_349<10] yes=19,no=20,missing=19
					19:leaf=0.07436084
					20:leaf=-0.0715906844
				12:leaf=0.222187921
		4:[ompk37_277<9] yes=7,no=8,missing=7
			7:[ompk36_249<14] yes=13,no=14,missing=13
				13:[ompk37_264<8] yes=21,no=22,missing=21
					21:leaf=-0.0230872594
					22:leaf=0.106835797
				14:[ompk36_383<5] yes=23,no=24,missing=23
					23:leaf=0.250924259
					24:leaf=0.172669441
			8:[ompk36_198<17] yes=15,no=16,missing=15
				15:leaf=0.065823622
				16:[ompk37_209<14] yes=25,no=26,missing=25
					25:leaf=0.0940700769
					26:leaf=0.227782249
booster[72]:
0:leaf=-0.101949349
booster[73]:
0:leaf=-0.101949349
booster[74]:
0:leaf=-0.101949349
booster[75]:
0:leaf=-0.101949349
booster[76]:
0:leaf=-0.101316296
booster[77]:
0:leaf=-0.101316296
booster[78]:
0:leaf=-0.101316296
booster[79]:
0:leaf=-0.101316296
booster[80]:
0:leaf=-0.101316296
booster[81]:
0:leaf=-0.097940214
booster[82]:
0:[ompk36_96<21] yes=1,no=2,missing=1
	1:[ompk36_146<16] yes=3,no=4,missing=3
		3:leaf=0.0231083632
		4:[ompk36_378<5] yes=5,no=6,missing=5
			5:[ompk37_264<8] yes=7,no=8,missing=7
				7:leaf=0.029732842
				8:[ompk36_383<5] yes=9,no=10,missing=9
					9:leaf=-0.0848105624
					10:leaf=-0.0504657738
			6:leaf=-0.0899440125
	2:leaf=-0.00644979719
booster[83]:
0:[ompk37_374<14] yes=1,no=2,missing=1
	1:[ompk36_304<12] yes=3,no=4,missing=3
		3:leaf=0.020424407
		4:[ompk36_252<16] yes=7,no=8,missing=7
			7:[ompk36_380<9] yes=9,no=10,missing=9
				9:leaf=-0.0113317249
				10:[ompk36_249<16] yes=13,no=14,missing=13
					13:leaf=-0.0932383761
					14:leaf=-0.0555842593
			8:[ompk36_98<16] yes=11,no=12,missing=11
				11:leaf=0.0507810786
				12:[ompk37_264<8] yes=15,no=16,missing=15
					15:leaf=-0.0527703576
					16:leaf=-0.017223781
	2:[ompk36_232<18] yes=5,no=6,missing=5
		5:leaf=-0.0532530732
		6:leaf=-0.0992887095
booster[84]:
0:[ompk36_378<5] yes=1,no=2,missing=1
	1:[ompk36_281<16] yes=3,no=4,missing=3
		3:[ompk36_206<17] yes=7,no=8,missing=7
			7:leaf=0.114257924
			8:[ompk37_277<13] yes=11,no=12,missing=11
				11:[ompk36_153<14] yes=15,no=16,missing=15
					15:leaf=-0.0573431514
					16:leaf=0.0215102024
				12:leaf=-0.0797225013
		4:[ompk36_387<14] yes=9,no=10,missing=9
			9:[ompk36_383<5] yes=13,no=14,missing=13
				13:leaf=-0.086091578
				14:[ompk36_198<17] yes=17,no=18,missing=17
					17:leaf=0.0295880381
					18:leaf=-0.0556651019
			10:leaf=0.0384374186
	2:[ompk36_96<20] yes=5,no=6,missing=5
		5:leaf=-0.0989304259
		6:leaf=-0.0354541652
booster[85]:
0:[ompk37_277<9] yes=1,no=2,missing=1
	1:[ompk36_247<25] yes=3,no=4,missing=3
		3:[ompk37_18<10] yes=7,no=8,missing=7
			7:[ompk36_256<2] yes=11,no=12,missing=11
				11:[ompk36_383<5] yes=17,no=18,missing=17
					17:leaf=-0.0363689587
					18:leaf=0.0141005833
				12:[ompk36_96<20] yes=19,no=20,missing=19
					19:leaf=-0.089259088
					20:leaf=-0.0320837088
			8:[ompk36_203<8] yes=13,no=14,missing=13
				13:leaf=-0.0661469921
				14:leaf=0.164876401
		4:leaf=0.130138397
	2:[ompk36_384<7] yes=5,no=6,missing=5
		5:leaf=-0.0993925333
		6:[ompk36_309<3] yes=9,no=10,missing=9
			9:leaf=0.034965612
			10:[ompk36_141<20] yes=15,no=16,missing=15
				15:leaf=-0.0616811402
				16:leaf=-0.00253070449
booster[86]:
0:[ompk36_198<17] yes=1,no=2,missing=1
	1:[ompk36_383<5] yes=3,no=4,missing=3
		3:leaf=-0.0789204165
		4:[ompk36_347<14] yes=7,no=8,missing=7
			7:leaf=0.0839277878
			8:[ompk37_229<13] yes=13,no=14,missing=13
				13:leaf=-0.0537739806
				14:leaf=0.0438498966
	2:[ompk37_365<9] yes=5,no=6,missing=5
		5:[ompk36_380<9] yes=9,no=10,missing=9
			9:[ompk36_281<16] yes=15,no=16,missing=15
				15:leaf=-0.0678858832
				16:leaf=0.0175672304
			10:[ompk36_249<25] yes=17,no=18,missing=17
				17:[ompk36_96<20] yes=23,no=24,missing=23
					23:leaf=-0.0731149912
					24:leaf=-0.0337784998
				18:leaf=-0.0302593019
		6:[ompk36_153<14] yes=11,no=12,missing=11
			11:[ompk35_73<16] yes=19,no=20,missing=19
				19:leaf=0.0393234491
				20:leaf=-0.0676157326
			12:[ompk36_281<16] yes=21,no=22,missing=21
				21:[ompk36_215<9] yes=25,no=26,missing=25
					25:leaf=-0.062819168
					26:leaf=-0.00523198023
				22:leaf=-0.0986613408
booster[87]:
0:[ompk36_232<18] yes=1,no=2,missing=1
	1:[ompk36_349<10] yes=3,no=4,missing=3
		3:[ompk37_56<22] yes=7,no=8,missing=7
			7:[ompk36_378<5] yes=15,no=16,missing=15
				15:[ompk37_277<13] yes=23,no=24,missing=23
					23:leaf=0.00782200601
					24:leaf=-0.0437707007
				16:leaf=-0.0769171417
			8:leaf=0.137610212
		4:[ompk36_281<16] yes=9,no=10,missing=9
			9:leaf=0.297263265
			10:[ompk35_181<8] yes=17,no=18,missing=17
				17:leaf=0.0359735303
				18:leaf=-0.0707562566
	2:[ompk36_383<5] yes=5,no=6,missing=5
		5:[ompk37_209<14] yes=11,no=12,missing=11
			11:leaf=0.0168364104
			12:leaf=-0.0872470886
		6:[ompk36_198<17] yes=13,no=14,missing=13
			13:[ompk36_347<14] yes=19,no=20,missing=19
				19:leaf=0.0503222831
				20:leaf=-0.0619317889
			14:[ompk37_277<9] yes=21,no=22,missing=21
				21:[ompk35_13<15] yes=25,no=26,missing=25
					25:leaf=-0.00536418473
					26:leaf=-0.052788049
				22:[ompk36_154<16] yes=27,no=28,missing=27
					27:leaf=-0.0334662534
					28:leaf=-0.0787101835
booster[88]:
0:[ompk36_243<5] yes=1,no=2,missing=1
	1:[ompk36_198<17] yes=3,no=4,missing=3
		3:[ompk37_277<13] yes=7,no=8,missing=7
			7:leaf=-0.0834049582
			8:leaf=0.0722313598
		4:[ompk37_277<9] yes=9,no=10,missing=9
			9:leaf=-0.0369494371
			10:leaf=-0.0698015615
	2:[ompk37_367<7] yes=5,no=6,missing=5
		5:[ompk36_98<16] yes=11,no=12,missing=11
			11:[ompk36_309<3] yes=15,no=16,missing=15
				15:[ompk37_264<8] yes=19,no=20,missing=19
					19:leaf=-0.0767083094
					20:leaf=0.00965682417
				16:[ompk36_143<20] yes=21,no=22,missing=21
					21:leaf=0.111841284
					22:leaf=0.00492884777
			12:leaf=-0.0764776245
		6:[ompk36_96<18] yes=13,no=14,missing=13
			13:[ompk36_342<13] yes=17,no=18,missing=17
				17:[ompk36_281<16] yes=23,no=24,missing=23
					23:leaf=0.0654531643
					24:leaf=0.135336205
				18:[ompk35_73<16] yes=25,no=26,missing=25
					25:leaf=0.026179364
					26:leaf=-0.0605496131
			14:leaf=0.198946729
booster[89]:
0:[ompk35_49<7] yes=1,no=2,missing=1
	1:[ompk36_153<14] yes=3,no=4,missing=3
		3:[ompk35_78<20] yes=7,no=8,missing=7
			7:leaf=-0.080037795
			8:leaf=0.0536553971
		4:[ompk37_278<20] yes=9,no=10,missing=9
			9:leaf=-0.0684597418
			10:[ompk35_181<8] yes=13,no=14,missing=13
				13:leaf=-0.064852111
				14:[ompk37_18<10] yes=15,no=16,missing=15
					15:leaf=0.0965111479
					16:leaf=0.213482171
	2:[ompk37_229<15] yes=5,no=6,missing=5
		5:leaf=-0.0701817796
		6:[ompk36_249<25] yes=11,no=12,missing=11
			11:leaf=-0.0237905309
			12:leaf=0.0113632502
booster[90]:
0:[ompk37_208<8] yes=1,no=2,missing=1
	1:leaf=-0.0686017424
	2:[ompk36_214<12] yes=3,no=4,missing=3
		3:[ompk36_153<14] yes=5,no=6,missing=5
			5:[ompk36_155<14] yes=9,no=10,missing=9
				9:[ompk35_61<15] yes=15,no=16,missing=15
					15:leaf=0.223957524
					16:leaf=0.128905401
				10:leaf=0.0496014468
			6:[ompk36_342<13] yes=11,no=12,missing=11
				11:[ompk37_293<16] yes=17,no=18,missing=17
					17:leaf=0.132497296
					18:leaf=0.0578267276
				12:[ompk37_365<9] yes=19,no=20,missing=19
					19:leaf=0.097115919
					20:leaf=0.171602651
		4:[ompk36_16<11] yes=7,no=8,missing=7
			7:[ompk36_198<17] yes=13,no=14,missing=13
				13:[ompk37_229<15] yes=21,no=22,missing=21
					21:leaf=0.170246243
					22:leaf=0.0508191288
				14:[ompk37_277<9] yes=23,no=24,missing=23
					23:leaf=0.142189026
					24:leaf=0.186266527
			8:leaf=0.00615112437
booster[91]:
0:leaf=-0.101316296
booster[92]:
0:leaf=-0.101316296
booster[93]:
0:leaf=-0.101316296
booster[94]:
0:leaf=-0.101316296
booster[95]:
0:leaf=-0.100713968
booster[96]:
0:leaf=-0.100713968
booster[97]:
0:leaf=-0.100713968
booster[98]:
0:leaf=-0.100713968
booster[99]:
0:leaf=-0.100713968
booster[100]:
0:leaf=-0.0969174355
booster[101]:
0:[ompk36_96<21] yes=1,no=2,missing=1
	1:[ompk36_146<16] yes=3,no=4,missing=3
		3:leaf=0.0242946409
		4:[ompk36_249<25] yes=5,no=6,missing=5
			5:[ompk37_264<8] yes=7,no=8,missing=7
				7:[ompk36_380<9] yes=11,no=12,missing=11
					11:leaf=-0.0655743107
					12:leaf=0.0445633866
				8:leaf=-0.0861444771
			6:[ompk36_383<5] yes=9,no=10,missing=9
				9:leaf=-0.0843187347
				10:[ompk37_277<9] yes=13,no=14,missing=13
					13:leaf=0.000725247606
					14:leaf=-0.0603976436
	2:leaf=-0.00446864124
booster[102]:
0:[ompk37_277<9] yes=1,no=2,missing=1
	1:[ompk36_304<12] yes=3,no=4,missing=3
		3:leaf=0.0246532224
		4:[ompk36_252<16] yes=7,no=8,missing=7
			7:[ompk36_380<9] yes=9,no=10,missing=9
				9:leaf=-0.0143205477
				10:[ompk36_249<16] yes=13,no=14,missing=13
					13:leaf=-0.0922178775
					14:leaf=-0.0502015352
			8:[ompk36_129<13] yes=11,no=12,missing=11
				11:leaf=0.0431361571
				12:leaf=-0.034716133
	2:[ompk36_232<18] yes=5,no=6,missing=5
		5:leaf=-0.0462162159
		6:leaf=-0.0984855369
booster[103]:
0:[ompk36_378<5] yes=1,no=2,missing=1
	1:[ompk36_281<16] yes=3,no=4,missing=3
		3:[ompk36_206<17] yes=7,no=8,missing=7
			7:leaf=0.102373518
			8:[ompk37_373<3] yes=11,no=12,missing=11
				11:[ompk35_91<14] yes=15,no=16,missing=15
					15:leaf=0.0224137455
					16:leaf=-0.0557648949
				12:leaf=-0.078108266
		4:[ompk36_387<14] yes=9,no=10,missing=9
			9:[ompk36_383<5] yes=13,no=14,missing=13
				13:leaf=-0.0841707066
				14:[ompk36_198<17] yes=17,no=18,missing=17
					17:leaf=0.0273535643
					18:leaf=-0.0508130156
			10:leaf=0.0357253365
	2:[ompk36_96<20] yes=5,no=6,missing=5
		5:leaf=-0.0980255082
		6:leaf=-0.0325048231
booster[104]:
0:[ompk37_277<9] yes=1,no=2,missing=1
	1:[ompk36_247<25] yes=3,no=4,missing=3
		3:[ompk37_365<9] yes=7,no=8,missing=7
			7:[ompk36_198<17] yes=11,no=12,missing=11
				11:[ompk36_383<5] yes=17,no=18,missing=17
					17:leaf=-0.0275323726
					18:leaf=0.0981200263
				12:[ompk36_256<2] yes=19,no=20,missing=19
					19:leaf=-0.0272079706
					20:leaf=-0.0711904988
			8:[ompk36_203<16] yes=13,no=14,missing=13
				13:leaf=-0.0714474022
				14:leaf=0.218681529
		4:leaf=0.11644204
	2:[ompk36_384<7] yes=5,no=6,missing=5
		5:leaf=-0.0985315815
		6:[ompk36_339<13] yes=9,no=10,missing=9
			9:leaf=0.0468918793
			10:[ompk36_141<20] yes=15,no=16,missing=15
				15:leaf=-0.063164264
				16:leaf=0.000740248186
booster[105]:
0:[ompk36_198<17] yes=1,no=2,missing=1
	1:[ompk36_383<5] yes=3,no=4,missing=3
		3:leaf=-0.076587975
		4:[ompk36_347<14] yes=7,no=8,missing=7
			7:leaf=0.0721429512
			8:leaf=-0.00660458719
	2:[ompk37_365<9] yes=5,no=6,missing=5
		5:[ompk36_380<9] yes=9,no=10,missing=9
			9:[ompk36_281<16] yes=13,no=14,missing=13
				13:leaf=-0.0654500648
				14:leaf=0.0164241828
			10:[ompk37_264<8] yes=15,no=16,missing=15
				15:[ompk36_309<3] yes=21,no=22,missing=21
					21:leaf=0.0286876354
					22:leaf=-0.0523517095
				16:[ompk36_96<20] yes=23,no=24,missing=23
					23:leaf=-0.0652317926
					24:leaf=-0.0126749072
		6:[ompk36_153<14] yes=11,no=12,missing=11
			11:[ompk35_73<16] yes=17,no=18,missing=17
				17:leaf=0.0386499017
				18:leaf=-0.0643658116
			12:[ompk36_281<16] yes=19,no=20,missing=19
				19:[ompk36_215<9] yes=25,no=26,missing=25
					25:leaf=-0.0600875281
					26:leaf=-0.00493259029
				20:leaf=-0.0976787955
booster[106]:
0:[ompk36_232<18] yes=1,no=2,missing=1
	1:[ompk36_349<10] yes=3,no=4,missing=3
		3:[ompk37_56<22] yes=7,no=8,missing=7
			7:[ompk37_264<8] yes=15,no=16,missing=15
				15:leaf=0.0339033343
				16:[ompk37_259<3] yes=25,no=26,missing=25
					25:leaf=0.0257920381
					26:leaf=-0.0465558022
			8:leaf=0.121932328
		4:[ompk36_281<16] yes=9,no=10,missing=9
			9:leaf=0.243936762
			10:[ompk37_18<10] yes=17,no=18,missing=17
				17:leaf=-0.0692753643
				18:leaf=0.0341605395
	2:[ompk36_383<5] yes=5,no=6,missing=5
		5:[ompk37_209<14] yes=11,no=12,missing=11
			11:leaf=0.0177975968
			12:[ompk36_298<10] yes=19,no=20,missing=19
				19:leaf=-0.0944098607
				20:[ompk36_198<17] yes=27,no=28,missing=27
					27:leaf=-0.0752014071
					28:leaf=-0.00830987189
		6:[ompk36_198<17] yes=13,no=14,missing=13
			13:[ompk36_347<14] yes=21,no=22,missing=21
				21:leaf=0.0450417735
				22:leaf=-0.0601984449
			14:[ompk37_373<3] yes=23,no=24,missing=23
				23:[ompk36_97<15] yes=29,no=30,missing=29
					29:leaf=0.00252384017
					30:leaf=-0.0342535041
				24:[ompk36_154<16] yes=31,no=32,missing=31
					31:leaf=-0.029755665
					32:leaf=-0.0753258616
booster[107]:
0:[ompk36_243<5] yes=1,no=2,missing=1
	1:[ompk36_198<17] yes=3,no=4,missing=3
		3:[ompk37_277<13] yes=7,no=8,missing=7
			7:leaf=-0.0813056454
			8:leaf=0.0618333407
		4:[ompk37_277<9] yes=9,no=10,missing=9
			9:leaf=-0.0330975614
			10:leaf=-0.0656488687
	2:[ompk37_367<7] yes=5,no=6,missing=5
		5:[ompk36_98<16] yes=11,no=12,missing=11
			11:[ompk36_155<14] yes=15,no=16,missing=15
				15:[ompk36_380<9] yes=19,no=20,missing=19
					19:leaf=-0.0473009013
					20:leaf=0.0298986118
				16:leaf=0.101030149
			12:leaf=-0.0744199529
		6:[ompk36_96<18] yes=13,no=14,missing=13
			13:[ompk36_347<8] yes=17,no=18,missing=17
				17:[ompk37_209<14] yes=21,no=22,missing=21
					21:leaf=-0.0590948649
					22:leaf=0.060151156
				18:[ompk36_141<20] yes=23,no=24,missing=23
					23:leaf=-0.0665001422
					24:leaf=0.00669002533
			14:leaf=0.172906011
booster[108]:
0:[ompk35_49<7] yes=1,no=2,missing=1
	1:[ompk36_153<14] yes=3,no=4,missing=3
		3:[ompk35_78<20] yes=7,no=8,missing=7
			7:leaf=-0.0777158067
			8:leaf=0.0529556759
		4:[ompk37_278<20] yes=9,no=10,missing=9
			9:leaf=-0.0663212463
			10:[ompk36_249<5] yes=13,no=14,missing=13
				13:[ompk37_367<7] yes=15,no=16,missing=15
					15:leaf=0.161532402
					16:leaf=0.0730273724
				14:[ompk36_146<16] yes=17,no=18,missing=17
					17:leaf=-0.0548721515
					18:leaf=0.0710281879
	2:[ompk37_229<15] yes=5,no=6,missing=5
		5:leaf=-0.0680738986
		6:[ompk36_249<25] yes=11,no=12,missing=11
			11:leaf=-0.0186359715
			12:leaf=0.0164324678
booster[109]:
0:[ompk37_208<8] yes=1,no=2,missing=1
	1:leaf=-0.0679215863
	2:[ompk36_214<12] yes=3,no=4,missing=3
		3:[ompk35_91<14] yes=5,no=6,missing=5
			5:[ompk35_49<7] yes=9,no=10,missing=9
				9:[ompk36_378<5] yes=15,no=16,missing=15
					15:leaf=0.0856111869
					16:leaf=0.117483161
				10:leaf=0.209323317
			6:[ompk37_18<10] yes=11,no=12,missing=11
				11:leaf=0.170554712
				12:leaf=0.0617275313
		4:[ompk36_16<11] yes=7,no=8,missing=7
			7:[ompk36_198<17] yes=13,no=14,missing=13
				13:[ompk36_383<5] yes=17,no=18,missing=17
					17:leaf=0.15592806
					18:leaf=0.0601468645
				14:[ompk37_277<9] yes=19,no=20,missing=19
					19:leaf=0.118266426
					20:leaf=0.158540651
			8:leaf=0.00441691605
booster[110]:
0:leaf=-0.100713968
booster[111]:
0:leaf=-0.100713968
booster[112]:
0:leaf=-0.100713968
booster[113]:
0:leaf=-0.100713968
booster[114]:
0:leaf=-0.100131787
booster[115]:
0:leaf=-0.100131787
booster[116]:
0:leaf=-0.100131787
booster[117]:
0:leaf=-0.100131787
booster[118]:
0:leaf=-0.100131787
booster[119]:
0:leaf=-0.0958635509
booster[120]:
0:[ompk36_96<21] yes=1,no=2,missing=1
	1:[ompk36_146<16] yes=3,no=4,missing=3
		3:leaf=0.0248911809
		4:[ompk36_378<5] yes=5,no=6,missing=5
			5:[ompk37_264<8] yes=7,no=8,missing=7
				7:leaf=0.0287583899
				8:[ompk36_383<5] yes=9,no=10,missing=9
					9:leaf=-0.0802649185
					10:leaf=-0.0406163707
			6:leaf=-0.0863894075
	2:leaf=-0.00284524891
booster[121]:
0:[ompk37_374<14] yes=1,no=2,missing=1
	1:[ompk36_253<11] yes=3,no=4,missing=3
		3:leaf=0.0563100465
		4:[ompk36_380<9] yes=7,no=8,missing=7
			7:[ompk36_384<7] yes=9,no=10,missing=9
				9:leaf=0.0217087399
				10:leaf=-0.0686590895
			8:[ompk36_141<20] yes=11,no=12,missing=11
				11:[ompk36_247<13] yes=13,no=14,missing=13
					13:leaf=-0.0479177013
					14:leaf=-0.0886431634
				12:[ompk37_264<8] yes=15,no=16,missing=15
					15:leaf=-0.0546755083
					16:leaf=0.00630980311
	2:[ompk36_232<18] yes=5,no=6,missing=5
		5:leaf=-0.047763668
		6:leaf=-0.0974994153
booster[122]:
0:[ompk36_378<5] yes=1,no=2,missing=1
	1:[ompk36_281<16] yes=3,no=4,missing=3
		3:[ompk36_206<17] yes=7,no=8,missing=7
			7:leaf=0.093368642
			8:[ompk37_277<13] yes=11,no=12,missing=11
				11:[ompk36_153<14] yes=15,no=16,missing=15
					15:leaf=-0.0536068268
					16:leaf=0.0217647534
				12:leaf=-0.0764649138
		4:[ompk36_387<14] yes=9,no=10,missing=9
			9:[ompk36_383<5] yes=13,no=14,missing=13
				13:leaf=-0.0820642188
				14:[ompk37_277<9] yes=17,no=18,missing=17
					17:leaf=0.0128734037
					18:leaf=-0.0516512096
			10:leaf=0.0333464183
	2:[ompk36_96<20] yes=5,no=6,missing=5
		5:leaf=-0.0971139818
		6:leaf=-0.0297891106
booster[123]:
0:[ompk37_277<9] yes=1,no=2,missing=1
	1:[ompk36_247<25] yes=3,no=4,missing=3
		3:[ompk37_365<9] yes=7,no=8,missing=7
			7:[ompk36_256<2] yes=11,no=12,missing=11
				11:[ompk36_383<5] yes=17,no=18,missing=17
					17:leaf=-0.0306716207
					18:leaf=0.0160857271
				12:[ompk36_96<20] yes=19,no=20,missing=19
					19:leaf=-0.0857502744
					20:leaf=-0.0244846903
			8:[ompk36_203<16] yes=13,no=14,missing=13
				13:leaf=-0.0695555657
				14:leaf=0.189781576
		4:leaf=0.105615854
	2:[ompk36_384<7] yes=5,no=6,missing=5
		5:leaf=-0.0976751
		6:[ompk36_339<13] yes=9,no=10,missing=9
			9:leaf=0.0450636633
			10:[ompk36_141<20] yes=15,no=16,missing=15
				15:leaf=-0.0611096881
				16:leaf=0.00380996405
booster[124]:
0:[ompk36_198<17] yes=1,no=2,missing=1
	1:[ompk36_383<5] yes=3,no=4,missing=3
		3:leaf=-0.0740676671
		4:[ompk36_347<14] yes=7,no=8,missing=7
			7:leaf=0.062389791
			8:leaf=-0.00668113632
	2:[ompk37_365<9] yes=5,no=6,missing=5
		5:[ompk36_380<9] yes=9,no=10,missing=9
			9:[ompk36_281<16] yes=13,no=14,missing=13
				13:leaf=-0.0631410033
				14:leaf=0.0177996252
			10:[ompk36_249<25] yes=15,no=16,missing=15
				15:[ompk36_96<20] yes=21,no=22,missing=21
					21:leaf=-0.067772083
					22:leaf=-0.0290190615
				16:leaf=-0.0211853683
		6:[ompk36_255<12] yes=11,no=12,missing=11
			11:[ompk36_154<16] yes=17,no=18,missing=17
				17:[ompk35_73<16] yes=23,no=24,missing=23
					23:leaf=-0.00658649812
					24:leaf=-0.0611137226
				18:leaf=-0.0959872231
			12:[ompk36_227<15] yes=19,no=20,missing=19
				19:[ompk36_349<10] yes=25,no=26,missing=25
					25:leaf=-0.00611768058
					26:leaf=0.0478398018
				20:leaf=-0.0739060268
booster[125]:
0:[ompk36_232<18] yes=1,no=2,missing=1
	1:[ompk36_378<5] yes=3,no=4,missing=3
		3:[ompk36_349<10] yes=7,no=8,missing=7
			7:[ompk36_387<14] yes=15,no=16,missing=15
				15:[ompk36_253<11] yes=25,no=26,missing=25
					25:leaf=-0.0659806132
					26:leaf=0.00883102231
				16:leaf=0.11875581
			8:[ompk36_281<16] yes=17,no=18,missing=17
				17:leaf=0.213786915
				18:leaf=0.0160992499
		4:[ompk37_229<15] yes=9,no=10,missing=9
			9:leaf=-0.0794774219
			10:leaf=0.0151475063
	2:[ompk36_383<5] yes=5,no=6,missing=5
		5:[ompk37_209<14] yes=11,no=12,missing=11
			11:leaf=0.0176158193
			12:[ompk36_298<10] yes=19,no=20,missing=19
				19:leaf=-0.0931439921
				20:[ompk36_198<17] yes=27,no=28,missing=27
					27:leaf=-0.0725680441
					28:leaf=-0.0052873781
		6:[ompk36_198<17] yes=13,no=14,missing=13
			13:[ompk37_229<15] yes=21,no=22,missing=21
				21:leaf=-0.0597432964
				22:leaf=0.0413775407
			14:[ompk37_277<9] yes=23,no=24,missing=23
				23:[ompk36_129<13] yes=29,no=30,missing=29
					29:leaf=-0.0203645099
					30:leaf=0.0190975796
				24:[ompk36_154<16] yes=31,no=32,missing=31
					31:leaf=-0.0237222631
					32:leaf=-0.0720234141
booster[126]:
0:[ompk36_243<5] yes=1,no=2,missing=1
	1:[ompk36_198<17] yes=3,no=4,missing=3
		3:[ompk37_277<13] yes=7,no=8,missing=7
			7:leaf=-0.0791583881
			8:leaf=0.0534862243
		4:[ompk37_277<9] yes=9,no=10,missing=9
			9:leaf=-0.0294557698
			10:leaf=-0.0612425581
	2:[ompk37_367<7] yes=5,no=6,missing=5
		5:[ompk36_129<13] yes=11,no=12,missing=11
			11:[ompk36_155<14] yes=15,no=16,missing=15
				15:[ompk36_380<9] yes=19,no=20,missing=19
					19:leaf=-0.0431943424
					20:leaf=0.0281808078
				16:leaf=0.0903983638
			12:leaf=-0.0725612491
		6:[ompk36_96<18] yes=13,no=14,missing=13
			13:[ompk36_347<8] yes=17,no=18,missing=17
				17:[ompk37_209<14] yes=21,no=22,missing=21
					21:leaf=-0.0570779517
					22:leaf=0.0535928607
				18:[ompk36_141<20] yes=23,no=24,missing=23
					23:leaf=-0.0642707124
					24:leaf=0.00954315905
			14:leaf=0.151861385
booster[127]:
0:[ompk37_209<14] yes=1,no=2,missing=1
	1:leaf=0.167371824
	2:[ompk35_49<7] yes=3,no=4,missing=3
		3:[ompk35_181<8] yes=5,no=6,missing=5
			5:leaf=-0.0680403933
			6:[ompk37_56<11] yes=9,no=10,missing=9
				9:[ompk37_18<10] yes=13,no=14,missing=13
					13:leaf=0.0572566204
					14:leaf=0.15212968
				10:leaf=0.16377835
		4:[ompk37_229<15] yes=7,no=8,missing=7
			7:leaf=-0.0655454919
			8:[ompk36_249<25] yes=11,no=12,missing=11
				11:leaf=-0.0134756221
				12:leaf=0.0212227572
booster[128]:
0:[ompk37_208<8] yes=1,no=2,missing=1
	1:leaf=-0.0672326535
	2:[ompk36_153<14] yes=3,no=4,missing=3
		3:[ompk36_333<15] yes=5,no=6,missing=5
			5:[ompk35_78<20] yes=9,no=10,missing=9
				9:[ompk36_93<13] yes=15,no=16,missing=15
					15:leaf=0.0410673991
					16:leaf=0.192276642
				10:[ompk37_373<3] yes=17,no=18,missing=17
					17:leaf=0.0776133984
					18:leaf=0.128481001
			6:leaf=0.0198678859
		4:[ompk36_232<18] yes=7,no=8,missing=7
			7:[ompk35_49<7] yes=11,no=12,missing=11
				11:[ompk36_255<12] yes=19,no=20,missing=19
					19:leaf=-0.0660488755
					20:leaf=0.0757454261
				12:leaf=0.161562935
			8:[ompk37_277<9] yes=13,no=14,missing=13
				13:[ompk36_340<10] yes=21,no=22,missing=21
					21:leaf=0.0434428491
					22:leaf=0.112230711
				14:[ompk36_198<17] yes=23,no=24,missing=23
					23:leaf=0.0359564498
					24:leaf=0.128687128
booster[129]:
0:leaf=-0.100131787
booster[130]:
0:leaf=-0.100131787
booster[131]:
0:leaf=-0.100131787
booster[132]:
0:leaf=-0.100131787
booster[133]:
0:leaf=-0.0995589569
booster[134]:
0:leaf=-0.0995589569
booster[135]:
0:leaf=-0.0995589569
booster[136]:
0:leaf=-0.0995589569
booster[137]:
0:leaf=-0.0995589569
booster[138]:
0:leaf=-0.0947645381
booster[139]:
0:[ompk36_249<5] yes=1,no=2,missing=1
	1:leaf=-0.0830791518
	2:[ompk35_91<14] yes=3,no=4,missing=3
		3:[ompk36_96<20] yes=5,no=6,missing=5
			5:[ompk36_378<5] yes=7,no=8,missing=7
				7:[ompk37_264<8] yes=9,no=10,missing=9
					9:leaf=0.0230001993
					10:leaf=-0.0279340204
				8:leaf=-0.0866968036
			6:leaf=0.00068308803
		4:leaf=-0.0843500197
booster[140]:
0:[ompk37_374<14] yes=1,no=2,missing=1
	1:[ompk36_253<11] yes=3,no=4,missing=3
		3:leaf=0.0515292957
		4:[ompk36_380<9] yes=7,no=8,missing=7
			7:[ompk37_264<8] yes=9,no=10,missing=9
				9:leaf=0.0584033206
				10:leaf=-0.0324373171
			8:[ompk36_141<20] yes=11,no=12,missing=11
				11:[ompk36_247<13] yes=13,no=14,missing=13
					13:leaf=-0.0439728126
					14:leaf=-0.0870664343
				12:[ompk37_264<8] yes=15,no=16,missing=15
					15:leaf=-0.0523906052
					16:leaf=0.00772206485
	2:[ompk36_232<18] yes=5,no=6,missing=5
		5:leaf=-0.0448362194
		6:leaf=-0.096555762
booster[141]:
0:[ompk36_378<5] yes=1,no=2,missing=1
	1:[ompk36_281<16] yes=3,no=4,missing=3
		3:[ompk36_206<17] yes=7,no=8,missing=7
			7:leaf=0.0857052132
			8:[ompk37_277<13] yes=11,no=12,missing=11
				11:[ompk35_91<14] yes=15,no=16,missing=15
					15:leaf=0.021324208
					16:leaf=-0.0517018624
				12:leaf=-0.0745565593
		4:[ompk36_387<14] yes=9,no=10,missing=9
			9:[ompk36_383<5] yes=13,no=14,missing=13
				13:leaf=-0.0800348818
				14:[ompk37_277<9] yes=17,no=18,missing=17
					17:leaf=0.0147006605
					18:leaf=-0.0469608791
			10:leaf=0.0312805735
	2:[ompk36_96<20] yes=5,no=6,missing=5
		5:leaf=-0.0961970016
		6:leaf=-0.026711667
booster[142]:
0:[ompk37_277<9] yes=1,no=2,missing=1
	1:[ompk36_247<25] yes=3,no=4,missing=3
		3:[ompk37_365<9] yes=7,no=8,missing=7
			7:[ompk36_198<17] yes=11,no=12,missing=11
				11:[ompk36_383<5] yes=17,no=18,missing=17
					17:leaf=-0.0195990056
					18:leaf=0.0865702853
				12:[ompk36_256<2] yes=19,no=20,missing=19
					19:leaf=-0.0210549459
					20:leaf=-0.0656517446
			8:[ompk36_248<5] yes=13,no=14,missing=13
				13:leaf=-0.0693968311
				14:leaf=0.166756928
		4:leaf=0.09710031
	2:[ompk36_384<7] yes=5,no=6,missing=5
		5:leaf=-0.0967675969
		6:[ompk36_339<13] yes=9,no=10,missing=9
			9:leaf=0.0427376442
			10:[ompk36_141<20] yes=15,no=16,missing=15
				15:leaf=-0.0591635965
				16:leaf=0.00681354105
booster[143]:
0:[ompk36_198<17] yes=1,no=2,missing=1
	1:[ompk36_383<5] yes=3,no=4,missing=3
		3:leaf=-0.0717549026
		4:[ompk36_347<14] yes=7,no=8,missing=7
			7:leaf=0.0538265482
			8:leaf=-0.00648966804
	2:[ompk36_223<16] yes=5,no=6,missing=5
		5:[ompk36_153<14] yes=9,no=10,missing=9
			9:leaf=0.044752501
			10:[ompk37_362<13] yes=13,no=14,missing=13
				13:[ompk36_380<9] yes=17,no=18,missing=17
					17:leaf=0.00457135821
					18:leaf=-0.0503373519
				14:[ompk36_281<16] yes=19,no=20,missing=19
					19:leaf=-0.00377301569
					20:leaf=-0.0907929018
		6:[ompk37_264<8] yes=11,no=12,missing=11
			11:leaf=0.0197517946
			12:[ompk36_96<20] yes=15,no=16,missing=15
				15:leaf=-0.0850400031
				16:leaf=-0.014587109
booster[144]:
0:[ompk36_232<18] yes=1,no=2,missing=1
	1:[ompk36_378<5] yes=3,no=4,missing=3
		3:[ompk36_349<10] yes=7,no=8,missing=7
			7:[ompk37_56<22] yes=15,no=16,missing=15
				15:[ompk37_277<13] yes=25,no=26,missing=25
					25:leaf=0.0138203148
					26:leaf=-0.0390886068
				16:leaf=0.110479966
			8:[ompk36_281<16] yes=17,no=18,missing=17
				17:leaf=0.187098384
				18:leaf=0.014336668
		4:[ompk37_229<15] yes=9,no=10,missing=9
			9:leaf=-0.0774684548
			10:leaf=0.0151235079
	2:[ompk36_383<5] yes=5,no=6,missing=5
		5:[ompk37_209<14] yes=11,no=12,missing=11
			11:leaf=0.0197083186
			12:[ompk36_298<10] yes=19,no=20,missing=19
				19:leaf=-0.0918700695
				20:[ompk36_198<17] yes=27,no=28,missing=27
					27:leaf=-0.0701444447
					28:leaf=-0.0025371681
		6:[ompk36_198<17] yes=13,no=14,missing=13
			13:[ompk36_347<14] yes=21,no=22,missing=21
				21:leaf=0.0373126268
				22:leaf=-0.0584819876
			14:[ompk37_373<3] yes=23,no=24,missing=23
				23:[ompk36_97<15] yes=29,no=30,missing=29
					29:leaf=0.0101576373
					30:leaf=-0.0316725895
				24:[ompk36_154<16] yes=31,no=32,missing=31
					31:leaf=-0.0195617825
					32:leaf=-0.0683007538
booster[145]:
0:[ompk36_206<13] yes=1,no=2,missing=1
	1:[ompk36_383<5] yes=3,no=4,missing=3
		3:leaf=-0.0819784626
		4:[ompk36_198<17] yes=7,no=8,missing=7
			7:[ompk36_347<14] yes=11,no=12,missing=11
				11:leaf=0.0387923494
				12:leaf=-0.000966564694
			8:[ompk36_249<25] yes=13,no=14,missing=13
				13:leaf=-0.0746225119
				14:[ompk37_277<9] yes=19,no=20,missing=19
					19:leaf=-0.0101952879
					20:leaf=-0.0356385224
	2:[ompk36_137<15] yes=5,no=6,missing=5
		5:leaf=-0.0657695308
		6:[ompk37_367<7] yes=9,no=10,missing=9
			9:[ompk36_129<13] yes=15,no=16,missing=15
				15:[ompk36_155<14] yes=21,no=22,missing=21
					21:leaf=0.00315397209
					22:leaf=0.132778928
				16:leaf=-0.0704120472
			10:[ompk36_96<18] yes=17,no=18,missing=17
				17:[ompk37_209<14] yes=23,no=24,missing=23
					23:leaf=-0.0542871654
					24:leaf=0.0438472629
				18:leaf=0.136425003
booster[146]:
0:[ompk37_209<14] yes=1,no=2,missing=1
	1:leaf=0.143201098
	2:[ompk36_153<14] yes=3,no=4,missing=3
		3:[ompk35_78<20] yes=5,no=6,missing=5
			5:leaf=-0.0759735107
			6:[ompk37_373<3] yes=9,no=10,missing=9
				9:leaf=0.058107879
				10:leaf=-0.00160103536
		4:[ompk35_91<14] yes=7,no=8,missing=7
			7:[ompk35_181<8] yes=11,no=12,missing=11
				11:leaf=-0.0660167933
				12:[ompk37_18<10] yes=15,no=16,missing=15
					15:leaf=0.058420863
					16:leaf=0.134200662
			8:[ompk36_249<25] yes=13,no=14,missing=13
				13:leaf=-0.0684682056
				14:leaf=0.0112723624
booster[147]:
0:[ompk35_91<14] yes=1,no=2,missing=1
	1:[ompk36_153<14] yes=3,no=4,missing=3
		3:[ompk36_333<15] yes=7,no=8,missing=7
			7:[ompk36_93<13] yes=15,no=16,missing=15
				15:leaf=0.0339105986
				16:leaf=0.170652553
			8:leaf=-0.019044904
		4:[ompk36_232<18] yes=9,no=10,missing=9
			9:[ompk36_255<12] yes=17,no=18,missing=17
				17:leaf=-0.0748560131
				18:[ompk37_293<16] yes=23,no=24,missing=23
					23:leaf=0.0782568082
					24:leaf=0.0345035754
			10:[ompk37_208<8] yes=19,no=20,missing=19
				19:leaf=-0.0663871691
				20:[ompk36_252<25] yes=25,no=26,missing=25
					25:leaf=0.0926056355
					26:leaf=-0.0298808813
	2:[ompk36_154<12] yes=5,no=6,missing=5
		5:[ompk37_373<3] yes=11,no=12,missing=11
			11:[ompk36_378<5] yes=21,no=22,missing=21
				21:[ompk36_206<17] yes=27,no=28,missing=27
					27:leaf=-0.04112738
					28:leaf=0.00685448572
				22:leaf=0.125557348
			12:leaf=0.116466202
		6:[ompk36_249<25] yes=13,no=14,missing=13
			13:leaf=0.150953576
			14:leaf=0.112313785
booster[148]:
0:leaf=-0.0995589569
booster[149]:
0:leaf=-0.0995589569
booster[150]:
0:leaf=-0.0995589569
booster[151]:
0:leaf=-0.0995589569
booster[152]:
0:leaf=-0.0989911184
booster[153]:
0:leaf=-0.0989911184
booster[154]:
0:leaf=-0.0989911184
booster[155]:
0:leaf=-0.0989911184
booster[156]:
0:leaf=-0.0989911184
booster[157]:
0:leaf=-0.0936155245
booster[158]:
0:[ompk36_249<5] yes=1,no=2,missing=1
	1:leaf=-0.0807709768
	2:[ompk35_91<14] yes=3,no=4,missing=3
		3:[ompk36_378<5] yes=5,no=6,missing=5
			5:[ompk37_264<8] yes=7,no=8,missing=7
				7:leaf=0.023100378
				8:[ompk36_383<5] yes=11,no=12,missing=11
					11:leaf=-0.0488990061
					12:leaf=-0.000255812338
			6:[ompk36_96<20] yes=9,no=10,missing=9
				9:leaf=-0.0850345716
				10:leaf=0.00218316889
		4:leaf=-0.0820041969
booster[159]:
0:[ompk37_374<14] yes=1,no=2,missing=1
	1:[ompk36_304<12] yes=3,no=4,missing=3
		3:leaf=0.022003036
		4:[ompk36_252<16] yes=7,no=8,missing=7
			7:[ompk36_380<9] yes=9,no=10,missing=9
				9:leaf=-0.00160653703
				10:[ompk36_249<16] yes=13,no=14,missing=13
					13:leaf=-0.0886903629
					14:leaf=-0.0401077457
			8:[ompk36_129<13] yes=11,no=12,missing=11
				11:leaf=0.0556456521
				12:leaf=-0.0289798267
	2:[ompk36_232<18] yes=5,no=6,missing=5
		5:leaf=-0.042381689
		6:leaf=-0.0956086144
booster[160]:
0:[ompk36_378<5] yes=1,no=2,missing=1
	1:[ompk36_153<14] yes=3,no=4,missing=3
		3:leaf=-0.077834487
		4:[ompk36_281<16] yes=7,no=8,missing=7
			7:[ompk36_206<17] yes=9,no=10,missing=9
				9:leaf=0.0781172365
				10:[ompk37_373<3] yes=13,no=14,missing=13
					13:leaf=0.0219388735
					14:leaf=-0.0726259425
			8:[ompk37_322<9] yes=11,no=12,missing=11
				11:[ompk36_249<16] yes=15,no=16,missing=15
					15:leaf=0.0454485081
					16:leaf=-0.0124419993
				12:[ompk36_198<17] yes=17,no=18,missing=17
					17:leaf=-0.0140826805
					18:leaf=-0.044150006
	2:[ompk36_96<20] yes=5,no=6,missing=5
		5:leaf=-0.0952297375
		6:leaf=-0.0239949133
booster[161]:
0:[ompk37_277<9] yes=1,no=2,missing=1
	1:[ompk36_247<25] yes=3,no=4,missing=3
		3:[ompk37_365<9] yes=7,no=8,missing=7
			7:[ompk36_256<2] yes=13,no=14,missing=13
				13:[ompk36_153<14] yes=19,no=20,missing=19
					19:leaf=-0.063823238
					20:leaf=0.00443980517
				14:[ompk36_96<20] yes=21,no=22,missing=21
					21:leaf=-0.082683526
					22:leaf=-0.0167654194
			8:[ompk36_248<5] yes=15,no=16,missing=15
				15:leaf=-0.0677688792
				16:leaf=0.144384548
		4:[ompk36_198<17] yes=9,no=10,missing=9
			9:leaf=0.104206681
			10:leaf=0.0285446383
	2:[ompk36_384<7] yes=5,no=6,missing=5
		5:leaf=-0.0958667621
		6:[ompk36_339<13] yes=11,no=12,missing=11
			11:leaf=0.0398727879
			12:[ompk36_141<20] yes=17,no=18,missing=17
				17:leaf=-0.0572123043
				18:leaf=0.00914571062
booster[162]:
0:[ompk36_198<17] yes=1,no=2,missing=1
	1:[ompk36_383<5] yes=3,no=4,missing=3
		3:leaf=-0.069466643
		4:[ompk36_347<14] yes=7,no=8,missing=7
			7:leaf=0.0491176955
			8:leaf=-0.00532989902
	2:[ompk35_73<13] yes=5,no=6,missing=5
		5:[ompk36_153<14] yes=9,no=10,missing=9
			9:[ompk36_378<5] yes=11,no=12,missing=11
				11:leaf=-0.0708345473
				12:leaf=0.118754648
			10:[ompk37_374<14] yes=13,no=14,missing=13
				13:[ompk37_264<8] yes=15,no=16,missing=15
					15:leaf=0.0232494101
					16:leaf=-0.0266310778
				14:[ompk36_232<18] yes=17,no=18,missing=17
					17:leaf=-0.0204419605
					18:leaf=-0.0926213935
		6:leaf=-0.0873408467
booster[163]:
0:[ompk36_232<18] yes=1,no=2,missing=1
	1:[ompk36_378<5] yes=3,no=4,missing=3
		3:[ompk36_349<10] yes=7,no=8,missing=7
			7:[ompk36_387<14] yes=15,no=16,missing=15
				15:[ompk36_253<11] yes=25,no=26,missing=25
					25:leaf=-0.0649772659
					26:leaf=0.0110895103
				16:leaf=0.10429287
			8:[ompk36_215<9] yes=17,no=18,missing=17
				17:leaf=-0.0568718277
				18:leaf=0.183984846
		4:[ompk37_229<15] yes=9,no=10,missing=9
			9:leaf=-0.075212054
			10:leaf=0.0143665643
	2:[ompk36_383<5] yes=5,no=6,missing=5
		5:[ompk37_209<14] yes=11,no=12,missing=11
			11:leaf=0.0210578796
			12:[ompk36_298<10] yes=19,no=20,missing=19
				19:leaf=-0.09051691
				20:[ompk36_198<17] yes=27,no=28,missing=27
					27:leaf=-0.0677318275
					28:leaf=-0.000537933083
		6:[ompk36_198<17] yes=13,no=14,missing=13
			13:[ompk37_229<15] yes=21,no=22,missing=21
				21:leaf=-0.0569409616
				22:leaf=0.0352976657
			14:[ompk37_277<9] yes=23,no=24,missing=23
				23:[ompk36_97<15] yes=29,no=30,missing=29
					29:leaf=0.0119619658
					30:leaf=-0.0290522017
				24:[ompk36_154<16] yes=31,no=32,missing=31
					31:leaf=-0.0130843772
					32:leaf=-0.0650368109
booster[164]:
0:[ompk36_243<5] yes=1,no=2,missing=1
	1:[ompk36_383<5] yes=3,no=4,missing=3
		3:leaf=-0.0806177184
		4:[ompk36_198<17] yes=7,no=8,missing=7
			7:[ompk36_347<14] yes=11,no=12,missing=11
				11:leaf=0.0362464041
				12:leaf=0.00439748075
			8:[ompk36_249<14] yes=13,no=14,missing=13
				13:leaf=-0.0717998371
				14:[ompk37_277<9] yes=17,no=18,missing=17
					17:leaf=-0.00719100097
					18:leaf=-0.0310688503
	2:[ompk36_137<15] yes=5,no=6,missing=5
		5:leaf=-0.0632407591
		6:[ompk37_37<14] yes=9,no=10,missing=9
			9:leaf=-0.0605440997
			10:[ompk37_264<8] yes=15,no=16,missing=15
				15:[ompk36_203<12] yes=19,no=20,missing=19
					19:leaf=-0.0688124597
					20:leaf=0.0379557125
				16:[ompk37_209<14] yes=21,no=22,missing=21
					21:leaf=-0.0518084951
					22:leaf=0.0406242274
booster[165]:
0:[ompk37_278<20] yes=1,no=2,missing=1
	1:leaf=-0.0680281296
	2:[ompk36_95<4] yes=3,no=4,missing=3
		3:[ompk36_203<6] yes=5,no=6,missing=5
			5:[ompk36_252<20] yes=9,no=10,missing=9
				9:[ompk36_309<3] yes=17,no=18,missing=17
					17:leaf=0.0381400585
					18:leaf=0.104080833
				10:leaf=0.177177176
			6:[ompk37_208<8] yes=11,no=12,missing=11
				11:leaf=0.134755746
				12:[ompk36_98<16] yes=19,no=20,missing=19
					19:leaf=-0.0459954031
					20:leaf=0.0196433272
		4:[ompk37_367<7] yes=7,no=8,missing=7
			7:[ompk37_264<8] yes=13,no=14,missing=13
				13:leaf=-0.00121580099
				14:leaf=0.121363156
			8:[ompk37_209<14] yes=15,no=16,missing=15
				15:leaf=0.123509787
				16:[ompk36_332<21] yes=21,no=22,missing=21
					21:leaf=0.0208553039
					22:leaf=0.136041924
booster[166]:
0:[ompk35_91<14] yes=1,no=2,missing=1
	1:[ompk36_153<14] yes=3,no=4,missing=3
		3:[ompk36_253<22] yes=7,no=8,missing=7
			7:[ompk36_333<15] yes=11,no=12,missing=11
				11:leaf=0.15451999
				12:leaf=0.00658008968
			8:[ompk36_154<16] yes=13,no=14,missing=13
				13:leaf=0.0321738645
				14:leaf=-0.0208020266
		4:[ompk36_232<18] yes=9,no=10,missing=9
			9:[ompk36_255<12] yes=15,no=16,missing=15
				15:leaf=-0.0729840994
				16:[ompk35_49<7] yes=19,no=20,missing=19
					19:leaf=0.0497874729
					20:leaf=0.137384534
			10:[ompk37_208<8] yes=17,no=18,missing=17
				17:leaf=-0.0654853582
				18:[ompk37_209<14] yes=21,no=22,missing=21
					21:leaf=0.0194402225
					22:leaf=0.0804854855
	2:[ompk35_10<16] yes=5,no=6,missing=5
		5:leaf=0.111281194
		6:leaf=0.0487415269
booster[167]:
0:leaf=-0.0989911184
booster[168]:
0:leaf=-0.0989911184
booster[169]:
0:leaf=-0.0989911184
booster[170]:
0:leaf=-0.0989911184
booster[171]:
0:leaf=-0.0984181762
booster[172]:
0:leaf=-0.0984181762
booster[173]:
0:leaf=-0.0984181762
booster[174]:
0:leaf=-0.0984181762
booster[175]:
0:leaf=-0.0984181762
booster[176]:
0:leaf=-0.0924029425
booster[177]:
0:[ompk36_146<16] yes=1,no=2,missing=1
	1:leaf=0.0380212627
	2:[ompk36_96<21] yes=3,no=4,missing=3
		3:[ompk36_378<5] yes=5,no=6,missing=5
			5:[ompk35_73<13] yes=7,no=8,missing=7
				7:[ompk36_383<5] yes=9,no=10,missing=9
					9:leaf=-0.0505467914
					10:leaf=-0.00838479679
				8:leaf=-0.0853383616
			6:leaf=-0.0801078901
		4:leaf=0.00257520517
booster[178]:
0:[ompk37_277<9] yes=1,no=2,missing=1
	1:[ompk36_304<12] yes=3,no=4,missing=3
		3:leaf=0.0279623847
		4:[ompk36_252<16] yes=7,no=8,missing=7
			7:[ompk36_380<9] yes=9,no=10,missing=9
				9:leaf=-0.00503430655
				10:[ompk36_249<16] yes=13,no=14,missing=13
					13:leaf=-0.0876645371
					14:leaf=-0.034542501
			8:[ompk36_98<16] yes=11,no=12,missing=11
				11:leaf=0.0479453914
				12:leaf=-0.0263665915
	2:[ompk36_232<18] yes=5,no=6,missing=5
		5:leaf=-0.034685567
		6:leaf=-0.0948461443
booster[179]:
0:[ompk36_378<5] yes=1,no=2,missing=1
	1:[ompk36_153<14] yes=3,no=4,missing=3
		3:leaf=-0.0749443695
		4:[ompk36_281<16] yes=7,no=8,missing=7
			7:[ompk36_206<17] yes=9,no=10,missing=9
				9:leaf=0.0714309737
				10:[ompk37_277<13] yes=13,no=14,missing=13
					13:leaf=0.0210985634
					14:leaf=-0.0708967373
			8:[ompk37_322<9] yes=11,no=12,missing=11
				11:[ompk36_383<5] yes=15,no=16,missing=15
					15:leaf=-0.0278775897
					16:leaf=0.0230029337
				12:[ompk37_229<15] yes=17,no=18,missing=17
					17:leaf=-0.057976272
					18:leaf=-0.0250973646
	2:[ompk36_96<20] yes=5,no=6,missing=5
		5:leaf=-0.0942417979
		6:leaf=-0.0213540625
booster[180]:
0:[ompk37_277<9] yes=1,no=2,missing=1
	1:[ompk36_154<11] yes=3,no=4,missing=3
		3:[ompk36_383<5] yes=7,no=8,missing=7
			7:leaf=0.0992286578
			8:leaf=0.027579328
		4:[ompk37_18<10] yes=9,no=10,missing=9
			9:[ompk36_249<5] yes=13,no=14,missing=13
				13:leaf=-0.084595181
				14:[ompk36_198<17] yes=19,no=20,missing=19
					19:leaf=0.0248532854
					20:leaf=-0.0122307334
			10:[ompk36_248<5] yes=15,no=16,missing=15
				15:leaf=-0.0551396981
				16:[ompk36_203<20] yes=21,no=22,missing=21
					21:leaf=0.0302883126
					22:leaf=0.125016004
	2:[ompk36_384<7] yes=5,no=6,missing=5
		5:leaf=-0.0949352831
		6:[ompk36_339<13] yes=11,no=12,missing=11
			11:leaf=0.0376894772
			12:[ompk36_141<20] yes=17,no=18,missing=17
				17:leaf=-0.0551258624
				18:leaf=0.0104852933
booster[181]:
0:[ompk35_73<13] yes=1,no=2,missing=1
	1:[ompk36_198<17] yes=3,no=4,missing=3
		3:[ompk36_383<5] yes=5,no=6,missing=5
			5:leaf=-0.0607293434
			6:[ompk36_347<14] yes=9,no=10,missing=9
				9:leaf=0.0478220992
				10:leaf=-0.00164244906
		4:[ompk36_153<14] yes=7,no=8,missing=7
			7:[ompk36_378<5] yes=11,no=12,missing=11
				11:leaf=-0.0672580972
				12:leaf=0.107084237
			8:[ompk37_277<9] yes=13,no=14,missing=13
				13:[ompk36_380<9] yes=15,no=16,missing=15
					15:leaf=0.0160367601
					16:leaf=-0.0315178409
				14:[ompk36_232<18] yes=17,no=18,missing=17
					17:leaf=-0.0125001995
					18:leaf=-0.0919047222
	2:leaf=-0.0871418118
booster[182]:
0:[ompk36_232<18] yes=1,no=2,missing=1
	1:[ompk36_380<9] yes=3,no=4,missing=3
		3:leaf=-0.0687178895
		4:[ompk35_91<14] yes=7,no=8,missing=7
			7:[ompk36_309<3] yes=13,no=14,missing=13
				13:[ompk36_349<10] yes=19,no=20,missing=19
					19:leaf=0.0242561232
					20:leaf=0.111818328
				14:leaf=-0.0535214953
			8:leaf=-0.0567073114
	2:[ompk36_383<5] yes=5,no=6,missing=5
		5:[ompk37_209<14] yes=9,no=10,missing=9
			9:leaf=0.020196056
			10:[ompk36_298<10] yes=15,no=16,missing=15
				15:leaf=-0.0890993774
				16:[ompk36_198<17] yes=21,no=22,missing=21
					21:leaf=-0.0653840154
					22:leaf=0.00132007652
		6:[ompk36_129<13] yes=11,no=12,missing=11
			11:[ompk36_395<12] yes=17,no=18,missing=17
				17:[ompk36_198<17] yes=23,no=24,missing=23
					23:leaf=0.034522187
					24:leaf=-0.0225100629
				18:leaf=-0.0809386298
			12:leaf=0.0203300621
booster[183]:
0:[ompk36_206<13] yes=1,no=2,missing=1
	1:[ompk36_383<5] yes=3,no=4,missing=3
		3:leaf=-0.0778355598
		4:[ompk36_198<17] yes=7,no=8,missing=7
			7:[ompk36_347<14] yes=11,no=12,missing=11
				11:leaf=0.0339746587
				12:leaf=0.000579348125
			8:[ompk36_249<25] yes=13,no=14,missing=13
				13:leaf=-0.0688564703
				14:[ompk37_277<9] yes=17,no=18,missing=17
					17:leaf=-0.0043955734
					18:leaf=-0.0264511462
	2:[ompk36_137<15] yes=5,no=6,missing=5
		5:leaf=-0.0609217398
		6:[ompk37_37<14] yes=9,no=10,missing=9
			9:leaf=-0.0581763647
			10:[ompk37_264<8] yes=15,no=16,missing=15
				15:[ompk36_203<12] yes=19,no=20,missing=19
					19:leaf=-0.0665711388
					20:leaf=0.0367184617
				16:[ompk36_254<22] yes=21,no=22,missing=21
					21:leaf=0.0791794509
					22:leaf=0.0296478607
booster[184]:
0:[ompk37_278<20] yes=1,no=2,missing=1
	1:leaf=-0.0657149255
	2:[ompk35_181<8] yes=3,no=4,missing=3
		3:leaf=-0.0629481301
		4:[ompk36_36<14] yes=5,no=6,missing=5
			5:[ompk36_153<14] yes=7,no=8,missing=7
				7:[ompk35_78<20] yes=9,no=10,missing=9
					9:leaf=-0.0730218813
					10:leaf=0.0371336453
				8:[ompk37_18<10] yes=11,no=12,missing=11
					11:leaf=0.0506643616
					12:leaf=0.114042394
			6:leaf=-0.0631456897
booster[185]:
0:[ompk35_91<14] yes=1,no=2,missing=1
	1:[ompk36_153<14] yes=3,no=4,missing=3
		3:[ompk36_253<22] yes=7,no=8,missing=7
			7:[ompk36_333<15] yes=15,no=16,missing=15
				15:leaf=0.142580613
				16:leaf=0.00449875183
			8:[ompk36_154<16] yes=17,no=18,missing=17
				17:leaf=0.0279637035
				18:leaf=-0.0212014709
		4:[ompk36_232<18] yes=9,no=10,missing=9
			9:[ompk36_347<8] yes=19,no=20,missing=19
				19:[ompk37_293<16] yes=27,no=28,missing=27
					27:leaf=0.0513687246
					28:leaf=0.00351376995
				20:[ompk37_18<10] yes=29,no=30,missing=29
					29:leaf=0.104606129
					30:leaf=-0.0288374927
			10:[ompk37_208<8] yes=21,no=22,missing=21
				21:leaf=-0.0639962777
				22:[ompk37_117<10] yes=31,no=32,missing=31
					31:leaf=0.143083796
					32:leaf=0.0663020834
	2:[ompk36_154<12] yes=5,no=6,missing=5
		5:[ompk37_373<3] yes=11,no=12,missing=11
			11:[ompk36_378<5] yes=23,no=24,missing=23
				23:[ompk36_206<17] yes=33,no=34,missing=33
					33:leaf=-0.0495019928
					34:leaf=-0.00791214779
				24:leaf=0.109152853
			12:leaf=0.0971711501
		6:[ompk36_249<25] yes=13,no=14,missing=13
			13:leaf=0.132563218
			14:[ompk35_10<16] yes=25,no=26,missing=25
				25:leaf=0.0949449986
				26:leaf=0.0358727835
booster[186]:
0:leaf=-0.0984181762
booster[187]:
0:leaf=-0.0984181762
booster[188]:
0:leaf=-0.0984181762
booster[189]:
0:leaf=-0.0984181762
